digraph Tree {
node [shape=box] ;
0 [label="Year <= 1922.0\ngini = 0.277\nsamples = 150154\nvalue = [126976, 7734, 7835, 7609]"] ;
1 [label="Team <= 127.5\ngini = 0.439\nsamples = 16021\nvalue = [11744, 1336, 1509, 1432]"] ;
0 -> 1 [labeldistance=2.5, labelangle=45, headlabel="True"] ;
2 [label="Team <= 99.5\ngini = 0.395\nsamples = 13958\nvalue = [10693, 1007, 1174, 1084]"] ;
1 -> 2 ;
3 [label="Team <= 32.5\ngini = 0.418\nsamples = 12438\nvalue = [9313, 954, 1148, 1023]"] ;
2 -> 3 ;
4 [label="NOC <= 4.5\ngini = 0.371\nsamples = 6236\nvalue = [4883, 438, 407, 508]"] ;
3 -> 4 ;
5 [label="Sport <= 8.5\ngini = 0.458\nsamples = 2256\nvalue = [1617, 221, 155, 263]"] ;
4 -> 5 ;
6 [label="Sport <= 3.5\ngini = 0.606\nsamples = 1047\nvalue = [600, 139, 104, 204]"] ;
5 -> 6 ;
7 [label="Sport <= 1.5\ngini = 0.382\nsamples = 614\nvalue = [476, 57, 35, 46]"] ;
6 -> 7 ;
8 [label="NOC <= 2.5\ngini = 0.7\nsamples = 133\nvalue = [52, 41, 12, 28]"] ;
7 -> 8 ;
9 [label="NOC <= 1.5\ngini = 0.677\nsamples = 92\nvalue = [11, 41, 12, 28]"] ;
8 -> 9 ;
10 [label="Year <= 1907.0\ngini = 0.597\nsamples = 51\nvalue = [11, 0, 12, 28]"] ;
9 -> 10 ;
11 [label="gini = 0.0\nsamples = 12\nvalue = [0, 0, 12, 0]"] ;
10 -> 11 ;
12 [label="Year <= 1916.0\ngini = 0.405\nsamples = 39\nvalue = [11, 0, 0, 28]"] ;
10 -> 12 ;
13 [label="gini = 0.0\nsamples = 28\nvalue = [0, 0, 0, 28]"] ;
12 -> 13 ;
14 [label="gini = 0.0\nsamples = 11\nvalue = [11, 0, 0, 0]"] ;
12 -> 14 ;
15 [label="gini = 0.0\nsamples = 41\nvalue = [0, 41, 0, 0]"] ;
9 -> 15 ;
16 [label="gini = 0.0\nsamples = 41\nvalue = [41, 0, 0, 0]"] ;
8 -> 16 ;
17 [label="Height <= 174.5\ngini = 0.218\nsamples = 481\nvalue = [424, 16, 23, 18]"] ;
7 -> 17 ;
18 [label="Team <= 3.5\ngini = 0.491\nsamples = 76\nvalue = [52, 4, 13, 7]"] ;
17 -> 18 ;
19 [label="Year <= 1916.0\ngini = 0.622\nsamples = 45\nvalue = [24, 3, 12, 6]"] ;
18 -> 19 ;
20 [label="Height <= 168.5\ngini = 0.563\nsamples = 23\nvalue = [14, 1, 3, 5]"] ;
19 -> 20 ;
21 [label="Height <= 166.5\ngini = 0.642\nsamples = 9\nvalue = [4, 0, 3, 2]"] ;
20 -> 21 ;
22 [label="Age <= 24.0\ngini = 0.375\nsamples = 4\nvalue = [3, 0, 0, 1]"] ;
21 -> 22 ;
23 [label="gini = 0.5\nsamples = 2\nvalue = [1, 0, 0, 1]"] ;
22 -> 23 ;
24 [label="gini = 0.0\nsamples = 2\nvalue = [2, 0, 0, 0]"] ;
22 -> 24 ;
25 [label="gini = 0.56\nsamples = 5\nvalue = [1, 0, 3, 1]"] ;
21 -> 25 ;
26 [label="Age <= 22.5\ngini = 0.439\nsamples = 14\nvalue = [10, 1, 0, 3]"] ;
20 -> 26 ;
27 [label="gini = 0.0\nsamples = 3\nvalue = [3, 0, 0, 0]"] ;
26 -> 27 ;
28 [label="Height <= 171.5\ngini = 0.512\nsamples = 11\nvalue = [7, 1, 0, 3]"] ;
26 -> 28 ;
29 [label="Weight <= 67.808\ngini = 0.32\nsamples = 5\nvalue = [4, 0, 0, 1]"] ;
28 -> 29 ;
30 [label="gini = 0.0\nsamples = 1\nvalue = [1, 0, 0, 0]"] ;
29 -> 30 ;
31 [label="gini = 0.375\nsamples = 4\nvalue = [3, 0, 0, 1]"] ;
29 -> 31 ;
32 [label="Age <= 23.5\ngini = 0.611\nsamples = 6\nvalue = [3, 1, 0, 2]"] ;
28 -> 32 ;
33 [label="gini = 0.625\nsamples = 4\nvalue = [2, 1, 0, 1]"] ;
32 -> 33 ;
34 [label="gini = 0.5\nsamples = 2\nvalue = [1, 0, 0, 1]"] ;
32 -> 34 ;
35 [label="Height <= 173.0\ngini = 0.616\nsamples = 22\nvalue = [10, 2, 9, 1]"] ;
19 -> 35 ;
36 [label="Age <= 24.5\ngini = 0.568\nsamples = 18\nvalue = [10, 2, 6, 0]"] ;
35 -> 36 ;
37 [label="gini = 0.5\nsamples = 2\nvalue = [1, 1, 0, 0]"] ;
36 -> 37 ;
38 [label="Height <= 171.0\ngini = 0.539\nsamples = 16\nvalue = [9, 1, 6, 0]"] ;
36 -> 38 ;
39 [label="Height <= 163.0\ngini = 0.593\nsamples = 9\nvalue = [4, 1, 4, 0]"] ;
38 -> 39 ;
40 [label="gini = 0.0\nsamples = 1\nvalue = [1, 0, 0, 0]"] ;
39 -> 40 ;
41 [label="Age <= 28.0\ngini = 0.594\nsamples = 8\nvalue = [3, 1, 4, 0]"] ;
39 -> 41 ;
42 [label="Weight <= 58.0\ngini = 0.612\nsamples = 7\nvalue = [3, 1, 3, 0]"] ;
41 -> 42 ;
43 [label="Age <= 25.5\ngini = 0.5\nsamples = 4\nvalue = [2, 0, 2, 0]"] ;
42 -> 43 ;
44 [label="gini = 0.5\nsamples = 2\nvalue = [1, 0, 1, 0]"] ;
43 -> 44 ;
45 [label="gini = 0.5\nsamples = 2\nvalue = [1, 0, 1, 0]"] ;
43 -> 45 ;
46 [label="gini = 0.667\nsamples = 3\nvalue = [1, 1, 1, 0]"] ;
42 -> 46 ;
47 [label="gini = 0.0\nsamples = 1\nvalue = [0, 0, 1, 0]"] ;
41 -> 47 ;
48 [label="Weight <= 61.5\ngini = 0.408\nsamples = 7\nvalue = [5, 0, 2, 0]"] ;
38 -> 48 ;
49 [label="gini = 0.375\nsamples = 4\nvalue = [3, 0, 1, 0]"] ;
48 -> 49 ;
50 [label="gini = 0.444\nsamples = 3\nvalue = [2, 0, 1, 0]"] ;
48 -> 50 ;
51 [label="gini = 0.375\nsamples = 4\nvalue = [0, 0, 3, 1]"] ;
35 -> 51 ;
52 [label="Weight <= 71.308\ngini = 0.181\nsamples = 31\nvalue = [28, 1, 1, 1]"] ;
18 -> 52 ;
53 [label="gini = 0.0\nsamples = 20\nvalue = [20, 0, 0, 0]"] ;
52 -> 53 ;
54 [label="Age <= 20.5\ngini = 0.446\nsamples = 11\nvalue = [8, 1, 1, 1]"] ;
52 -> 54 ;
55 [label="Age <= 19.0\ngini = 0.625\nsamples = 4\nvalue = [2, 1, 0, 1]"] ;
54 -> 55 ;
56 [label="gini = 0.0\nsamples = 1\nvalue = [1, 0, 0, 0]"] ;
55 -> 56 ;
57 [label="gini = 0.667\nsamples = 3\nvalue = [1, 1, 0, 1]"] ;
55 -> 57 ;
58 [label="Weight <= 76.0\ngini = 0.245\nsamples = 7\nvalue = [6, 0, 1, 0]"] ;
54 -> 58 ;
59 [label="gini = 0.375\nsamples = 4\nvalue = [3, 0, 1, 0]"] ;
58 -> 59 ;
60 [label="gini = 0.0\nsamples = 3\nvalue = [3, 0, 0, 0]"] ;
58 -> 60 ;
61 [label="Weight <= 76.5\ngini = 0.154\nsamples = 405\nvalue = [372, 12, 10, 11]"] ;
17 -> 61 ;
62 [label="Year <= 1903.0\ngini = 0.079\nsamples = 344\nvalue = [330, 8, 0, 6]"] ;
61 -> 62 ;
63 [label="Age <= 24.5\ngini = 0.332\nsamples = 19\nvalue = [15, 4, 0, 0]"] ;
62 -> 63 ;
64 [label="Sport <= 2.5\ngini = 0.444\nsamples = 12\nvalue = [8, 4, 0, 0]"] ;
63 -> 64 ;
65 [label="Year <= 1898.0\ngini = 0.346\nsamples = 9\nvalue = [7, 2, 0, 0]"] ;
64 -> 65 ;
66 [label="gini = 0.0\nsamples = 2\nvalue = [2, 0, 0, 0]"] ;
65 -> 66 ;
67 [label="Age <= 19.0\ngini = 0.408\nsamples = 7\nvalue = [5, 2, 0, 0]"] ;
65 -> 67 ;
68 [label="gini = 0.0\nsamples = 2\nvalue = [2, 0, 0, 0]"] ;
67 -> 68 ;
69 [label="Age <= 21.5\ngini = 0.48\nsamples = 5\nvalue = [3, 2, 0, 0]"] ;
67 -> 69 ;
70 [label="gini = 0.0\nsamples = 1\nvalue = [0, 1, 0, 0]"] ;
69 -> 70 ;
71 [label="Team <= 2.5\ngini = 0.375\nsamples = 4\nvalue = [3, 1, 0, 0]"] ;
69 -> 71 ;
72 [label="gini = 0.0\nsamples = 2\nvalue = [2, 0, 0, 0]"] ;
71 -> 72 ;
73 [label="gini = 0.5\nsamples = 2\nvalue = [1, 1, 0, 0]"] ;
71 -> 73 ;
74 [label="Team <= 1.5\ngini = 0.444\nsamples = 3\nvalue = [1, 2, 0, 0]"] ;
64 -> 74 ;
75 [label="gini = 0.0\nsamples = 1\nvalue = [0, 1, 0, 0]"] ;
74 -> 75 ;
76 [label="Age <= 20.5\ngini = 0.5\nsamples = 2\nvalue = [1, 1, 0, 0]"] ;
74 -> 76 ;
77 [label="gini = 0.0\nsamples = 1\nvalue = [0, 1, 0, 0]"] ;
76 -> 77 ;
78 [label="gini = 0.0\nsamples = 1\nvalue = [1, 0, 0, 0]"] ;
76 -> 78 ;
79 [label="gini = 0.0\nsamples = 7\nvalue = [7, 0, 0, 0]"] ;
63 -> 79 ;
80 [label="Weight <= 69.0\ngini = 0.06\nsamples = 325\nvalue = [315, 4, 0, 6]"] ;
62 -> 80 ;
81 [label="Year <= 1910.0\ngini = 0.292\nsamples = 12\nvalue = [10, 1, 0, 1]"] ;
80 -> 81 ;
82 [label="gini = 0.0\nsamples = 1\nvalue = [0, 1, 0, 0]"] ;
81 -> 82 ;
83 [label="NOC <= 3.5\ngini = 0.165\nsamples = 11\nvalue = [10, 0, 0, 1]"] ;
81 -> 83 ;
84 [label="Height <= 179.0\ngini = 0.245\nsamples = 7\nvalue = [6, 0, 0, 1]"] ;
83 -> 84 ;
85 [label="Team <= 2.0\ngini = 0.32\nsamples = 5\nvalue = [4, 0, 0, 1]"] ;
84 -> 85 ;
86 [label="gini = 0.0\nsamples = 1\nvalue = [1, 0, 0, 0]"] ;
85 -> 86 ;
87 [label="gini = 0.375\nsamples = 4\nvalue = [3, 0, 0, 1]"] ;
85 -> 87 ;
88 [label="gini = 0.0\nsamples = 2\nvalue = [2, 0, 0, 0]"] ;
84 -> 88 ;
89 [label="gini = 0.0\nsamples = 4\nvalue = [4, 0, 0, 0]"] ;
83 -> 89 ;
90 [label="Age <= 29.5\ngini = 0.05\nsamples = 313\nvalue = [305, 3, 0, 5]"] ;
80 -> 90 ;
91 [label="Weight <= 72.0\ngini = 0.04\nsamples = 297\nvalue = [291, 1, 0, 5]"] ;
90 -> 91 ;
92 [label="Age <= 23.5\ngini = 0.028\nsamples = 279\nvalue = [275, 0, 0, 4]"] ;
91 -> 92 ;
93 [label="Age <= 19.5\ngini = 0.011\nsamples = 176\nvalue = [175, 0, 0, 1]"] ;
92 -> 93 ;
94 [label="Year <= 1916.0\ngini = 0.069\nsamples = 28\nvalue = [27, 0, 0, 1]"] ;
93 -> 94 ;
95 [label="gini = 0.0\nsamples = 25\nvalue = [25, 0, 0, 0]"] ;
94 -> 95 ;
96 [label="Team <= 1.5\ngini = 0.444\nsamples = 3\nvalue = [2, 0, 0, 1]"] ;
94 -> 96 ;
97 [label="gini = 0.0\nsamples = 1\nvalue = [0, 0, 0, 1]"] ;
96 -> 97 ;
98 [label="gini = 0.0\nsamples = 2\nvalue = [2, 0, 0, 0]"] ;
96 -> 98 ;
99 [label="gini = 0.0\nsamples = 148\nvalue = [148, 0, 0, 0]"] ;
93 -> 99 ;
100 [label="Age <= 25.5\ngini = 0.057\nsamples = 103\nvalue = [100, 0, 0, 3]"] ;
92 -> 100 ;
101 [label="Age <= 24.5\ngini = 0.094\nsamples = 61\nvalue = [58, 0, 0, 3]"] ;
100 -> 101 ;
102 [label="Sport <= 2.5\ngini = 0.05\nsamples = 39\nvalue = [38, 0, 0, 1]"] ;
101 -> 102 ;
103 [label="gini = 0.0\nsamples = 31\nvalue = [31, 0, 0, 0]"] ;
102 -> 103 ;
104 [label="Team <= 1.5\ngini = 0.219\nsamples = 8\nvalue = [7, 0, 0, 1]"] ;
102 -> 104 ;
105 [label="gini = 0.5\nsamples = 2\nvalue = [1, 0, 0, 1]"] ;
104 -> 105 ;
106 [label="gini = 0.0\nsamples = 6\nvalue = [6, 0, 0, 0]"] ;
104 -> 106 ;
107 [label="Year <= 1910.0\ngini = 0.165\nsamples = 22\nvalue = [20, 0, 0, 2]"] ;
101 -> 107 ;
108 [label="gini = 0.0\nsamples = 11\nvalue = [11, 0, 0, 0]"] ;
107 -> 108 ;
109 [label="NOC <= 2.5\ngini = 0.298\nsamples = 11\nvalue = [9, 0, 0, 2]"] ;
107 -> 109 ;
110 [label="gini = 0.0\nsamples = 2\nvalue = [2, 0, 0, 0]"] ;
109 -> 110 ;
111 [label="Sport <= 2.5\ngini = 0.346\nsamples = 9\nvalue = [7, 0, 0, 2]"] ;
109 -> 111 ;
112 [label="Year <= 1916.0\ngini = 0.408\nsamples = 7\nvalue = [5, 0, 0, 2]"] ;
111 -> 112 ;
113 [label="gini = 0.444\nsamples = 6\nvalue = [4, 0, 0, 2]"] ;
112 -> 113 ;
114 [label="gini = 0.0\nsamples = 1\nvalue = [1, 0, 0, 0]"] ;
112 -> 114 ;
115 [label="gini = 0.0\nsamples = 2\nvalue = [2, 0, 0, 0]"] ;
111 -> 115 ;
116 [label="gini = 0.0\nsamples = 42\nvalue = [42, 0, 0, 0]"] ;
100 -> 116 ;
117 [label="Age <= 19.5\ngini = 0.204\nsamples = 18\nvalue = [16, 1, 0, 1]"] ;
91 -> 117 ;
118 [label="gini = 0.5\nsamples = 2\nvalue = [1, 1, 0, 0]"] ;
117 -> 118 ;
119 [label="Age <= 25.0\ngini = 0.117\nsamples = 16\nvalue = [15, 0, 0, 1]"] ;
117 -> 119 ;
120 [label="gini = 0.0\nsamples = 13\nvalue = [13, 0, 0, 0]"] ;
119 -> 120 ;
121 [label="Height <= 181.0\ngini = 0.444\nsamples = 3\nvalue = [2, 0, 0, 1]"] ;
119 -> 121 ;
122 [label="gini = 0.0\nsamples = 1\nvalue = [0, 0, 0, 1]"] ;
121 -> 122 ;
123 [label="gini = 0.0\nsamples = 2\nvalue = [2, 0, 0, 0]"] ;
121 -> 123 ;
124 [label="Sport <= 2.5\ngini = 0.219\nsamples = 16\nvalue = [14, 2, 0, 0]"] ;
90 -> 124 ;
125 [label="gini = 0.0\nsamples = 12\nvalue = [12, 0, 0, 0]"] ;
124 -> 125 ;
126 [label="NOC <= 2.5\ngini = 0.5\nsamples = 4\nvalue = [2, 2, 0, 0]"] ;
124 -> 126 ;
127 [label="gini = 0.0\nsamples = 2\nvalue = [2, 0, 0, 0]"] ;
126 -> 127 ;
128 [label="gini = 0.0\nsamples = 2\nvalue = [0, 2, 0, 0]"] ;
126 -> 128 ;
129 [label="Height <= 180.0\ngini = 0.488\nsamples = 61\nvalue = [42, 4, 10, 5]"] ;
61 -> 129 ;
130 [label="gini = 0.0\nsamples = 12\nvalue = [12, 0, 0, 0]"] ;
129 -> 130 ;
131 [label="Age <= 19.5\ngini = 0.566\nsamples = 49\nvalue = [30, 4, 10, 5]"] ;
129 -> 131 ;
132 [label="gini = 0.0\nsamples = 6\nvalue = [6, 0, 0, 0]"] ;
131 -> 132 ;
133 [label="Age <= 21.5\ngini = 0.612\nsamples = 43\nvalue = [24, 4, 10, 5]"] ;
131 -> 133 ;
134 [label="Age <= 20.5\ngini = 0.375\nsamples = 4\nvalue = [0, 0, 3, 1]"] ;
133 -> 134 ;
135 [label="gini = 0.5\nsamples = 2\nvalue = [0, 0, 1, 1]"] ;
134 -> 135 ;
136 [label="gini = 0.0\nsamples = 2\nvalue = [0, 0, 2, 0]"] ;
134 -> 136 ;
137 [label="Weight <= 77.5\ngini = 0.568\nsamples = 39\nvalue = [24, 4, 7, 4]"] ;
133 -> 137 ;
138 [label="gini = 0.0\nsamples = 1\nvalue = [0, 0, 1, 0]"] ;
137 -> 138 ;
139 [label="Age <= 37.0\ngini = 0.554\nsamples = 38\nvalue = [24, 4, 6, 4]"] ;
137 -> 139 ;
140 [label="Height <= 190.0\ngini = 0.588\nsamples = 32\nvalue = [19, 3, 6, 4]"] ;
139 -> 140 ;
141 [label="Year <= 1916.0\ngini = 0.58\nsamples = 30\nvalue = [18, 3, 6, 3]"] ;
140 -> 141 ;
142 [label="Year <= 1909.0\ngini = 0.628\nsamples = 11\nvalue = [6, 2, 1, 2]"] ;
141 -> 142 ;
143 [label="gini = 0.56\nsamples = 5\nvalue = [3, 1, 1, 0]"] ;
142 -> 143 ;
144 [label="Weight <= 81.0\ngini = 0.611\nsamples = 6\nvalue = [3, 1, 0, 2]"] ;
142 -> 144 ;
145 [label="gini = 0.625\nsamples = 4\nvalue = [2, 1, 0, 1]"] ;
144 -> 145 ;
146 [label="gini = 0.5\nsamples = 2\nvalue = [1, 0, 0, 1]"] ;
144 -> 146 ;
147 [label="Age <= 28.5\ngini = 0.526\nsamples = 19\nvalue = [12, 1, 5, 1]"] ;
141 -> 147 ;
148 [label="Age <= 27.5\ngini = 0.439\nsamples = 14\nvalue = [10, 1, 3, 0]"] ;
147 -> 148 ;
149 [label="Team <= 3.5\ngini = 0.42\nsamples = 10\nvalue = [7, 0, 3, 0]"] ;
148 -> 149 ;
150 [label="Age <= 24.5\ngini = 0.444\nsamples = 9\nvalue = [6, 0, 3, 0]"] ;
149 -> 150 ;
151 [label="Height <= 183.0\ngini = 0.444\nsamples = 6\nvalue = [4, 0, 2, 0]"] ;
150 -> 151 ;
152 [label="gini = 0.444\nsamples = 3\nvalue = [2, 0, 1, 0]"] ;
151 -> 152 ;
153 [label="gini = 0.444\nsamples = 3\nvalue = [2, 0, 1, 0]"] ;
151 -> 153 ;
154 [label="gini = 0.444\nsamples = 3\nvalue = [2, 0, 1, 0]"] ;
150 -> 154 ;
155 [label="gini = 0.0\nsamples = 1\nvalue = [1, 0, 0, 0]"] ;
149 -> 155 ;
156 [label="Weight <= 79.5\ngini = 0.375\nsamples = 4\nvalue = [3, 1, 0, 0]"] ;
148 -> 156 ;
157 [label="gini = 0.444\nsamples = 3\nvalue = [2, 1, 0, 0]"] ;
156 -> 157 ;
158 [label="gini = 0.0\nsamples = 1\nvalue = [1, 0, 0, 0]"] ;
156 -> 158 ;
159 [label="Age <= 29.5\ngini = 0.64\nsamples = 5\nvalue = [2, 0, 2, 1]"] ;
147 -> 159 ;
160 [label="gini = 0.5\nsamples = 2\nvalue = [1, 0, 1, 0]"] ;
159 -> 160 ;
161 [label="gini = 0.667\nsamples = 3\nvalue = [1, 0, 1, 1]"] ;
159 -> 161 ;
162 [label="gini = 0.5\nsamples = 2\nvalue = [1, 0, 0, 1]"] ;
140 -> 162 ;
163 [label="Year <= 1910.0\ngini = 0.278\nsamples = 6\nvalue = [5, 1, 0, 0]"] ;
139 -> 163 ;
164 [label="gini = 0.375\nsamples = 4\nvalue = [3, 1, 0, 0]"] ;
163 -> 164 ;
165 [label="gini = 0.0\nsamples = 2\nvalue = [2, 0, 0, 0]"] ;
163 -> 165 ;
166 [label="Team <= 2.5\ngini = 0.724\nsamples = 433\nvalue = [124, 82, 69, 158]"] ;
6 -> 166 ;
167 [label="NOC <= 1.5\ngini = 0.644\nsamples = 223\nvalue = [100, 20, 20, 83]"] ;
166 -> 167 ;
168 [label="Year <= 1910.0\ngini = 0.639\nsamples = 156\nvalue = [33, 20, 20, 83]"] ;
167 -> 168 ;
169 [label="Year <= 1907.0\ngini = 0.487\nsamples = 43\nvalue = [25, 0, 0, 18]"] ;
168 -> 169 ;
170 [label="Year <= 1901.0\ngini = 0.1\nsamples = 19\nvalue = [1, 0, 0, 18]"] ;
169 -> 170 ;
171 [label="gini = 0.0\nsamples = 1\nvalue = [1, 0, 0, 0]"] ;
170 -> 171 ;
172 [label="gini = 0.0\nsamples = 18\nvalue = [0, 0, 0, 18]"] ;
170 -> 172 ;
173 [label="gini = 0.0\nsamples = 24\nvalue = [24, 0, 0, 0]"] ;
169 -> 173 ;
174 [label="Year <= 1916.0\ngini = 0.601\nsamples = 113\nvalue = [8, 20, 20, 65]"] ;
168 -> 174 ;
175 [label="Sport <= 6.5\ngini = 0.592\nsamples = 55\nvalue = [7, 20, 0, 28]"] ;
174 -> 175 ;
176 [label="Age <= 26.5\ngini = 0.582\nsamples = 54\nvalue = [6, 20, 0, 28]"] ;
175 -> 176 ;
177 [label="Age <= 25.5\ngini = 0.612\nsamples = 35\nvalue = [5, 15, 0, 15]"] ;
176 -> 177 ;
178 [label="Age <= 18.5\ngini = 0.581\nsamples = 31\nvalue = [3, 13, 0, 15]"] ;
177 -> 178 ;
179 [label="gini = 0.0\nsamples = 1\nvalue = [0, 0, 0, 1]"] ;
178 -> 179 ;
180 [label="Age <= 20.5\ngini = 0.584\nsamples = 30\nvalue = [3, 13, 0, 14]"] ;
178 -> 180 ;
181 [label="Age <= 19.5\ngini = 0.611\nsamples = 12\nvalue = [2, 6, 0, 4]"] ;
180 -> 181 ;
182 [label="gini = 0.48\nsamples = 5\nvalue = [0, 3, 0, 2]"] ;
181 -> 182 ;
183 [label="gini = 0.653\nsamples = 7\nvalue = [2, 3, 0, 2]"] ;
181 -> 183 ;
184 [label="Age <= 24.5\ngini = 0.537\nsamples = 18\nvalue = [1, 7, 0, 10]"] ;
180 -> 184 ;
185 [label="Age <= 23.5\ngini = 0.473\nsamples = 13\nvalue = [0, 5, 0, 8]"] ;
184 -> 185 ;
186 [label="Age <= 21.5\ngini = 0.496\nsamples = 11\nvalue = [0, 5, 0, 6]"] ;
185 -> 186 ;
187 [label="gini = 0.5\nsamples = 4\nvalue = [0, 2, 0, 2]"] ;
186 -> 187 ;
188 [label="Age <= 22.5\ngini = 0.49\nsamples = 7\nvalue = [0, 3, 0, 4]"] ;
186 -> 188 ;
189 [label="gini = 0.48\nsamples = 5\nvalue = [0, 2, 0, 3]"] ;
188 -> 189 ;
190 [label="gini = 0.5\nsamples = 2\nvalue = [0, 1, 0, 1]"] ;
188 -> 190 ;
191 [label="gini = 0.0\nsamples = 2\nvalue = [0, 0, 0, 2]"] ;
185 -> 191 ;
192 [label="gini = 0.64\nsamples = 5\nvalue = [1, 2, 0, 2]"] ;
184 -> 192 ;
193 [label="gini = 0.5\nsamples = 4\nvalue = [2, 2, 0, 0]"] ;
177 -> 193 ;
194 [label="Age <= 37.5\ngini = 0.46\nsamples = 19\nvalue = [1, 5, 0, 13]"] ;
176 -> 194 ;
195 [label="Age <= 32.5\ngini = 0.426\nsamples = 18\nvalue = [1, 4, 0, 13]"] ;
194 -> 195 ;
196 [label="Age <= 28.5\ngini = 0.398\nsamples = 16\nvalue = [1, 3, 0, 12]"] ;
195 -> 196 ;
197 [label="Age <= 27.5\ngini = 0.486\nsamples = 12\nvalue = [1, 3, 0, 8]"] ;
196 -> 197 ;
198 [label="gini = 0.408\nsamples = 7\nvalue = [0, 2, 0, 5]"] ;
197 -> 198 ;
199 [label="gini = 0.56\nsamples = 5\nvalue = [1, 1, 0, 3]"] ;
197 -> 199 ;
200 [label="gini = 0.0\nsamples = 4\nvalue = [0, 0, 0, 4]"] ;
196 -> 200 ;
201 [label="Age <= 35.5\ngini = 0.5\nsamples = 2\nvalue = [0, 1, 0, 1]"] ;
195 -> 201 ;
202 [label="gini = 0.0\nsamples = 1\nvalue = [0, 1, 0, 0]"] ;
201 -> 202 ;
203 [label="gini = 0.0\nsamples = 1\nvalue = [0, 0, 0, 1]"] ;
201 -> 203 ;
204 [label="gini = 0.0\nsamples = 1\nvalue = [0, 1, 0, 0]"] ;
194 -> 204 ;
205 [label="gini = 0.0\nsamples = 1\nvalue = [1, 0, 0, 0]"] ;
175 -> 205 ;
206 [label="Sport <= 6.0\ngini = 0.474\nsamples = 58\nvalue = [1, 0, 20, 37]"] ;
174 -> 206 ;
207 [label="Age <= 27.5\ngini = 0.494\nsamples = 45\nvalue = [0, 0, 20, 25]"] ;
206 -> 207 ;
208 [label="Age <= 17.5\ngini = 0.451\nsamples = 35\nvalue = [0, 0, 12, 23]"] ;
207 -> 208 ;
209 [label="gini = 0.0\nsamples = 1\nvalue = [0, 0, 1, 0]"] ;
208 -> 209 ;
210 [label="Age <= 26.5\ngini = 0.438\nsamples = 34\nvalue = [0, 0, 11, 23]"] ;
208 -> 210 ;
211 [label="Age <= 18.5\ngini = 0.458\nsamples = 31\nvalue = [0, 0, 11, 20]"] ;
210 -> 211 ;
212 [label="gini = 0.0\nsamples = 1\nvalue = [0, 0, 0, 1]"] ;
211 -> 212 ;
213 [label="Age <= 21.5\ngini = 0.464\nsamples = 30\nvalue = [0, 0, 11, 19]"] ;
211 -> 213 ;
214 [label="Age <= 19.5\ngini = 0.494\nsamples = 9\nvalue = [0, 0, 4, 5]"] ;
213 -> 214 ;
215 [label="gini = 0.5\nsamples = 2\nvalue = [0, 0, 1, 1]"] ;
214 -> 215 ;
216 [label="Age <= 20.5\ngini = 0.49\nsamples = 7\nvalue = [0, 0, 3, 4]"] ;
214 -> 216 ;
217 [label="gini = 0.48\nsamples = 5\nvalue = [0, 0, 2, 3]"] ;
216 -> 217 ;
218 [label="gini = 0.5\nsamples = 2\nvalue = [0, 0, 1, 1]"] ;
216 -> 218 ;
219 [label="Age <= 22.5\ngini = 0.444\nsamples = 21\nvalue = [0, 0, 7, 14]"] ;
213 -> 219 ;
220 [label="gini = 0.0\nsamples = 1\nvalue = [0, 0, 0, 1]"] ;
219 -> 220 ;
221 [label="Age <= 23.5\ngini = 0.455\nsamples = 20\nvalue = [0, 0, 7, 13]"] ;
219 -> 221 ;
222 [label="gini = 0.42\nsamples = 10\nvalue = [0, 0, 3, 7]"] ;
221 -> 222 ;
223 [label="Age <= 24.5\ngini = 0.48\nsamples = 10\nvalue = [0, 0, 4, 6]"] ;
221 -> 223 ;
224 [label="gini = 0.0\nsamples = 1\nvalue = [0, 0, 1, 0]"] ;
223 -> 224 ;
225 [label="Age <= 25.5\ngini = 0.444\nsamples = 9\nvalue = [0, 0, 3, 6]"] ;
223 -> 225 ;
226 [label="gini = 0.48\nsamples = 5\nvalue = [0, 0, 2, 3]"] ;
225 -> 226 ;
227 [label="gini = 0.375\nsamples = 4\nvalue = [0, 0, 1, 3]"] ;
225 -> 227 ;
228 [label="gini = 0.0\nsamples = 3\nvalue = [0, 0, 0, 3]"] ;
210 -> 228 ;
229 [label="Age <= 32.5\ngini = 0.32\nsamples = 10\nvalue = [0, 0, 8, 2]"] ;
207 -> 229 ;
230 [label="Age <= 31.0\ngini = 0.375\nsamples = 8\nvalue = [0, 0, 6, 2]"] ;
229 -> 230 ;
231 [label="Age <= 29.5\ngini = 0.278\nsamples = 6\nvalue = [0, 0, 5, 1]"] ;
230 -> 231 ;
232 [label="Age <= 28.5\ngini = 0.375\nsamples = 4\nvalue = [0, 0, 3, 1]"] ;
231 -> 232 ;
233 [label="gini = 0.0\nsamples = 1\nvalue = [0, 0, 1, 0]"] ;
232 -> 233 ;
234 [label="gini = 0.444\nsamples = 3\nvalue = [0, 0, 2, 1]"] ;
232 -> 234 ;
235 [label="gini = 0.0\nsamples = 2\nvalue = [0, 0, 2, 0]"] ;
231 -> 235 ;
236 [label="gini = 0.5\nsamples = 2\nvalue = [0, 0, 1, 1]"] ;
230 -> 236 ;
237 [label="gini = 0.0\nsamples = 2\nvalue = [0, 0, 2, 0]"] ;
229 -> 237 ;
238 [label="Sport <= 7.5\ngini = 0.142\nsamples = 13\nvalue = [1, 0, 0, 12]"] ;
206 -> 238 ;
239 [label="gini = 0.0\nsamples = 12\nvalue = [0, 0, 0, 12]"] ;
238 -> 239 ;
240 [label="gini = 0.0\nsamples = 1\nvalue = [1, 0, 0, 0]"] ;
238 -> 240 ;
241 [label="gini = 0.0\nsamples = 67\nvalue = [67, 0, 0, 0]"] ;
167 -> 241 ;
242 [label="Year <= 1907.0\ngini = 0.718\nsamples = 210\nvalue = [24, 62, 49, 75]"] ;
166 -> 242 ;
243 [label="Year <= 1905.0\ngini = 0.278\nsamples = 24\nvalue = [4, 0, 20, 0]"] ;
242 -> 243 ;
244 [label="gini = 0.0\nsamples = 3\nvalue = [3, 0, 0, 0]"] ;
243 -> 244 ;
245 [label="Age <= 28.5\ngini = 0.091\nsamples = 21\nvalue = [1, 0, 20, 0]"] ;
243 -> 245 ;
246 [label="gini = 0.0\nsamples = 17\nvalue = [0, 0, 17, 0]"] ;
245 -> 246 ;
247 [label="Age <= 32.0\ngini = 0.375\nsamples = 4\nvalue = [1, 0, 3, 0]"] ;
245 -> 247 ;
248 [label="gini = 0.5\nsamples = 2\nvalue = [1, 0, 1, 0]"] ;
247 -> 248 ;
249 [label="gini = 0.0\nsamples = 2\nvalue = [0, 0, 2, 0]"] ;
247 -> 249 ;
250 [label="Sport <= 6.5\ngini = 0.69\nsamples = 186\nvalue = [20, 62, 29, 75]"] ;
242 -> 250 ;
251 [label="Year <= 1916.0\ngini = 0.688\nsamples = 171\nvalue = [19, 48, 29, 75]"] ;
250 -> 251 ;
252 [label="Year <= 1910.0\ngini = 0.716\nsamples = 145\nvalue = [18, 48, 29, 50]"] ;
251 -> 252 ;
253 [label="Team <= 3.5\ngini = 0.633\nsamples = 69\nvalue = [13, 26, 0, 30]"] ;
252 -> 253 ;
254 [label="Age <= 18.5\ngini = 0.271\nsamples = 31\nvalue = [5, 26, 0, 0]"] ;
253 -> 254 ;
255 [label="gini = 0.0\nsamples = 1\nvalue = [1, 0, 0, 0]"] ;
254 -> 255 ;
256 [label="Age <= 24.5\ngini = 0.231\nsamples = 30\nvalue = [4, 26, 0, 0]"] ;
254 -> 256 ;
257 [label="Age <= 19.5\ngini = 0.083\nsamples = 23\nvalue = [1, 22, 0, 0]"] ;
256 -> 257 ;
258 [label="gini = 0.444\nsamples = 3\nvalue = [1, 2, 0, 0]"] ;
257 -> 258 ;
259 [label="gini = 0.0\nsamples = 20\nvalue = [0, 20, 0, 0]"] ;
257 -> 259 ;
260 [label="Age <= 25.672\ngini = 0.49\nsamples = 7\nvalue = [3, 4, 0, 0]"] ;
256 -> 260 ;
261 [label="Age <= 25.172\ngini = 0.444\nsamples = 3\nvalue = [2, 1, 0, 0]"] ;
260 -> 261 ;
262 [label="gini = 0.5\nsamples = 2\nvalue = [1, 1, 0, 0]"] ;
261 -> 262 ;
263 [label="gini = 0.0\nsamples = 1\nvalue = [1, 0, 0, 0]"] ;
261 -> 263 ;
264 [label="Age <= 26.5\ngini = 0.375\nsamples = 4\nvalue = [1, 3, 0, 0]"] ;
260 -> 264 ;
265 [label="gini = 0.0\nsamples = 1\nvalue = [0, 1, 0, 0]"] ;
264 -> 265 ;
266 [label="Age <= 29.5\ngini = 0.444\nsamples = 3\nvalue = [1, 2, 0, 0]"] ;
264 -> 266 ;
267 [label="gini = 0.5\nsamples = 2\nvalue = [1, 1, 0, 0]"] ;
266 -> 267 ;
268 [label="gini = 0.0\nsamples = 1\nvalue = [0, 1, 0, 0]"] ;
266 -> 268 ;
269 [label="Age <= 26.0\ngini = 0.332\nsamples = 38\nvalue = [8, 0, 0, 30]"] ;
253 -> 269 ;
270 [label="Age <= 23.5\ngini = 0.367\nsamples = 33\nvalue = [8, 0, 0, 25]"] ;
269 -> 270 ;
271 [label="Age <= 20.5\ngini = 0.298\nsamples = 22\nvalue = [4, 0, 0, 18]"] ;
270 -> 271 ;
272 [label="Weight <= 78.308\ngini = 0.355\nsamples = 13\nvalue = [3, 0, 0, 10]"] ;
271 -> 272 ;
273 [label="Age <= 19.5\ngini = 0.375\nsamples = 12\nvalue = [3, 0, 0, 9]"] ;
272 -> 273 ;
274 [label="Age <= 18.0\ngini = 0.32\nsamples = 5\nvalue = [1, 0, 0, 4]"] ;
273 -> 274 ;
275 [label="gini = 0.375\nsamples = 4\nvalue = [1, 0, 0, 3]"] ;
274 -> 275 ;
276 [label="gini = 0.0\nsamples = 1\nvalue = [0, 0, 0, 1]"] ;
274 -> 276 ;
277 [label="gini = 0.408\nsamples = 7\nvalue = [2, 0, 0, 5]"] ;
273 -> 277 ;
278 [label="gini = 0.0\nsamples = 1\nvalue = [0, 0, 0, 1]"] ;
272 -> 278 ;
279 [label="Age <= 22.5\ngini = 0.198\nsamples = 9\nvalue = [1, 0, 0, 8]"] ;
271 -> 279 ;
280 [label="gini = 0.0\nsamples = 5\nvalue = [0, 0, 0, 5]"] ;
279 -> 280 ;
281 [label="gini = 0.375\nsamples = 4\nvalue = [1, 0, 0, 3]"] ;
279 -> 281 ;
282 [label="Age <= 24.5\ngini = 0.463\nsamples = 11\nvalue = [4, 0, 0, 7]"] ;
270 -> 282 ;
283 [label="gini = 0.49\nsamples = 7\nvalue = [3, 0, 0, 4]"] ;
282 -> 283 ;
284 [label="gini = 0.375\nsamples = 4\nvalue = [1, 0, 0, 3]"] ;
282 -> 284 ;
285 [label="gini = 0.0\nsamples = 5\nvalue = [0, 0, 0, 5]"] ;
269 -> 285 ;
286 [label="Team <= 3.5\ngini = 0.697\nsamples = 76\nvalue = [5, 22, 29, 20]"] ;
252 -> 286 ;
287 [label="Age <= 22.5\ngini = 0.32\nsamples = 25\nvalue = [5, 0, 0, 20]"] ;
286 -> 287 ;
288 [label="gini = 0.0\nsamples = 8\nvalue = [0, 0, 0, 8]"] ;
287 -> 288 ;
289 [label="Age <= 25.5\ngini = 0.415\nsamples = 17\nvalue = [5, 0, 0, 12]"] ;
287 -> 289 ;
290 [label="Age <= 24.5\ngini = 0.463\nsamples = 11\nvalue = [4, 0, 0, 7]"] ;
289 -> 290 ;
291 [label="Age <= 23.5\ngini = 0.444\nsamples = 9\nvalue = [3, 0, 0, 6]"] ;
290 -> 291 ;
292 [label="gini = 0.444\nsamples = 6\nvalue = [2, 0, 0, 4]"] ;
291 -> 292 ;
293 [label="gini = 0.444\nsamples = 3\nvalue = [1, 0, 0, 2]"] ;
291 -> 293 ;
294 [label="gini = 0.5\nsamples = 2\nvalue = [1, 0, 0, 1]"] ;
290 -> 294 ;
295 [label="Age <= 26.5\ngini = 0.278\nsamples = 6\nvalue = [1, 0, 0, 5]"] ;
289 -> 295 ;
296 [label="gini = 0.0\nsamples = 3\nvalue = [0, 0, 0, 3]"] ;
295 -> 296 ;
297 [label="gini = 0.444\nsamples = 3\nvalue = [1, 0, 0, 2]"] ;
295 -> 297 ;
298 [label="Team <= 5.0\ngini = 0.491\nsamples = 51\nvalue = [0, 22, 29, 0]"] ;
286 -> 298 ;
299 [label="Age <= 23.5\ngini = 0.499\nsamples = 46\nvalue = [0, 22, 24, 0]"] ;
298 -> 299 ;
300 [label="Age <= 20.5\ngini = 0.43\nsamples = 16\nvalue = [0, 5, 11, 0]"] ;
299 -> 300 ;
301 [label="Age <= 18.5\ngini = 0.494\nsamples = 9\nvalue = [0, 4, 5, 0]"] ;
300 -> 301 ;
302 [label="gini = 0.0\nsamples = 1\nvalue = [0, 0, 1, 0]"] ;
301 -> 302 ;
303 [label="Age <= 19.5\ngini = 0.5\nsamples = 8\nvalue = [0, 4, 4, 0]"] ;
301 -> 303 ;
304 [label="gini = 0.48\nsamples = 5\nvalue = [0, 3, 2, 0]"] ;
303 -> 304 ;
305 [label="gini = 0.444\nsamples = 3\nvalue = [0, 1, 2, 0]"] ;
303 -> 305 ;
306 [label="Age <= 21.5\ngini = 0.245\nsamples = 7\nvalue = [0, 1, 6, 0]"] ;
300 -> 306 ;
307 [label="gini = 0.0\nsamples = 2\nvalue = [0, 0, 2, 0]"] ;
306 -> 307 ;
308 [label="Age <= 22.5\ngini = 0.32\nsamples = 5\nvalue = [0, 1, 4, 0]"] ;
306 -> 308 ;
309 [label="gini = 0.444\nsamples = 3\nvalue = [0, 1, 2, 0]"] ;
308 -> 309 ;
310 [label="gini = 0.0\nsamples = 2\nvalue = [0, 0, 2, 0]"] ;
308 -> 310 ;
311 [label="Age <= 30.5\ngini = 0.491\nsamples = 30\nvalue = [0, 17, 13, 0]"] ;
299 -> 311 ;
312 [label="Age <= 27.5\ngini = 0.461\nsamples = 25\nvalue = [0, 16, 9, 0]"] ;
311 -> 312 ;
313 [label="Age <= 26.5\ngini = 0.488\nsamples = 19\nvalue = [0, 11, 8, 0]"] ;
312 -> 313 ;
314 [label="Age <= 24.5\ngini = 0.444\nsamples = 15\nvalue = [0, 10, 5, 0]"] ;
313 -> 314 ;
315 [label="gini = 0.5\nsamples = 6\nvalue = [0, 3, 3, 0]"] ;
314 -> 315 ;
316 [label="Age <= 25.5\ngini = 0.346\nsamples = 9\nvalue = [0, 7, 2, 0]"] ;
314 -> 316 ;
317 [label="gini = 0.444\nsamples = 3\nvalue = [0, 2, 1, 0]"] ;
316 -> 317 ;
318 [label="gini = 0.278\nsamples = 6\nvalue = [0, 5, 1, 0]"] ;
316 -> 318 ;
319 [label="gini = 0.375\nsamples = 4\nvalue = [0, 1, 3, 0]"] ;
313 -> 319 ;
320 [label="Age <= 29.5\ngini = 0.278\nsamples = 6\nvalue = [0, 5, 1, 0]"] ;
312 -> 320 ;
321 [label="Age <= 28.5\ngini = 0.375\nsamples = 4\nvalue = [0, 3, 1, 0]"] ;
320 -> 321 ;
322 [label="gini = 0.0\nsamples = 1\nvalue = [0, 1, 0, 0]"] ;
321 -> 322 ;
323 [label="gini = 0.444\nsamples = 3\nvalue = [0, 2, 1, 0]"] ;
321 -> 323 ;
324 [label="gini = 0.0\nsamples = 2\nvalue = [0, 2, 0, 0]"] ;
320 -> 324 ;
325 [label="Age <= 31.5\ngini = 0.32\nsamples = 5\nvalue = [0, 1, 4, 0]"] ;
311 -> 325 ;
326 [label="gini = 0.444\nsamples = 3\nvalue = [0, 1, 2, 0]"] ;
325 -> 326 ;
327 [label="gini = 0.0\nsamples = 2\nvalue = [0, 0, 2, 0]"] ;
325 -> 327 ;
328 [label="gini = 0.0\nsamples = 5\nvalue = [0, 0, 5, 0]"] ;
298 -> 328 ;
329 [label="Age <= 35.5\ngini = 0.074\nsamples = 26\nvalue = [1, 0, 0, 25]"] ;
251 -> 329 ;
330 [label="gini = 0.0\nsamples = 24\nvalue = [0, 0, 0, 24]"] ;
329 -> 330 ;
331 [label="gini = 0.5\nsamples = 2\nvalue = [1, 0, 0, 1]"] ;
329 -> 331 ;
332 [label="Team <= 3.5\ngini = 0.124\nsamples = 15\nvalue = [1, 14, 0, 0]"] ;
250 -> 332 ;
333 [label="gini = 0.0\nsamples = 1\nvalue = [1, 0, 0, 0]"] ;
332 -> 333 ;
334 [label="gini = 0.0\nsamples = 14\nvalue = [0, 14, 0, 0]"] ;
332 -> 334 ;
335 [label="Sport <= 24.0\ngini = 0.284\nsamples = 1209\nvalue = [1017, 82, 51, 59]"] ;
5 -> 335 ;
336 [label="Weight <= 70.808\ngini = 0.276\nsamples = 1195\nvalue = [1011, 82, 43, 59]"] ;
335 -> 336 ;
337 [label="Sport <= 12.5\ngini = 0.264\nsamples = 1175\nvalue = [1003, 80, 38, 54]"] ;
336 -> 337 ;
338 [label="NOC <= 2.5\ngini = 0.303\nsamples = 927\nvalue = [768, 76, 35, 48]"] ;
337 -> 338 ;
339 [label="Year <= 1898.0\ngini = 0.216\nsamples = 531\nvalue = [468, 44, 8, 11]"] ;
338 -> 339 ;
340 [label="Sport <= 10.0\ngini = 0.594\nsamples = 8\nvalue = [4, 3, 0, 1]"] ;
339 -> 340 ;
341 [label="gini = 0.0\nsamples = 1\nvalue = [0, 1, 0, 0]"] ;
340 -> 341 ;
342 [label="Age <= 31.5\ngini = 0.571\nsamples = 7\nvalue = [4, 2, 0, 1]"] ;
340 -> 342 ;
343 [label="Age <= 25.0\ngini = 0.611\nsamples = 6\nvalue = [3, 2, 0, 1]"] ;
342 -> 343 ;
344 [label="gini = 0.5\nsamples = 2\nvalue = [1, 1, 0, 0]"] ;
343 -> 344 ;
345 [label="gini = 0.625\nsamples = 4\nvalue = [2, 1, 0, 1]"] ;
343 -> 345 ;
346 [label="gini = 0.0\nsamples = 1\nvalue = [1, 0, 0, 0]"] ;
342 -> 346 ;
347 [label="Team <= 1.5\ngini = 0.206\nsamples = 523\nvalue = [464, 41, 8, 10]"] ;
339 -> 347 ;
348 [label="Sport <= 10.5\ngini = 0.21\nsamples = 255\nvalue = [226, 12, 8, 9]"] ;
347 -> 348 ;
349 [label="Height <= 172.736\ngini = 0.024\nsamples = 82\nvalue = [81, 0, 0, 1]"] ;
348 -> 349 ;
350 [label="Age <= 27.0\ngini = 0.165\nsamples = 11\nvalue = [10, 0, 0, 1]"] ;
349 -> 350 ;
351 [label="Year <= 1910.0\ngini = 0.278\nsamples = 6\nvalue = [5, 0, 0, 1]"] ;
350 -> 351 ;
352 [label="gini = 0.0\nsamples = 2\nvalue = [2, 0, 0, 0]"] ;
351 -> 352 ;
353 [label="gini = 0.375\nsamples = 4\nvalue = [3, 0, 0, 1]"] ;
351 -> 353 ;
354 [label="gini = 0.0\nsamples = 5\nvalue = [5, 0, 0, 0]"] ;
350 -> 354 ;
355 [label="gini = 0.0\nsamples = 71\nvalue = [71, 0, 0, 0]"] ;
349 -> 355 ;
356 [label="Year <= 1907.0\ngini = 0.288\nsamples = 173\nvalue = [145, 12, 8, 8]"] ;
348 -> 356 ;
357 [label="Sport <= 11.5\ngini = 0.445\nsamples = 29\nvalue = [21, 1, 3, 4]"] ;
356 -> 357 ;
358 [label="Age <= 30.0\ngini = 0.278\nsamples = 25\nvalue = [21, 0, 1, 3]"] ;
357 -> 358 ;
359 [label="Age <= 27.0\ngini = 0.124\nsamples = 15\nvalue = [14, 0, 1, 0]"] ;
358 -> 359 ;
360 [label="gini = 0.0\nsamples = 10\nvalue = [10, 0, 0, 0]"] ;
359 -> 360 ;
361 [label="gini = 0.32\nsamples = 5\nvalue = [4, 0, 1, 0]"] ;
359 -> 361 ;
362 [label="Age <= 40.0\ngini = 0.42\nsamples = 10\nvalue = [7, 0, 0, 3]"] ;
358 -> 362 ;
363 [label="gini = 0.48\nsamples = 5\nvalue = [2, 0, 0, 3]"] ;
362 -> 363 ;
364 [label="gini = 0.0\nsamples = 5\nvalue = [5, 0, 0, 0]"] ;
362 -> 364 ;
365 [label="Age <= 25.5\ngini = 0.625\nsamples = 4\nvalue = [0, 1, 2, 1]"] ;
357 -> 365 ;
366 [label="Age <= 23.0\ngini = 0.5\nsamples = 2\nvalue = [0, 1, 0, 1]"] ;
365 -> 366 ;
367 [label="gini = 0.0\nsamples = 1\nvalue = [0, 1, 0, 0]"] ;
366 -> 367 ;
368 [label="gini = 0.0\nsamples = 1\nvalue = [0, 0, 0, 1]"] ;
366 -> 368 ;
369 [label="gini = 0.0\nsamples = 2\nvalue = [0, 0, 2, 0]"] ;
365 -> 369 ;
370 [label="Year <= 1916.0\ngini = 0.251\nsamples = 144\nvalue = [124, 11, 5, 4]"] ;
356 -> 370 ;
371 [label="Weight <= 70.308\ngini = 0.246\nsamples = 78\nvalue = [67, 10, 0, 1]"] ;
370 -> 371 ;
372 [label="Age <= 28.0\ngini = 0.5\nsamples = 2\nvalue = [1, 1, 0, 0]"] ;
371 -> 372 ;
373 [label="gini = 0.0\nsamples = 1\nvalue = [0, 1, 0, 0]"] ;
372 -> 373 ;
374 [label="gini = 0.0\nsamples = 1\nvalue = [1, 0, 0, 0]"] ;
372 -> 374 ;
375 [label="Year <= 1910.0\ngini = 0.232\nsamples = 76\nvalue = [66, 9, 0, 1]"] ;
371 -> 375 ;
376 [label="Sport <= 11.5\ngini = 0.071\nsamples = 27\nvalue = [26, 1, 0, 0]"] ;
375 -> 376 ;
377 [label="gini = 0.0\nsamples = 19\nvalue = [19, 0, 0, 0]"] ;
376 -> 377 ;
378 [label="Age <= 27.5\ngini = 0.219\nsamples = 8\nvalue = [7, 1, 0, 0]"] ;
376 -> 378 ;
379 [label="gini = 0.0\nsamples = 7\nvalue = [7, 0, 0, 0]"] ;
378 -> 379 ;
380 [label="gini = 0.0\nsamples = 1\nvalue = [0, 1, 0, 0]"] ;
378 -> 380 ;
381 [label="Age <= 31.5\ngini = 0.307\nsamples = 49\nvalue = [40, 8, 0, 1]"] ;
375 -> 381 ;
382 [label="Age <= 22.5\ngini = 0.188\nsamples = 19\nvalue = [17, 2, 0, 0]"] ;
381 -> 382 ;
383 [label="Sport <= 11.5\ngini = 0.346\nsamples = 9\nvalue = [7, 2, 0, 0]"] ;
382 -> 383 ;
384 [label="gini = 0.444\nsamples = 6\nvalue = [4, 2, 0, 0]"] ;
383 -> 384 ;
385 [label="gini = 0.0\nsamples = 3\nvalue = [3, 0, 0, 0]"] ;
383 -> 385 ;
386 [label="gini = 0.0\nsamples = 10\nvalue = [10, 0, 0, 0]"] ;
382 -> 386 ;
387 [label="Sport <= 11.5\ngini = 0.371\nsamples = 30\nvalue = [23, 6, 0, 1]"] ;
381 -> 387 ;
388 [label="Age <= 46.0\ngini = 0.34\nsamples = 29\nvalue = [23, 5, 0, 1]"] ;
387 -> 388 ;
389 [label="Age <= 39.0\ngini = 0.381\nsamples = 25\nvalue = [19, 5, 0, 1]"] ;
388 -> 389 ;
390 [label="Age <= 34.5\ngini = 0.198\nsamples = 9\nvalue = [8, 1, 0, 0]"] ;
389 -> 390 ;
391 [label="gini = 0.444\nsamples = 3\nvalue = [2, 1, 0, 0]"] ;
390 -> 391 ;
392 [label="gini = 0.0\nsamples = 6\nvalue = [6, 0, 0, 0]"] ;
390 -> 392 ;
393 [label="Age <= 41.0\ngini = 0.461\nsamples = 16\nvalue = [11, 4, 0, 1]"] ;
389 -> 393 ;
394 [label="gini = 0.46\nsamples = 10\nvalue = [7, 2, 0, 1]"] ;
393 -> 394 ;
395 [label="Age <= 43.0\ngini = 0.444\nsamples = 6\nvalue = [4, 2, 0, 0]"] ;
393 -> 395 ;
396 [label="gini = 0.5\nsamples = 2\nvalue = [1, 1, 0, 0]"] ;
395 -> 396 ;
397 [label="gini = 0.375\nsamples = 4\nvalue = [3, 1, 0, 0]"] ;
395 -> 397 ;
398 [label="gini = 0.0\nsamples = 4\nvalue = [4, 0, 0, 0]"] ;
388 -> 398 ;
399 [label="gini = 0.0\nsamples = 1\nvalue = [0, 1, 0, 0]"] ;
387 -> 399 ;
400 [label="Age <= 41.0\ngini = 0.246\nsamples = 66\nvalue = [57, 1, 5, 3]"] ;
370 -> 400 ;
401 [label="Age <= 30.5\ngini = 0.194\nsamples = 48\nvalue = [43, 1, 2, 2]"] ;
400 -> 401 ;
402 [label="Age <= 27.5\ngini = 0.304\nsamples = 29\nvalue = [24, 1, 2, 2]"] ;
401 -> 402 ;
403 [label="Age <= 25.0\ngini = 0.142\nsamples = 13\nvalue = [12, 0, 1, 0]"] ;
402 -> 403 ;
404 [label="gini = 0.0\nsamples = 4\nvalue = [4, 0, 0, 0]"] ;
403 -> 404 ;
405 [label="Sport <= 11.5\ngini = 0.198\nsamples = 9\nvalue = [8, 0, 1, 0]"] ;
403 -> 405 ;
406 [label="gini = 0.245\nsamples = 7\nvalue = [6, 0, 1, 0]"] ;
405 -> 406 ;
407 [label="gini = 0.0\nsamples = 2\nvalue = [2, 0, 0, 0]"] ;
405 -> 407 ;
408 [label="Age <= 28.5\ngini = 0.414\nsamples = 16\nvalue = [12, 1, 1, 2]"] ;
402 -> 408 ;
409 [label="gini = 0.0\nsamples = 1\nvalue = [0, 0, 0, 1]"] ;
408 -> 409 ;
410 [label="Sport <= 11.5\ngini = 0.347\nsamples = 15\nvalue = [12, 1, 1, 1]"] ;
408 -> 410 ;
411 [label="gini = 0.292\nsamples = 12\nvalue = [10, 0, 1, 1]"] ;
410 -> 411 ;
412 [label="Age <= 29.5\ngini = 0.444\nsamples = 3\nvalue = [2, 1, 0, 0]"] ;
410 -> 412 ;
413 [label="gini = 0.0\nsamples = 1\nvalue = [1, 0, 0, 0]"] ;
412 -> 413 ;
414 [label="gini = 0.5\nsamples = 2\nvalue = [1, 1, 0, 0]"] ;
412 -> 414 ;
415 [label="gini = 0.0\nsamples = 19\nvalue = [19, 0, 0, 0]"] ;
401 -> 415 ;
416 [label="Age <= 45.5\ngini = 0.364\nsamples = 18\nvalue = [14, 0, 3, 1]"] ;
400 -> 416 ;
417 [label="gini = 0.5\nsamples = 2\nvalue = [1, 0, 1, 0]"] ;
416 -> 417 ;
418 [label="Age <= 50.0\ngini = 0.32\nsamples = 16\nvalue = [13, 0, 2, 1]"] ;
416 -> 418 ;
419 [label="gini = 0.292\nsamples = 12\nvalue = [10, 0, 1, 1]"] ;
418 -> 419 ;
420 [label="gini = 0.375\nsamples = 4\nvalue = [3, 0, 1, 0]"] ;
418 -> 420 ;
421 [label="Sport <= 9.5\ngini = 0.2\nsamples = 268\nvalue = [238, 29, 0, 1]"] ;
347 -> 421 ;
422 [label="Year <= 1910.0\ngini = 0.313\nsamples = 130\nvalue = [105, 24, 0, 1]"] ;
421 -> 422 ;
423 [label="Year <= 1907.0\ngini = 0.155\nsamples = 72\nvalue = [66, 5, 0, 1]"] ;
422 -> 423 ;
424 [label="Age <= 25.5\ngini = 0.236\nsamples = 45\nvalue = [39, 5, 0, 1]"] ;
423 -> 424 ;
425 [label="Age <= 23.5\ngini = 0.135\nsamples = 28\nvalue = [26, 1, 0, 1]"] ;
424 -> 425 ;
426 [label="Age <= 21.5\ngini = 0.292\nsamples = 12\nvalue = [10, 1, 0, 1]"] ;
425 -> 426 ;
427 [label="gini = 0.0\nsamples = 3\nvalue = [3, 0, 0, 0]"] ;
426 -> 427 ;
428 [label="gini = 0.37\nsamples = 9\nvalue = [7, 1, 0, 1]"] ;
426 -> 428 ;
429 [label="gini = 0.0\nsamples = 16\nvalue = [16, 0, 0, 0]"] ;
425 -> 429 ;
430 [label="Age <= 28.5\ngini = 0.36\nsamples = 17\nvalue = [13, 4, 0, 0]"] ;
424 -> 430 ;
431 [label="Age <= 27.0\ngini = 0.408\nsamples = 7\nvalue = [5, 2, 0, 0]"] ;
430 -> 431 ;
432 [label="gini = 0.375\nsamples = 4\nvalue = [3, 1, 0, 0]"] ;
431 -> 432 ;
433 [label="gini = 0.444\nsamples = 3\nvalue = [2, 1, 0, 0]"] ;
431 -> 433 ;
434 [label="Age <= 33.5\ngini = 0.32\nsamples = 10\nvalue = [8, 2, 0, 0]"] ;
430 -> 434 ;
435 [label="gini = 0.278\nsamples = 6\nvalue = [5, 1, 0, 0]"] ;
434 -> 435 ;
436 [label="gini = 0.375\nsamples = 4\nvalue = [3, 1, 0, 0]"] ;
434 -> 436 ;
437 [label="gini = 0.0\nsamples = 27\nvalue = [27, 0, 0, 0]"] ;
423 -> 437 ;
438 [label="Year <= 1916.0\ngini = 0.441\nsamples = 58\nvalue = [39, 19, 0, 0]"] ;
422 -> 438 ;
439 [label="Age <= 27.0\ngini = 0.5\nsamples = 22\nvalue = [11, 11, 0, 0]"] ;
438 -> 439 ;
440 [label="gini = 0.0\nsamples = 2\nvalue = [2, 0, 0, 0]"] ;
439 -> 440 ;
441 [label="Age <= 30.5\ngini = 0.495\nsamples = 20\nvalue = [9, 11, 0, 0]"] ;
439 -> 441 ;
442 [label="Age <= 29.5\ngini = 0.444\nsamples = 12\nvalue = [4, 8, 0, 0]"] ;
441 -> 442 ;
443 [label="gini = 0.49\nsamples = 7\nvalue = [3, 4, 0, 0]"] ;
442 -> 443 ;
444 [label="gini = 0.32\nsamples = 5\nvalue = [1, 4, 0, 0]"] ;
442 -> 444 ;
445 [label="Age <= 41.5\ngini = 0.469\nsamples = 8\nvalue = [5, 3, 0, 0]"] ;
441 -> 445 ;
446 [label="Age <= 35.5\ngini = 0.408\nsamples = 7\nvalue = [5, 2, 0, 0]"] ;
445 -> 446 ;
447 [label="Age <= 31.5\ngini = 0.48\nsamples = 5\nvalue = [3, 2, 0, 0]"] ;
446 -> 447 ;
448 [label="gini = 0.0\nsamples = 1\nvalue = [1, 0, 0, 0]"] ;
447 -> 448 ;
449 [label="Age <= 33.0\ngini = 0.5\nsamples = 4\nvalue = [2, 2, 0, 0]"] ;
447 -> 449 ;
450 [label="gini = 0.0\nsamples = 1\nvalue = [0, 1, 0, 0]"] ;
449 -> 450 ;
451 [label="gini = 0.444\nsamples = 3\nvalue = [2, 1, 0, 0]"] ;
449 -> 451 ;
452 [label="gini = 0.0\nsamples = 2\nvalue = [2, 0, 0, 0]"] ;
446 -> 452 ;
453 [label="gini = 0.0\nsamples = 1\nvalue = [0, 1, 0, 0]"] ;
445 -> 453 ;
454 [label="Age <= 40.0\ngini = 0.346\nsamples = 36\nvalue = [28, 8, 0, 0]"] ;
438 -> 454 ;
455 [label="Age <= 38.5\ngini = 0.327\nsamples = 34\nvalue = [27, 7, 0, 0]"] ;
454 -> 455 ;
456 [label="Age <= 37.5\ngini = 0.358\nsamples = 30\nvalue = [23, 7, 0, 0]"] ;
455 -> 456 ;
457 [label="Age <= 33.0\ngini = 0.32\nsamples = 25\nvalue = [20, 5, 0, 0]"] ;
456 -> 457 ;
458 [label="Age <= 28.5\ngini = 0.346\nsamples = 9\nvalue = [7, 2, 0, 0]"] ;
457 -> 458 ;
459 [label="gini = 0.32\nsamples = 5\nvalue = [4, 1, 0, 0]"] ;
458 -> 459 ;
460 [label="gini = 0.375\nsamples = 4\nvalue = [3, 1, 0, 0]"] ;
458 -> 460 ;
461 [label="Age <= 36.5\ngini = 0.305\nsamples = 16\nvalue = [13, 3, 0, 0]"] ;
457 -> 461 ;
462 [label="gini = 0.32\nsamples = 5\nvalue = [4, 1, 0, 0]"] ;
461 -> 462 ;
463 [label="gini = 0.298\nsamples = 11\nvalue = [9, 2, 0, 0]"] ;
461 -> 463 ;
464 [label="gini = 0.48\nsamples = 5\nvalue = [3, 2, 0, 0]"] ;
456 -> 464 ;
465 [label="gini = 0.0\nsamples = 4\nvalue = [4, 0, 0, 0]"] ;
455 -> 465 ;
466 [label="gini = 0.5\nsamples = 2\nvalue = [1, 1, 0, 0]"] ;
454 -> 466 ;
467 [label="Year <= 1904.0\ngini = 0.07\nsamples = 138\nvalue = [133, 5, 0, 0]"] ;
421 -> 467 ;
468 [label="Age <= 46.0\ngini = 0.245\nsamples = 35\nvalue = [30, 5, 0, 0]"] ;
467 -> 468 ;
469 [label="Age <= 30.0\ngini = 0.213\nsamples = 33\nvalue = [29, 4, 0, 0]"] ;
468 -> 469 ;
470 [label="Age <= 25.0\ngini = 0.153\nsamples = 12\nvalue = [11, 1, 0, 0]"] ;
469 -> 470 ;
471 [label="gini = 0.245\nsamples = 7\nvalue = [6, 1, 0, 0]"] ;
470 -> 471 ;
472 [label="gini = 0.0\nsamples = 5\nvalue = [5, 0, 0, 0]"] ;
470 -> 472 ;
473 [label="Age <= 36.0\ngini = 0.245\nsamples = 21\nvalue = [18, 3, 0, 0]"] ;
469 -> 473 ;
474 [label="Age <= 34.0\ngini = 0.346\nsamples = 9\nvalue = [7, 2, 0, 0]"] ;
473 -> 474 ;
475 [label="gini = 0.245\nsamples = 7\nvalue = [6, 1, 0, 0]"] ;
474 -> 475 ;
476 [label="gini = 0.5\nsamples = 2\nvalue = [1, 1, 0, 0]"] ;
474 -> 476 ;
477 [label="Age <= 41.0\ngini = 0.153\nsamples = 12\nvalue = [11, 1, 0, 0]"] ;
473 -> 477 ;
478 [label="gini = 0.0\nsamples = 5\nvalue = [5, 0, 0, 0]"] ;
477 -> 478 ;
479 [label="gini = 0.245\nsamples = 7\nvalue = [6, 1, 0, 0]"] ;
477 -> 479 ;
480 [label="gini = 0.5\nsamples = 2\nvalue = [1, 1, 0, 0]"] ;
468 -> 480 ;
481 [label="gini = 0.0\nsamples = 103\nvalue = [103, 0, 0, 0]"] ;
467 -> 481 ;
482 [label="Year <= 1916.0\ngini = 0.406\nsamples = 396\nvalue = [300, 32, 27, 37]"] ;
338 -> 482 ;
483 [label="Height <= 174.236\ngini = 0.293\nsamples = 249\nvalue = [208, 12, 11, 18]"] ;
482 -> 483 ;
484 [label="Height <= 169.0\ngini = 0.5\nsamples = 4\nvalue = [0, 2, 2, 0]"] ;
483 -> 484 ;
485 [label="gini = 0.0\nsamples = 2\nvalue = [0, 2, 0, 0]"] ;
484 -> 485 ;
486 [label="gini = 0.0\nsamples = 2\nvalue = [0, 0, 2, 0]"] ;
484 -> 486 ;
487 [label="Year <= 1907.0\ngini = 0.271\nsamples = 245\nvalue = [208, 10, 9, 18]"] ;
483 -> 487 ;
488 [label="Sport <= 11.5\ngini = 0.414\nsamples = 53\nvalue = [39, 2, 1, 11]"] ;
487 -> 488 ;
489 [label="Age <= 28.0\ngini = 0.391\nsamples = 52\nvalue = [39, 2, 0, 11]"] ;
488 -> 489 ;
490 [label="gini = 0.0\nsamples = 6\nvalue = [6, 0, 0, 0]"] ;
489 -> 490 ;
491 [label="Age <= 32.0\ngini = 0.426\nsamples = 46\nvalue = [33, 2, 0, 11]"] ;
489 -> 491 ;
492 [label="Age <= 29.5\ngini = 0.34\nsamples = 23\nvalue = [18, 0, 0, 5]"] ;
491 -> 492 ;
493 [label="Year <= 1903.0\ngini = 0.32\nsamples = 10\nvalue = [8, 0, 0, 2]"] ;
492 -> 493 ;
494 [label="gini = 0.32\nsamples = 5\nvalue = [4, 0, 0, 1]"] ;
493 -> 494 ;
495 [label="gini = 0.32\nsamples = 5\nvalue = [4, 0, 0, 1]"] ;
493 -> 495 ;
496 [label="Year <= 1903.0\ngini = 0.355\nsamples = 13\nvalue = [10, 0, 0, 3]"] ;
492 -> 496 ;
497 [label="gini = 0.32\nsamples = 5\nvalue = [4, 0, 0, 1]"] ;
496 -> 497 ;
498 [label="Age <= 30.5\ngini = 0.375\nsamples = 8\nvalue = [6, 0, 0, 2]"] ;
496 -> 498 ;
499 [label="gini = 0.375\nsamples = 4\nvalue = [3, 0, 0, 1]"] ;
498 -> 499 ;
500 [label="gini = 0.375\nsamples = 4\nvalue = [3, 0, 0, 1]"] ;
498 -> 500 ;
501 [label="Age <= 34.0\ngini = 0.499\nsamples = 23\nvalue = [15, 2, 0, 6]"] ;
491 -> 501 ;
502 [label="gini = 0.64\nsamples = 5\nvalue = [1, 2, 0, 2]"] ;
501 -> 502 ;
503 [label="Year <= 1903.0\ngini = 0.346\nsamples = 18\nvalue = [14, 0, 0, 4]"] ;
501 -> 503 ;
504 [label="Age <= 38.5\ngini = 0.32\nsamples = 10\nvalue = [8, 0, 0, 2]"] ;
503 -> 504 ;
505 [label="gini = 0.32\nsamples = 5\nvalue = [4, 0, 0, 1]"] ;
504 -> 505 ;
506 [label="gini = 0.32\nsamples = 5\nvalue = [4, 0, 0, 1]"] ;
504 -> 506 ;
507 [label="Age <= 37.5\ngini = 0.375\nsamples = 8\nvalue = [6, 0, 0, 2]"] ;
503 -> 507 ;
508 [label="gini = 0.375\nsamples = 4\nvalue = [3, 0, 0, 1]"] ;
507 -> 508 ;
509 [label="gini = 0.375\nsamples = 4\nvalue = [3, 0, 0, 1]"] ;
507 -> 509 ;
510 [label="gini = 0.0\nsamples = 1\nvalue = [0, 0, 1, 0]"] ;
488 -> 510 ;
511 [label="Year <= 1910.0\ngini = 0.22\nsamples = 192\nvalue = [169, 8, 8, 7]"] ;
487 -> 511 ;
512 [label="Team <= 3.5\ngini = 0.305\nsamples = 44\nvalue = [36, 1, 7, 0]"] ;
511 -> 512 ;
513 [label="gini = 0.0\nsamples = 16\nvalue = [16, 0, 0, 0]"] ;
512 -> 513 ;
514 [label="Age <= 38.5\ngini = 0.426\nsamples = 28\nvalue = [20, 1, 7, 0]"] ;
512 -> 514 ;
515 [label="Age <= 30.0\ngini = 0.503\nsamples = 21\nvalue = [13, 1, 7, 0]"] ;
514 -> 515 ;
516 [label="gini = 0.0\nsamples = 4\nvalue = [4, 0, 0, 0]"] ;
515 -> 516 ;
517 [label="Age <= 37.0\ngini = 0.547\nsamples = 17\nvalue = [9, 1, 7, 0]"] ;
515 -> 517 ;
518 [label="Age <= 32.5\ngini = 0.49\nsamples = 14\nvalue = [8, 0, 6, 0]"] ;
517 -> 518 ;
519 [label="Age <= 31.5\ngini = 0.48\nsamples = 5\nvalue = [2, 0, 3, 0]"] ;
518 -> 519 ;
520 [label="gini = 0.444\nsamples = 3\nvalue = [1, 0, 2, 0]"] ;
519 -> 520 ;
521 [label="gini = 0.5\nsamples = 2\nvalue = [1, 0, 1, 0]"] ;
519 -> 521 ;
522 [label="Age <= 33.5\ngini = 0.444\nsamples = 9\nvalue = [6, 0, 3, 0]"] ;
518 -> 522 ;
523 [label="gini = 0.375\nsamples = 4\nvalue = [3, 0, 1, 0]"] ;
522 -> 523 ;
524 [label="Age <= 35.0\ngini = 0.48\nsamples = 5\nvalue = [3, 0, 2, 0]"] ;
522 -> 524 ;
525 [label="gini = 0.5\nsamples = 2\nvalue = [1, 0, 1, 0]"] ;
524 -> 525 ;
526 [label="gini = 0.444\nsamples = 3\nvalue = [2, 0, 1, 0]"] ;
524 -> 526 ;
527 [label="gini = 0.667\nsamples = 3\nvalue = [1, 1, 1, 0]"] ;
517 -> 527 ;
528 [label="gini = 0.0\nsamples = 7\nvalue = [7, 0, 0, 0]"] ;
514 -> 528 ;
529 [label="Age <= 46.0\ngini = 0.188\nsamples = 148\nvalue = [133, 7, 1, 7]"] ;
511 -> 529 ;
530 [label="Age <= 34.5\ngini = 0.162\nsamples = 139\nvalue = [127, 4, 1, 7]"] ;
529 -> 530 ;
531 [label="Age <= 24.5\ngini = 0.121\nsamples = 95\nvalue = [89, 3, 1, 2]"] ;
530 -> 531 ;
532 [label="Age <= 22.5\ngini = 0.219\nsamples = 33\nvalue = [29, 3, 0, 1]"] ;
531 -> 532 ;
533 [label="Age <= 21.5\ngini = 0.091\nsamples = 21\nvalue = [20, 0, 0, 1]"] ;
532 -> 533 ;
534 [label="gini = 0.0\nsamples = 13\nvalue = [13, 0, 0, 0]"] ;
533 -> 534 ;
535 [label="Team <= 3.5\ngini = 0.219\nsamples = 8\nvalue = [7, 0, 0, 1]"] ;
533 -> 535 ;
536 [label="gini = 0.278\nsamples = 6\nvalue = [5, 0, 0, 1]"] ;
535 -> 536 ;
537 [label="gini = 0.0\nsamples = 2\nvalue = [2, 0, 0, 0]"] ;
535 -> 537 ;
538 [label="Sport <= 11.5\ngini = 0.375\nsamples = 12\nvalue = [9, 3, 0, 0]"] ;
532 -> 538 ;
539 [label="NOC <= 3.5\ngini = 0.5\nsamples = 4\nvalue = [2, 2, 0, 0]"] ;
538 -> 539 ;
540 [label="gini = 0.5\nsamples = 2\nvalue = [1, 1, 0, 0]"] ;
539 -> 540 ;
541 [label="gini = 0.5\nsamples = 2\nvalue = [1, 1, 0, 0]"] ;
539 -> 541 ;
542 [label="Age <= 23.5\ngini = 0.219\nsamples = 8\nvalue = [7, 1, 0, 0]"] ;
538 -> 542 ;
543 [label="NOC <= 3.5\ngini = 0.278\nsamples = 6\nvalue = [5, 1, 0, 0]"] ;
542 -> 543 ;
544 [label="gini = 0.32\nsamples = 5\nvalue = [4, 1, 0, 0]"] ;
543 -> 544 ;
545 [label="gini = 0.0\nsamples = 1\nvalue = [1, 0, 0, 0]"] ;
543 -> 545 ;
546 [label="gini = 0.0\nsamples = 2\nvalue = [2, 0, 0, 0]"] ;
542 -> 546 ;
547 [label="Age <= 26.5\ngini = 0.063\nsamples = 62\nvalue = [60, 0, 1, 1]"] ;
531 -> 547 ;
548 [label="Age <= 25.5\ngini = 0.18\nsamples = 10\nvalue = [9, 0, 1, 0]"] ;
547 -> 548 ;
549 [label="gini = 0.0\nsamples = 6\nvalue = [6, 0, 0, 0]"] ;
548 -> 549 ;
550 [label="NOC <= 3.5\ngini = 0.375\nsamples = 4\nvalue = [3, 0, 1, 0]"] ;
548 -> 550 ;
551 [label="gini = 0.5\nsamples = 2\nvalue = [1, 0, 1, 0]"] ;
550 -> 551 ;
552 [label="gini = 0.0\nsamples = 2\nvalue = [2, 0, 0, 0]"] ;
550 -> 552 ;
553 [label="Age <= 32.5\ngini = 0.038\nsamples = 52\nvalue = [51, 0, 0, 1]"] ;
547 -> 553 ;
554 [label="gini = 0.0\nsamples = 31\nvalue = [31, 0, 0, 0]"] ;
553 -> 554 ;
555 [label="Age <= 33.5\ngini = 0.091\nsamples = 21\nvalue = [20, 0, 0, 1]"] ;
553 -> 555 ;
556 [label="Sport <= 10.0\ngini = 0.219\nsamples = 8\nvalue = [7, 0, 0, 1]"] ;
555 -> 556 ;
557 [label="gini = 0.0\nsamples = 5\nvalue = [5, 0, 0, 0]"] ;
556 -> 557 ;
558 [label="gini = 0.444\nsamples = 3\nvalue = [2, 0, 0, 1]"] ;
556 -> 558 ;
559 [label="gini = 0.0\nsamples = 13\nvalue = [13, 0, 0, 0]"] ;
555 -> 559 ;
560 [label="NOC <= 3.5\ngini = 0.241\nsamples = 44\nvalue = [38, 1, 0, 5]"] ;
530 -> 560 ;
561 [label="Age <= 40.5\ngini = 0.117\nsamples = 16\nvalue = [15, 1, 0, 0]"] ;
560 -> 561 ;
562 [label="gini = 0.0\nsamples = 12\nvalue = [12, 0, 0, 0]"] ;
561 -> 562 ;
563 [label="Age <= 43.5\ngini = 0.375\nsamples = 4\nvalue = [3, 1, 0, 0]"] ;
561 -> 563 ;
564 [label="gini = 0.5\nsamples = 2\nvalue = [1, 1, 0, 0]"] ;
563 -> 564 ;
565 [label="gini = 0.0\nsamples = 2\nvalue = [2, 0, 0, 0]"] ;
563 -> 565 ;
566 [label="Age <= 42.5\ngini = 0.293\nsamples = 28\nvalue = [23, 0, 0, 5]"] ;
560 -> 566 ;
567 [label="Age <= 39.5\ngini = 0.34\nsamples = 23\nvalue = [18, 0, 0, 5]"] ;
566 -> 567 ;
568 [label="Age <= 38.5\ngini = 0.278\nsamples = 18\nvalue = [15, 0, 0, 3]"] ;
567 -> 568 ;
569 [label="Sport <= 10.5\ngini = 0.32\nsamples = 15\nvalue = [12, 0, 0, 3]"] ;
568 -> 569 ;
570 [label="gini = 0.0\nsamples = 3\nvalue = [3, 0, 0, 0]"] ;
569 -> 570 ;
571 [label="Age <= 37.0\ngini = 0.375\nsamples = 12\nvalue = [9, 0, 0, 3]"] ;
569 -> 571 ;
572 [label="Age <= 35.5\ngini = 0.408\nsamples = 7\nvalue = [5, 0, 0, 2]"] ;
571 -> 572 ;
573 [label="gini = 0.375\nsamples = 4\nvalue = [3, 0, 0, 1]"] ;
572 -> 573 ;
574 [label="gini = 0.444\nsamples = 3\nvalue = [2, 0, 0, 1]"] ;
572 -> 574 ;
575 [label="gini = 0.32\nsamples = 5\nvalue = [4, 0, 0, 1]"] ;
571 -> 575 ;
576 [label="gini = 0.0\nsamples = 3\nvalue = [3, 0, 0, 0]"] ;
568 -> 576 ;
577 [label="Age <= 41.0\ngini = 0.48\nsamples = 5\nvalue = [3, 0, 0, 2]"] ;
567 -> 577 ;
578 [label="gini = 0.444\nsamples = 3\nvalue = [2, 0, 0, 1]"] ;
577 -> 578 ;
579 [label="gini = 0.5\nsamples = 2\nvalue = [1, 0, 0, 1]"] ;
577 -> 579 ;
580 [label="gini = 0.0\nsamples = 5\nvalue = [5, 0, 0, 0]"] ;
566 -> 580 ;
581 [label="Age <= 48.5\ngini = 0.444\nsamples = 9\nvalue = [6, 3, 0, 0]"] ;
529 -> 581 ;
582 [label="gini = 0.444\nsamples = 3\nvalue = [1, 2, 0, 0]"] ;
581 -> 582 ;
583 [label="Age <= 53.0\ngini = 0.278\nsamples = 6\nvalue = [5, 1, 0, 0]"] ;
581 -> 583 ;
584 [label="Age <= 51.0\ngini = 0.375\nsamples = 4\nvalue = [3, 1, 0, 0]"] ;
583 -> 584 ;
585 [label="gini = 0.0\nsamples = 1\nvalue = [1, 0, 0, 0]"] ;
584 -> 585 ;
586 [label="gini = 0.444\nsamples = 3\nvalue = [2, 1, 0, 0]"] ;
584 -> 586 ;
587 [label="gini = 0.0\nsamples = 2\nvalue = [2, 0, 0, 0]"] ;
583 -> 587 ;
588 [label="Sport <= 10.5\ngini = 0.561\nsamples = 147\nvalue = [92, 20, 16, 19]"] ;
482 -> 588 ;
589 [label="gini = 0.0\nsamples = 10\nvalue = [10, 0, 0, 0]"] ;
588 -> 589 ;
590 [label="Age <= 45.5\ngini = 0.588\nsamples = 137\nvalue = [82, 20, 16, 19]"] ;
588 -> 590 ;
591 [label="Height <= 168.5\ngini = 0.565\nsamples = 124\nvalue = [77, 17, 12, 18]"] ;
590 -> 591 ;
592 [label="Age <= 30.0\ngini = 0.5\nsamples = 2\nvalue = [0, 0, 1, 1]"] ;
591 -> 592 ;
593 [label="gini = 0.0\nsamples = 1\nvalue = [0, 0, 0, 1]"] ;
592 -> 593 ;
594 [label="gini = 0.0\nsamples = 1\nvalue = [0, 0, 1, 0]"] ;
592 -> 594 ;
595 [label="Age <= 41.5\ngini = 0.555\nsamples = 122\nvalue = [77, 17, 11, 17]"] ;
591 -> 595 ;
596 [label="Age <= 35.5\ngini = 0.592\nsamples = 91\nvalue = [54, 13, 11, 13]"] ;
595 -> 596 ;
597 [label="Age <= 32.5\ngini = 0.557\nsamples = 70\nvalue = [44, 10, 6, 10]"] ;
596 -> 597 ;
598 [label="Team <= 3.5\ngini = 0.63\nsamples = 26\nvalue = [14, 5, 2, 5]"] ;
597 -> 598 ;
599 [label="Age <= 25.5\ngini = 0.672\nsamples = 16\nvalue = [7, 3, 1, 5]"] ;
598 -> 599 ;
600 [label="Age <= 23.5\ngini = 0.5\nsamples = 2\nvalue = [0, 1, 0, 1]"] ;
599 -> 600 ;
601 [label="gini = 0.0\nsamples = 1\nvalue = [0, 0, 0, 1]"] ;
600 -> 601 ;
602 [label="gini = 0.0\nsamples = 1\nvalue = [0, 1, 0, 0]"] ;
600 -> 602 ;
603 [label="Age <= 27.5\ngini = 0.643\nsamples = 14\nvalue = [7, 2, 1, 4]"] ;
599 -> 603 ;
604 [label="Weight <= 65.558\ngini = 0.667\nsamples = 3\nvalue = [1, 0, 1, 1]"] ;
603 -> 604 ;
605 [label="gini = 0.0\nsamples = 1\nvalue = [1, 0, 0, 0]"] ;
604 -> 605 ;
606 [label="gini = 0.5\nsamples = 2\nvalue = [0, 0, 1, 1]"] ;
604 -> 606 ;
607 [label="Height <= 174.736\ngini = 0.595\nsamples = 11\nvalue = [6, 2, 0, 3]"] ;
603 -> 607 ;
608 [label="gini = 0.0\nsamples = 1\nvalue = [0, 0, 0, 1]"] ;
607 -> 608 ;
609 [label="Sport <= 11.5\ngini = 0.56\nsamples = 10\nvalue = [6, 2, 0, 2]"] ;
607 -> 609 ;
610 [label="gini = 0.625\nsamples = 8\nvalue = [4, 2, 0, 2]"] ;
609 -> 610 ;
611 [label="gini = 0.0\nsamples = 2\nvalue = [2, 0, 0, 0]"] ;
609 -> 611 ;
612 [label="Age <= 26.5\ngini = 0.46\nsamples = 10\nvalue = [7, 2, 1, 0]"] ;
598 -> 612 ;
613 [label="gini = 0.0\nsamples = 3\nvalue = [3, 0, 0, 0]"] ;
612 -> 613 ;
614 [label="Age <= 27.5\ngini = 0.571\nsamples = 7\nvalue = [4, 2, 1, 0]"] ;
612 -> 614 ;
615 [label="gini = 0.0\nsamples = 1\nvalue = [0, 1, 0, 0]"] ;
614 -> 615 ;
616 [label="Sport <= 11.5\ngini = 0.5\nsamples = 6\nvalue = [4, 1, 1, 0]"] ;
614 -> 616 ;
617 [label="gini = 0.625\nsamples = 4\nvalue = [2, 1, 1, 0]"] ;
616 -> 617 ;
618 [label="gini = 0.0\nsamples = 2\nvalue = [2, 0, 0, 0]"] ;
616 -> 618 ;
619 [label="NOC <= 3.5\ngini = 0.501\nsamples = 44\nvalue = [30, 5, 4, 5]"] ;
597 -> 619 ;
620 [label="Sport <= 11.5\ngini = 0.394\nsamples = 25\nvalue = [19, 4, 1, 1]"] ;
619 -> 620 ;
621 [label="Age <= 34.5\ngini = 0.355\nsamples = 23\nvalue = [18, 4, 0, 1]"] ;
620 -> 621 ;
622 [label="gini = 0.278\nsamples = 6\nvalue = [5, 1, 0, 0]"] ;
621 -> 622 ;
623 [label="gini = 0.381\nsamples = 17\nvalue = [13, 3, 0, 1]"] ;
621 -> 623 ;
624 [label="Age <= 33.5\ngini = 0.5\nsamples = 2\nvalue = [1, 0, 1, 0]"] ;
620 -> 624 ;
625 [label="gini = 0.0\nsamples = 1\nvalue = [1, 0, 0, 0]"] ;
624 -> 625 ;
626 [label="gini = 0.0\nsamples = 1\nvalue = [0, 0, 1, 0]"] ;
624 -> 626 ;
627 [label="Age <= 34.5\ngini = 0.593\nsamples = 19\nvalue = [11, 1, 3, 4]"] ;
619 -> 627 ;
628 [label="gini = 0.46\nsamples = 10\nvalue = [7, 1, 0, 2]"] ;
627 -> 628 ;
629 [label="gini = 0.642\nsamples = 9\nvalue = [4, 0, 3, 2]"] ;
627 -> 629 ;
630 [label="Age <= 36.5\ngini = 0.676\nsamples = 21\nvalue = [10, 3, 5, 3]"] ;
596 -> 630 ;
631 [label="gini = 0.375\nsamples = 4\nvalue = [1, 0, 3, 0]"] ;
630 -> 631 ;
632 [label="Age <= 40.0\ngini = 0.644\nsamples = 17\nvalue = [9, 3, 2, 3]"] ;
630 -> 632 ;
633 [label="Age <= 38.5\ngini = 0.617\nsamples = 9\nvalue = [5, 1, 2, 1]"] ;
632 -> 633 ;
634 [label="Age <= 37.5\ngini = 0.5\nsamples = 6\nvalue = [4, 1, 0, 1]"] ;
633 -> 634 ;
635 [label="gini = 0.0\nsamples = 1\nvalue = [1, 0, 0, 0]"] ;
634 -> 635 ;
636 [label="gini = 0.56\nsamples = 5\nvalue = [3, 1, 0, 1]"] ;
634 -> 636 ;
637 [label="gini = 0.444\nsamples = 3\nvalue = [1, 0, 2, 0]"] ;
633 -> 637 ;
638 [label="gini = 0.625\nsamples = 8\nvalue = [4, 2, 0, 2]"] ;
632 -> 638 ;
639 [label="Age <= 43.5\ngini = 0.416\nsamples = 31\nvalue = [23, 4, 0, 4]"] ;
595 -> 639 ;
640 [label="Team <= 3.5\ngini = 0.455\nsamples = 24\nvalue = [17, 4, 0, 3]"] ;
639 -> 640 ;
641 [label="Age <= 42.5\ngini = 0.418\nsamples = 15\nvalue = [11, 3, 0, 1]"] ;
640 -> 641 ;
642 [label="gini = 0.449\nsamples = 7\nvalue = [5, 1, 0, 1]"] ;
641 -> 642 ;
643 [label="gini = 0.375\nsamples = 8\nvalue = [6, 2, 0, 0]"] ;
641 -> 643 ;
644 [label="gini = 0.494\nsamples = 9\nvalue = [6, 1, 0, 2]"] ;
640 -> 644 ;
645 [label="Age <= 44.5\ngini = 0.245\nsamples = 7\nvalue = [6, 0, 0, 1]"] ;
639 -> 645 ;
646 [label="gini = 0.32\nsamples = 5\nvalue = [4, 0, 0, 1]"] ;
645 -> 646 ;
647 [label="gini = 0.0\nsamples = 2\nvalue = [2, 0, 0, 0]"] ;
645 -> 647 ;
648 [label="Age <= 49.0\ngini = 0.698\nsamples = 13\nvalue = [5, 3, 4, 1]"] ;
590 -> 648 ;
649 [label="Age <= 46.5\ngini = 0.625\nsamples = 8\nvalue = [2, 2, 4, 0]"] ;
648 -> 649 ;
650 [label="gini = 0.625\nsamples = 4\nvalue = [1, 1, 2, 0]"] ;
649 -> 650 ;
651 [label="gini = 0.625\nsamples = 4\nvalue = [1, 1, 2, 0]"] ;
649 -> 651 ;
652 [label="Age <= 53.0\ngini = 0.56\nsamples = 5\nvalue = [3, 1, 0, 1]"] ;
648 -> 652 ;
653 [label="gini = 0.0\nsamples = 1\nvalue = [1, 0, 0, 0]"] ;
652 -> 653 ;
654 [label="gini = 0.625\nsamples = 4\nvalue = [2, 1, 0, 1]"] ;
652 -> 654 ;
655 [label="Year <= 1901.0\ngini = 0.101\nsamples = 248\nvalue = [235, 4, 3, 6]"] ;
337 -> 655 ;
656 [label="gini = 0.5\nsamples = 2\nvalue = [0, 0, 1, 1]"] ;
655 -> 656 ;
657 [label="Age <= 36.0\ngini = 0.087\nsamples = 246\nvalue = [235, 4, 2, 5]"] ;
655 -> 657 ;
658 [label="Sex <= 0.5\ngini = 0.08\nsamples = 243\nvalue = [233, 4, 1, 5]"] ;
657 -> 658 ;
659 [label="Sport <= 13.5\ngini = 0.06\nsamples = 229\nvalue = [222, 3, 0, 4]"] ;
658 -> 659 ;
660 [label="NOC <= 1.5\ngini = 0.198\nsamples = 36\nvalue = [32, 0, 0, 4]"] ;
659 -> 660 ;
661 [label="Year <= 1914.0\ngini = 0.337\nsamples = 14\nvalue = [11, 0, 0, 3]"] ;
660 -> 661 ;
662 [label="gini = 0.0\nsamples = 2\nvalue = [2, 0, 0, 0]"] ;
661 -> 662 ;
663 [label="Age <= 22.5\ngini = 0.375\nsamples = 12\nvalue = [9, 0, 0, 3]"] ;
661 -> 663 ;
664 [label="Age <= 20.5\ngini = 0.278\nsamples = 6\nvalue = [5, 0, 0, 1]"] ;
663 -> 664 ;
665 [label="Age <= 19.5\ngini = 0.375\nsamples = 4\nvalue = [3, 0, 0, 1]"] ;
664 -> 665 ;
666 [label="gini = 0.0\nsamples = 1\nvalue = [1, 0, 0, 0]"] ;
665 -> 666 ;
667 [label="gini = 0.444\nsamples = 3\nvalue = [2, 0, 0, 1]"] ;
665 -> 667 ;
668 [label="gini = 0.0\nsamples = 2\nvalue = [2, 0, 0, 0]"] ;
664 -> 668 ;
669 [label="Age <= 25.5\ngini = 0.444\nsamples = 6\nvalue = [4, 0, 0, 2]"] ;
663 -> 669 ;
670 [label="Age <= 24.5\ngini = 0.48\nsamples = 5\nvalue = [3, 0, 0, 2]"] ;
669 -> 670 ;
671 [label="gini = 0.5\nsamples = 2\nvalue = [1, 0, 0, 1]"] ;
670 -> 671 ;
672 [label="gini = 0.444\nsamples = 3\nvalue = [2, 0, 0, 1]"] ;
670 -> 672 ;
673 [label="gini = 0.0\nsamples = 1\nvalue = [1, 0, 0, 0]"] ;
669 -> 673 ;
674 [label="Age <= 19.5\ngini = 0.087\nsamples = 22\nvalue = [21, 0, 0, 1]"] ;
660 -> 674 ;
675 [label="Age <= 18.5\ngini = 0.18\nsamples = 10\nvalue = [9, 0, 0, 1]"] ;
674 -> 675 ;
676 [label="gini = 0.0\nsamples = 6\nvalue = [6, 0, 0, 0]"] ;
675 -> 676 ;
677 [label="gini = 0.375\nsamples = 4\nvalue = [3, 0, 0, 1]"] ;
675 -> 677 ;
678 [label="gini = 0.0\nsamples = 12\nvalue = [12, 0, 0, 0]"] ;
674 -> 678 ;
679 [label="Year <= 1916.0\ngini = 0.031\nsamples = 193\nvalue = [190, 3, 0, 0]"] ;
659 -> 679 ;
680 [label="gini = 0.0\nsamples = 115\nvalue = [115, 0, 0, 0]"] ;
679 -> 680 ;
681 [label="Age <= 24.5\ngini = 0.074\nsamples = 78\nvalue = [75, 3, 0, 0]"] ;
679 -> 681 ;
682 [label="Age <= 23.5\ngini = 0.139\nsamples = 40\nvalue = [37, 3, 0, 0]"] ;
681 -> 682 ;
683 [label="Age <= 21.5\ngini = 0.067\nsamples = 29\nvalue = [28, 1, 0, 0]"] ;
682 -> 683 ;
684 [label="gini = 0.0\nsamples = 16\nvalue = [16, 0, 0, 0]"] ;
683 -> 684 ;
685 [label="Age <= 22.5\ngini = 0.142\nsamples = 13\nvalue = [12, 1, 0, 0]"] ;
683 -> 685 ;
686 [label="Sport <= 14.5\ngini = 0.375\nsamples = 4\nvalue = [3, 1, 0, 0]"] ;
685 -> 686 ;
687 [label="gini = 0.444\nsamples = 3\nvalue = [2, 1, 0, 0]"] ;
686 -> 687 ;
688 [label="gini = 0.0\nsamples = 1\nvalue = [1, 0, 0, 0]"] ;
686 -> 688 ;
689 [label="gini = 0.0\nsamples = 9\nvalue = [9, 0, 0, 0]"] ;
685 -> 689 ;
690 [label="NOC <= 1.5\ngini = 0.298\nsamples = 11\nvalue = [9, 2, 0, 0]"] ;
682 -> 690 ;
691 [label="gini = 0.0\nsamples = 4\nvalue = [4, 0, 0, 0]"] ;
690 -> 691 ;
692 [label="Sport <= 16.0\ngini = 0.408\nsamples = 7\nvalue = [5, 2, 0, 0]"] ;
690 -> 692 ;
693 [label="gini = 0.444\nsamples = 6\nvalue = [4, 2, 0, 0]"] ;
692 -> 693 ;
694 [label="gini = 0.0\nsamples = 1\nvalue = [1, 0, 0, 0]"] ;
692 -> 694 ;
695 [label="gini = 0.0\nsamples = 38\nvalue = [38, 0, 0, 0]"] ;
681 -> 695 ;
696 [label="Year <= 1916.0\ngini = 0.367\nsamples = 14\nvalue = [11, 1, 1, 1]"] ;
658 -> 696 ;
697 [label="NOC <= 2.5\ngini = 0.625\nsamples = 4\nvalue = [2, 1, 0, 1]"] ;
696 -> 697 ;
698 [label="gini = 0.5\nsamples = 2\nvalue = [1, 0, 0, 1]"] ;
697 -> 698 ;
699 [label="gini = 0.5\nsamples = 2\nvalue = [1, 1, 0, 0]"] ;
697 -> 699 ;
700 [label="Sport <= 21.0\ngini = 0.18\nsamples = 10\nvalue = [9, 0, 1, 0]"] ;
696 -> 700 ;
701 [label="Team <= 2.5\ngini = 0.375\nsamples = 4\nvalue = [3, 0, 1, 0]"] ;
700 -> 701 ;
702 [label="Age <= 23.0\ngini = 0.5\nsamples = 2\nvalue = [1, 0, 1, 0]"] ;
701 -> 702 ;
703 [label="gini = 0.0\nsamples = 1\nvalue = [0, 0, 1, 0]"] ;
702 -> 703 ;
704 [label="gini = 0.0\nsamples = 1\nvalue = [1, 0, 0, 0]"] ;
702 -> 704 ;
705 [label="gini = 0.0\nsamples = 2\nvalue = [2, 0, 0, 0]"] ;
701 -> 705 ;
706 [label="gini = 0.0\nsamples = 6\nvalue = [6, 0, 0, 0]"] ;
700 -> 706 ;
707 [label="NOC <= 2.5\ngini = 0.444\nsamples = 3\nvalue = [2, 0, 1, 0]"] ;
657 -> 707 ;
708 [label="gini = 0.5\nsamples = 2\nvalue = [1, 0, 1, 0]"] ;
707 -> 708 ;
709 [label="gini = 0.0\nsamples = 1\nvalue = [1, 0, 0, 0]"] ;
707 -> 709 ;
710 [label="Weight <= 91.0\ngini = 0.705\nsamples = 20\nvalue = [8, 2, 5, 5]"] ;
336 -> 710 ;
711 [label="NOC <= 2.0\ngini = 0.722\nsamples = 12\nvalue = [2, 2, 4, 4]"] ;
710 -> 711 ;
712 [label="gini = 0.5\nsamples = 2\nvalue = [1, 1, 0, 0]"] ;
711 -> 712 ;
713 [label="Height <= 173.0\ngini = 0.66\nsamples = 10\nvalue = [1, 1, 4, 4]"] ;
711 -> 713 ;
714 [label="gini = 0.0\nsamples = 1\nvalue = [1, 0, 0, 0]"] ;
713 -> 714 ;
715 [label="Height <= 181.5\ngini = 0.593\nsamples = 9\nvalue = [0, 1, 4, 4]"] ;
713 -> 715 ;
716 [label="Weight <= 77.0\ngini = 0.5\nsamples = 8\nvalue = [0, 0, 4, 4]"] ;
715 -> 716 ;
717 [label="gini = 0.0\nsamples = 1\nvalue = [0, 0, 1, 0]"] ;
716 -> 717 ;
718 [label="Weight <= 87.0\ngini = 0.49\nsamples = 7\nvalue = [0, 0, 3, 4]"] ;
716 -> 718 ;
719 [label="Age <= 28.0\ngini = 0.375\nsamples = 4\nvalue = [0, 0, 1, 3]"] ;
718 -> 719 ;
720 [label="gini = 0.0\nsamples = 2\nvalue = [0, 0, 0, 2]"] ;
719 -> 720 ;
721 [label="NOC <= 3.5\ngini = 0.5\nsamples = 2\nvalue = [0, 0, 1, 1]"] ;
719 -> 721 ;
722 [label="gini = 0.0\nsamples = 1\nvalue = [0, 0, 1, 0]"] ;
721 -> 722 ;
723 [label="gini = 0.0\nsamples = 1\nvalue = [0, 0, 0, 1]"] ;
721 -> 723 ;
724 [label="Age <= 24.0\ngini = 0.444\nsamples = 3\nvalue = [0, 0, 2, 1]"] ;
718 -> 724 ;
725 [label="gini = 0.5\nsamples = 2\nvalue = [0, 0, 1, 1]"] ;
724 -> 725 ;
726 [label="gini = 0.0\nsamples = 1\nvalue = [0, 0, 1, 0]"] ;
724 -> 726 ;
727 [label="gini = 0.0\nsamples = 1\nvalue = [0, 1, 0, 0]"] ;
715 -> 727 ;
728 [label="Weight <= 114.5\ngini = 0.406\nsamples = 8\nvalue = [6, 0, 1, 1]"] ;
710 -> 728 ;
729 [label="Age <= 38.0\ngini = 0.245\nsamples = 7\nvalue = [6, 0, 1, 0]"] ;
728 -> 729 ;
730 [label="gini = 0.0\nsamples = 6\nvalue = [6, 0, 0, 0]"] ;
729 -> 730 ;
731 [label="gini = 0.0\nsamples = 1\nvalue = [0, 0, 1, 0]"] ;
729 -> 731 ;
732 [label="gini = 0.0\nsamples = 1\nvalue = [0, 0, 0, 1]"] ;
728 -> 732 ;
733 [label="Year <= 1910.0\ngini = 0.49\nsamples = 14\nvalue = [6, 0, 8, 0]"] ;
335 -> 733 ;
734 [label="gini = 0.0\nsamples = 6\nvalue = [6, 0, 0, 0]"] ;
733 -> 734 ;
735 [label="gini = 0.0\nsamples = 8\nvalue = [0, 0, 8, 0]"] ;
733 -> 735 ;
736 [label="Sport <= 24.0\ngini = 0.316\nsamples = 3980\nvalue = [3266, 217, 252, 245]"] ;
4 -> 736 ;
737 [label="Age <= 25.672\ngini = 0.304\nsamples = 3910\nvalue = [3239, 204, 246, 221]"] ;
736 -> 737 ;
738 [label="Age <= 25.172\ngini = 0.248\nsamples = 2620\nvalue = [2262, 105, 128, 125]"] ;
737 -> 738 ;
739 [label="Sport <= 2.5\ngini = 0.343\nsamples = 1538\nvalue = [1234, 78, 123, 103]"] ;
738 -> 739 ;
740 [label="Weight <= 70.308\ngini = 0.208\nsamples = 643\nvalue = [570, 25, 7, 41]"] ;
739 -> 740 ;
741 [label="Weight <= 66.5\ngini = 0.422\nsamples = 100\nvalue = [74, 5, 5, 16]"] ;
740 -> 741 ;
742 [label="Year <= 1916.0\ngini = 0.338\nsamples = 61\nvalue = [49, 1, 5, 6]"] ;
741 -> 742 ;
743 [label="Year <= 1910.0\ngini = 0.273\nsamples = 52\nvalue = [44, 1, 2, 5]"] ;
742 -> 743 ;
744 [label="Age <= 24.5\ngini = 0.389\nsamples = 34\nvalue = [26, 1, 2, 5]"] ;
743 -> 744 ;
745 [label="NOC <= 12.5\ngini = 0.323\nsamples = 31\nvalue = [25, 0, 1, 5]"] ;
744 -> 745 ;
746 [label="Age <= 23.0\ngini = 0.5\nsamples = 2\nvalue = [1, 0, 1, 0]"] ;
745 -> 746 ;
747 [label="gini = 0.0\nsamples = 1\nvalue = [0, 0, 1, 0]"] ;
746 -> 747 ;
748 [label="gini = 0.0\nsamples = 1\nvalue = [1, 0, 0, 0]"] ;
746 -> 748 ;
749 [label="Year <= 1907.0\ngini = 0.285\nsamples = 29\nvalue = [24, 0, 0, 5]"] ;
745 -> 749 ;
750 [label="Weight <= 57.0\ngini = 0.198\nsamples = 18\nvalue = [16, 0, 0, 2]"] ;
749 -> 750 ;
751 [label="Year <= 1901.0\ngini = 0.346\nsamples = 9\nvalue = [7, 0, 0, 2]"] ;
750 -> 751 ;
752 [label="Age <= 23.5\ngini = 0.278\nsamples = 6\nvalue = [5, 0, 0, 1]"] ;
751 -> 752 ;
753 [label="gini = 0.0\nsamples = 1\nvalue = [1, 0, 0, 0]"] ;
752 -> 753 ;
754 [label="gini = 0.32\nsamples = 5\nvalue = [4, 0, 0, 1]"] ;
752 -> 754 ;
755 [label="gini = 0.444\nsamples = 3\nvalue = [2, 0, 0, 1]"] ;
751 -> 755 ;
756 [label="gini = 0.0\nsamples = 9\nvalue = [9, 0, 0, 0]"] ;
750 -> 756 ;
757 [label="NOC <= 24.0\ngini = 0.397\nsamples = 11\nvalue = [8, 0, 0, 3]"] ;
749 -> 757 ;
758 [label="gini = 0.0\nsamples = 1\nvalue = [0, 0, 0, 1]"] ;
757 -> 758 ;
759 [label="Height <= 171.0\ngini = 0.32\nsamples = 10\nvalue = [8, 0, 0, 2]"] ;
757 -> 759 ;
760 [label="Age <= 21.5\ngini = 0.444\nsamples = 3\nvalue = [2, 0, 0, 1]"] ;
759 -> 760 ;
761 [label="gini = 0.0\nsamples = 1\nvalue = [1, 0, 0, 0]"] ;
760 -> 761 ;
762 [label="gini = 0.5\nsamples = 2\nvalue = [1, 0, 0, 1]"] ;
760 -> 762 ;
763 [label="Age <= 21.5\ngini = 0.245\nsamples = 7\nvalue = [6, 0, 0, 1]"] ;
759 -> 763 ;
764 [label="NOC <= 30.0\ngini = 0.32\nsamples = 5\nvalue = [4, 0, 0, 1]"] ;
763 -> 764 ;
765 [label="gini = 0.375\nsamples = 4\nvalue = [3, 0, 0, 1]"] ;
764 -> 765 ;
766 [label="gini = 0.0\nsamples = 1\nvalue = [1, 0, 0, 0]"] ;
764 -> 766 ;
767 [label="gini = 0.0\nsamples = 2\nvalue = [2, 0, 0, 0]"] ;
763 -> 767 ;
768 [label="Weight <= 65.0\ngini = 0.667\nsamples = 3\nvalue = [1, 1, 1, 0]"] ;
744 -> 768 ;
769 [label="gini = 0.0\nsamples = 1\nvalue = [1, 0, 0, 0]"] ;
768 -> 769 ;
770 [label="gini = 0.5\nsamples = 2\nvalue = [0, 1, 1, 0]"] ;
768 -> 770 ;
771 [label="gini = 0.0\nsamples = 18\nvalue = [18, 0, 0, 0]"] ;
743 -> 771 ;
772 [label="Age <= 18.5\ngini = 0.568\nsamples = 9\nvalue = [5, 0, 3, 1]"] ;
742 -> 772 ;
773 [label="gini = 0.0\nsamples = 2\nvalue = [0, 0, 2, 0]"] ;
772 -> 773 ;
774 [label="Height <= 163.5\ngini = 0.449\nsamples = 7\nvalue = [5, 0, 1, 1]"] ;
772 -> 774 ;
775 [label="gini = 0.625\nsamples = 4\nvalue = [2, 0, 1, 1]"] ;
774 -> 775 ;
776 [label="gini = 0.0\nsamples = 3\nvalue = [3, 0, 0, 0]"] ;
774 -> 776 ;
777 [label="Age <= 21.5\ngini = 0.513\nsamples = 39\nvalue = [25, 4, 0, 10]"] ;
741 -> 777 ;
778 [label="Weight <= 67.5\ngini = 0.602\nsamples = 25\nvalue = [13, 4, 0, 8]"] ;
777 -> 778 ;
779 [label="gini = 0.0\nsamples = 2\nvalue = [0, 0, 0, 2]"] ;
778 -> 779 ;
780 [label="Age <= 19.5\ngini = 0.582\nsamples = 23\nvalue = [13, 4, 0, 6]"] ;
778 -> 780 ;
781 [label="NOC <= 20.5\ngini = 0.594\nsamples = 8\nvalue = [4, 3, 0, 1]"] ;
780 -> 781 ;
782 [label="Age <= 18.0\ngini = 0.571\nsamples = 7\nvalue = [4, 2, 0, 1]"] ;
781 -> 782 ;
783 [label="gini = 0.5\nsamples = 2\nvalue = [1, 0, 0, 1]"] ;
782 -> 783 ;
784 [label="NOC <= 12.5\ngini = 0.48\nsamples = 5\nvalue = [3, 2, 0, 0]"] ;
782 -> 784 ;
785 [label="gini = 0.5\nsamples = 2\nvalue = [1, 1, 0, 0]"] ;
784 -> 785 ;
786 [label="gini = 0.444\nsamples = 3\nvalue = [2, 1, 0, 0]"] ;
784 -> 786 ;
787 [label="gini = 0.0\nsamples = 1\nvalue = [0, 1, 0, 0]"] ;
781 -> 787 ;
788 [label="NOC <= 25.5\ngini = 0.524\nsamples = 15\nvalue = [9, 1, 0, 5]"] ;
780 -> 788 ;
789 [label="Year <= 1904.0\ngini = 0.444\nsamples = 12\nvalue = [8, 0, 0, 4]"] ;
788 -> 789 ;
790 [label="gini = 0.5\nsamples = 2\nvalue = [1, 0, 0, 1]"] ;
789 -> 790 ;
791 [label="Height <= 172.5\ngini = 0.42\nsamples = 10\nvalue = [7, 0, 0, 3]"] ;
789 -> 791 ;
792 [label="gini = 0.0\nsamples = 1\nvalue = [1, 0, 0, 0]"] ;
791 -> 792 ;
793 [label="Weight <= 69.0\ngini = 0.444\nsamples = 9\nvalue = [6, 0, 0, 3]"] ;
791 -> 793 ;
794 [label="Height <= 177.5\ngini = 0.444\nsamples = 6\nvalue = [4, 0, 0, 2]"] ;
793 -> 794 ;
795 [label="gini = 0.444\nsamples = 3\nvalue = [2, 0, 0, 1]"] ;
794 -> 795 ;
796 [label="gini = 0.444\nsamples = 3\nvalue = [2, 0, 0, 1]"] ;
794 -> 796 ;
797 [label="gini = 0.444\nsamples = 3\nvalue = [2, 0, 0, 1]"] ;
793 -> 797 ;
798 [label="gini = 0.667\nsamples = 3\nvalue = [1, 1, 0, 1]"] ;
788 -> 798 ;
799 [label="NOC <= 12.5\ngini = 0.245\nsamples = 14\nvalue = [12, 0, 0, 2]"] ;
777 -> 799 ;
800 [label="gini = 0.5\nsamples = 2\nvalue = [1, 0, 0, 1]"] ;
799 -> 800 ;
801 [label="Age <= 24.0\ngini = 0.153\nsamples = 12\nvalue = [11, 0, 0, 1]"] ;
799 -> 801 ;
802 [label="gini = 0.0\nsamples = 7\nvalue = [7, 0, 0, 0]"] ;
801 -> 802 ;
803 [label="Team <= 26.5\ngini = 0.32\nsamples = 5\nvalue = [4, 0, 0, 1]"] ;
801 -> 803 ;
804 [label="gini = 0.0\nsamples = 2\nvalue = [2, 0, 0, 0]"] ;
803 -> 804 ;
805 [label="gini = 0.444\nsamples = 3\nvalue = [2, 0, 0, 1]"] ;
803 -> 805 ;
806 [label="NOC <= 17.0\ngini = 0.162\nsamples = 543\nvalue = [496, 20, 2, 25]"] ;
740 -> 806 ;
807 [label="Sport <= 1.5\ngini = 0.294\nsamples = 171\nvalue = [142, 9, 0, 20]"] ;
806 -> 807 ;
808 [label="NOC <= 10.5\ngini = 0.472\nsamples = 21\nvalue = [8, 0, 0, 13]"] ;
807 -> 808 ;
809 [label="gini = 0.0\nsamples = 8\nvalue = [8, 0, 0, 0]"] ;
808 -> 809 ;
810 [label="gini = 0.0\nsamples = 13\nvalue = [0, 0, 0, 13]"] ;
808 -> 810 ;
811 [label="Year <= 1903.0\ngini = 0.196\nsamples = 150\nvalue = [134, 9, 0, 7]"] ;
807 -> 811 ;
812 [label="Age <= 20.5\ngini = 0.465\nsamples = 20\nvalue = [14, 3, 0, 3]"] ;
811 -> 812 ;
813 [label="Age <= 18.0\ngini = 0.444\nsamples = 6\nvalue = [4, 0, 0, 2]"] ;
812 -> 813 ;
814 [label="gini = 0.0\nsamples = 1\nvalue = [1, 0, 0, 0]"] ;
813 -> 814 ;
815 [label="Age <= 19.5\ngini = 0.48\nsamples = 5\nvalue = [3, 0, 0, 2]"] ;
813 -> 815 ;
816 [label="gini = 0.5\nsamples = 2\nvalue = [1, 0, 0, 1]"] ;
815 -> 816 ;
817 [label="gini = 0.444\nsamples = 3\nvalue = [2, 0, 0, 1]"] ;
815 -> 817 ;
818 [label="Age <= 24.5\ngini = 0.439\nsamples = 14\nvalue = [10, 3, 0, 1]"] ;
812 -> 818 ;
819 [label="Age <= 22.5\ngini = 0.42\nsamples = 10\nvalue = [7, 3, 0, 0]"] ;
818 -> 819 ;
820 [label="Year <= 1898.0\ngini = 0.278\nsamples = 6\nvalue = [5, 1, 0, 0]"] ;
819 -> 820 ;
821 [label="gini = 0.444\nsamples = 3\nvalue = [2, 1, 0, 0]"] ;
820 -> 821 ;
822 [label="gini = 0.0\nsamples = 3\nvalue = [3, 0, 0, 0]"] ;
820 -> 822 ;
823 [label="Age <= 23.5\ngini = 0.5\nsamples = 4\nvalue = [2, 2, 0, 0]"] ;
819 -> 823 ;
824 [label="gini = 0.5\nsamples = 2\nvalue = [1, 1, 0, 0]"] ;
823 -> 824 ;
825 [label="gini = 0.5\nsamples = 2\nvalue = [1, 1, 0, 0]"] ;
823 -> 825 ;
826 [label="Year <= 1898.0\ngini = 0.375\nsamples = 4\nvalue = [3, 0, 0, 1]"] ;
818 -> 826 ;
827 [label="gini = 0.0\nsamples = 2\nvalue = [2, 0, 0, 0]"] ;
826 -> 827 ;
828 [label="gini = 0.5\nsamples = 2\nvalue = [1, 0, 0, 1]"] ;
826 -> 828 ;
829 [label="Team <= 10.5\ngini = 0.145\nsamples = 130\nvalue = [120, 6, 0, 4]"] ;
811 -> 829 ;
830 [label="Age <= 18.5\ngini = 0.187\nsamples = 99\nvalue = [89, 6, 0, 4]"] ;
829 -> 830 ;
831 [label="Year <= 1914.0\ngini = 0.56\nsamples = 5\nvalue = [3, 1, 0, 1]"] ;
830 -> 831 ;
832 [label="Height <= 181.736\ngini = 0.667\nsamples = 3\nvalue = [1, 1, 0, 1]"] ;
831 -> 832 ;
833 [label="gini = 0.0\nsamples = 1\nvalue = [0, 1, 0, 0]"] ;
832 -> 833 ;
834 [label="gini = 0.5\nsamples = 2\nvalue = [1, 0, 0, 1]"] ;
832 -> 834 ;
835 [label="gini = 0.0\nsamples = 2\nvalue = [2, 0, 0, 0]"] ;
831 -> 835 ;
836 [label="Age <= 24.5\ngini = 0.159\nsamples = 94\nvalue = [86, 5, 0, 3]"] ;
830 -> 836 ;
837 [label="Height <= 178.0\ngini = 0.146\nsamples = 90\nvalue = [83, 4, 0, 3]"] ;
836 -> 837 ;
838 [label="Height <= 175.736\ngini = 0.178\nsamples = 73\nvalue = [66, 4, 0, 3]"] ;
837 -> 838 ;
839 [label="Age <= 22.5\ngini = 0.16\nsamples = 70\nvalue = [64, 3, 0, 3]"] ;
838 -> 839 ;
840 [label="Year <= 1916.0\ngini = 0.112\nsamples = 51\nvalue = [48, 1, 0, 2]"] ;
839 -> 840 ;
841 [label="Year <= 1910.0\ngini = 0.128\nsamples = 29\nvalue = [27, 0, 0, 2]"] ;
840 -> 841 ;
842 [label="gini = 0.0\nsamples = 10\nvalue = [10, 0, 0, 0]"] ;
841 -> 842 ;
843 [label="Age <= 21.5\ngini = 0.188\nsamples = 19\nvalue = [17, 0, 0, 2]"] ;
841 -> 843 ;
844 [label="gini = 0.198\nsamples = 9\nvalue = [8, 0, 0, 1]"] ;
843 -> 844 ;
845 [label="gini = 0.18\nsamples = 10\nvalue = [9, 0, 0, 1]"] ;
843 -> 845 ;
846 [label="Age <= 19.5\ngini = 0.087\nsamples = 22\nvalue = [21, 1, 0, 0]"] ;
840 -> 846 ;
847 [label="gini = 0.0\nsamples = 9\nvalue = [9, 0, 0, 0]"] ;
846 -> 847 ;
848 [label="Age <= 20.5\ngini = 0.142\nsamples = 13\nvalue = [12, 1, 0, 0]"] ;
846 -> 848 ;
849 [label="gini = 0.278\nsamples = 6\nvalue = [5, 1, 0, 0]"] ;
848 -> 849 ;
850 [label="gini = 0.0\nsamples = 7\nvalue = [7, 0, 0, 0]"] ;
848 -> 850 ;
851 [label="Year <= 1910.0\ngini = 0.277\nsamples = 19\nvalue = [16, 2, 0, 1]"] ;
839 -> 851 ;
852 [label="Year <= 1907.0\ngini = 0.375\nsamples = 8\nvalue = [6, 2, 0, 0]"] ;
851 -> 852 ;
853 [label="gini = 0.0\nsamples = 1\nvalue = [1, 0, 0, 0]"] ;
852 -> 853 ;
854 [label="gini = 0.408\nsamples = 7\nvalue = [5, 2, 0, 0]"] ;
852 -> 854 ;
855 [label="Year <= 1916.0\ngini = 0.165\nsamples = 11\nvalue = [10, 0, 0, 1]"] ;
851 -> 855 ;
856 [label="Age <= 23.5\ngini = 0.245\nsamples = 7\nvalue = [6, 0, 0, 1]"] ;
855 -> 856 ;
857 [label="gini = 0.278\nsamples = 6\nvalue = [5, 0, 0, 1]"] ;
856 -> 857 ;
858 [label="gini = 0.0\nsamples = 1\nvalue = [1, 0, 0, 0]"] ;
856 -> 858 ;
859 [label="gini = 0.0\nsamples = 4\nvalue = [4, 0, 0, 0]"] ;
855 -> 859 ;
860 [label="Team <= 6.0\ngini = 0.444\nsamples = 3\nvalue = [2, 1, 0, 0]"] ;
838 -> 860 ;
861 [label="gini = 0.0\nsamples = 1\nvalue = [1, 0, 0, 0]"] ;
860 -> 861 ;
862 [label="gini = 0.5\nsamples = 2\nvalue = [1, 1, 0, 0]"] ;
860 -> 862 ;
863 [label="gini = 0.0\nsamples = 17\nvalue = [17, 0, 0, 0]"] ;
837 -> 863 ;
864 [label="Year <= 1916.0\ngini = 0.375\nsamples = 4\nvalue = [3, 1, 0, 0]"] ;
836 -> 864 ;
865 [label="gini = 0.0\nsamples = 3\nvalue = [3, 0, 0, 0]"] ;
864 -> 865 ;
866 [label="gini = 0.0\nsamples = 1\nvalue = [0, 1, 0, 0]"] ;
864 -> 866 ;
867 [label="gini = 0.0\nsamples = 31\nvalue = [31, 0, 0, 0]"] ;
829 -> 867 ;
868 [label="Weight <= 92.0\ngini = 0.093\nsamples = 372\nvalue = [354, 11, 2, 5]"] ;
806 -> 868 ;
869 [label="Year <= 1898.0\ngini = 0.089\nsamples = 371\nvalue = [354, 10, 2, 5]"] ;
868 -> 869 ;
870 [label="Team <= 25.0\ngini = 0.46\nsamples = 10\nvalue = [7, 2, 0, 1]"] ;
869 -> 870 ;
871 [label="gini = 0.64\nsamples = 5\nvalue = [2, 2, 0, 1]"] ;
870 -> 871 ;
872 [label="gini = 0.0\nsamples = 5\nvalue = [5, 0, 0, 0]"] ;
870 -> 872 ;
873 [label="Weight <= 85.0\ngini = 0.075\nsamples = 361\nvalue = [347, 8, 2, 4]"] ;
869 -> 873 ;
874 [label="Year <= 1910.0\ngini = 0.071\nsamples = 358\nvalue = [345, 8, 1, 4]"] ;
873 -> 874 ;
875 [label="Age <= 17.0\ngini = 0.126\nsamples = 181\nvalue = [169, 7, 1, 4]"] ;
874 -> 875 ;
876 [label="gini = 0.444\nsamples = 3\nvalue = [2, 1, 0, 0]"] ;
875 -> 876 ;
877 [label="Age <= 23.5\ngini = 0.118\nsamples = 178\nvalue = [167, 6, 1, 4]"] ;
875 -> 877 ;
878 [label="Year <= 1902.0\ngini = 0.09\nsamples = 151\nvalue = [144, 4, 1, 2]"] ;
877 -> 878 ;
879 [label="Age <= 19.5\ngini = 0.163\nsamples = 23\nvalue = [21, 1, 1, 0]"] ;
878 -> 879 ;
880 [label="Age <= 18.5\ngini = 0.245\nsamples = 7\nvalue = [6, 1, 0, 0]"] ;
879 -> 880 ;
881 [label="gini = 0.0\nsamples = 6\nvalue = [6, 0, 0, 0]"] ;
880 -> 881 ;
882 [label="gini = 0.0\nsamples = 1\nvalue = [0, 1, 0, 0]"] ;
880 -> 882 ;
883 [label="Age <= 20.5\ngini = 0.117\nsamples = 16\nvalue = [15, 0, 1, 0]"] ;
879 -> 883 ;
884 [label="gini = 0.0\nsamples = 6\nvalue = [6, 0, 0, 0]"] ;
883 -> 884 ;
885 [label="Team <= 26.0\ngini = 0.18\nsamples = 10\nvalue = [9, 0, 1, 0]"] ;
883 -> 885 ;
886 [label="Age <= 21.5\ngini = 0.198\nsamples = 9\nvalue = [8, 0, 1, 0]"] ;
885 -> 886 ;
887 [label="gini = 0.219\nsamples = 8\nvalue = [7, 0, 1, 0]"] ;
886 -> 887 ;
888 [label="gini = 0.0\nsamples = 1\nvalue = [1, 0, 0, 0]"] ;
886 -> 888 ;
889 [label="gini = 0.0\nsamples = 1\nvalue = [1, 0, 0, 0]"] ;
885 -> 889 ;
890 [label="Age <= 19.5\ngini = 0.076\nsamples = 128\nvalue = [123, 3, 0, 2]"] ;
878 -> 890 ;
891 [label="Year <= 1907.0\ngini = 0.105\nsamples = 18\nvalue = [17, 0, 0, 1]"] ;
890 -> 891 ;
892 [label="gini = 0.198\nsamples = 9\nvalue = [8, 0, 0, 1]"] ;
891 -> 892 ;
893 [label="gini = 0.0\nsamples = 9\nvalue = [9, 0, 0, 0]"] ;
891 -> 893 ;
894 [label="Age <= 20.5\ngini = 0.071\nsamples = 110\nvalue = [106, 3, 0, 1]"] ;
890 -> 894 ;
895 [label="Year <= 1907.0\ngini = 0.111\nsamples = 17\nvalue = [16, 1, 0, 0]"] ;
894 -> 895 ;
896 [label="gini = 0.0\nsamples = 8\nvalue = [8, 0, 0, 0]"] ;
895 -> 896 ;
897 [label="Height <= 178.236\ngini = 0.198\nsamples = 9\nvalue = [8, 1, 0, 0]"] ;
895 -> 897 ;
898 [label="Team <= 26.0\ngini = 0.278\nsamples = 6\nvalue = [5, 1, 0, 0]"] ;
897 -> 898 ;
899 [label="gini = 0.32\nsamples = 5\nvalue = [4, 1, 0, 0]"] ;
898 -> 899 ;
900 [label="gini = 0.0\nsamples = 1\nvalue = [1, 0, 0, 0]"] ;
898 -> 900 ;
901 [label="gini = 0.0\nsamples = 3\nvalue = [3, 0, 0, 0]"] ;
897 -> 901 ;
902 [label="NOC <= 25.5\ngini = 0.063\nsamples = 93\nvalue = [90, 2, 0, 1]"] ;
894 -> 902 ;
903 [label="gini = 0.0\nsamples = 27\nvalue = [27, 0, 0, 0]"] ;
902 -> 903 ;
904 [label="NOC <= 30.0\ngini = 0.088\nsamples = 66\nvalue = [63, 2, 0, 1]"] ;
902 -> 904 ;
905 [label="Age <= 22.5\ngini = 0.131\nsamples = 29\nvalue = [27, 1, 0, 1]"] ;
904 -> 905 ;
906 [label="Height <= 179.736\ngini = 0.215\nsamples = 17\nvalue = [15, 1, 0, 1]"] ;
905 -> 906 ;
907 [label="Age <= 21.5\ngini = 0.142\nsamples = 13\nvalue = [12, 0, 0, 1]"] ;
906 -> 907 ;
908 [label="gini = 0.0\nsamples = 8\nvalue = [8, 0, 0, 0]"] ;
907 -> 908 ;
909 [label="gini = 0.32\nsamples = 5\nvalue = [4, 0, 0, 1]"] ;
907 -> 909 ;
910 [label="gini = 0.375\nsamples = 4\nvalue = [3, 1, 0, 0]"] ;
906 -> 910 ;
911 [label="gini = 0.0\nsamples = 12\nvalue = [12, 0, 0, 0]"] ;
905 -> 911 ;
912 [label="Age <= 22.5\ngini = 0.053\nsamples = 37\nvalue = [36, 1, 0, 0]"] ;
904 -> 912 ;
913 [label="gini = 0.0\nsamples = 26\nvalue = [26, 0, 0, 0]"] ;
912 -> 913 ;
914 [label="Year <= 1906.0\ngini = 0.165\nsamples = 11\nvalue = [10, 1, 0, 0]"] ;
912 -> 914 ;
915 [label="gini = 0.0\nsamples = 1\nvalue = [1, 0, 0, 0]"] ;
914 -> 915 ;
916 [label="gini = 0.18\nsamples = 10\nvalue = [9, 1, 0, 0]"] ;
914 -> 916 ;
917 [label="Team <= 21.5\ngini = 0.263\nsamples = 27\nvalue = [23, 2, 0, 2]"] ;
877 -> 917 ;
918 [label="Age <= 24.5\ngini = 0.46\nsamples = 10\nvalue = [7, 1, 0, 2]"] ;
917 -> 918 ;
919 [label="gini = 0.406\nsamples = 8\nvalue = [6, 1, 0, 1]"] ;
918 -> 919 ;
920 [label="gini = 0.5\nsamples = 2\nvalue = [1, 0, 0, 1]"] ;
918 -> 920 ;
921 [label="NOC <= 30.0\ngini = 0.111\nsamples = 17\nvalue = [16, 1, 0, 0]"] ;
917 -> 921 ;
922 [label="gini = 0.0\nsamples = 14\nvalue = [14, 0, 0, 0]"] ;
921 -> 922 ;
923 [label="Age <= 24.5\ngini = 0.444\nsamples = 3\nvalue = [2, 1, 0, 0]"] ;
921 -> 923 ;
924 [label="gini = 0.0\nsamples = 1\nvalue = [0, 1, 0, 0]"] ;
923 -> 924 ;
925 [label="gini = 0.0\nsamples = 2\nvalue = [2, 0, 0, 0]"] ;
923 -> 925 ;
926 [label="Age <= 24.5\ngini = 0.011\nsamples = 177\nvalue = [176, 1, 0, 0]"] ;
874 -> 926 ;
927 [label="gini = 0.0\nsamples = 157\nvalue = [157, 0, 0, 0]"] ;
926 -> 927 ;
928 [label="Year <= 1916.0\ngini = 0.095\nsamples = 20\nvalue = [19, 1, 0, 0]"] ;
926 -> 928 ;
929 [label="gini = 0.0\nsamples = 15\nvalue = [15, 0, 0, 0]"] ;
928 -> 929 ;
930 [label="Sport <= 1.5\ngini = 0.32\nsamples = 5\nvalue = [4, 1, 0, 0]"] ;
928 -> 930 ;
931 [label="gini = 0.0\nsamples = 1\nvalue = [1, 0, 0, 0]"] ;
930 -> 931 ;
932 [label="gini = 0.375\nsamples = 4\nvalue = [3, 1, 0, 0]"] ;
930 -> 932 ;
933 [label="Weight <= 86.5\ngini = 0.444\nsamples = 3\nvalue = [2, 0, 1, 0]"] ;
873 -> 933 ;
934 [label="gini = 0.0\nsamples = 1\nvalue = [0, 0, 1, 0]"] ;
933 -> 934 ;
935 [label="gini = 0.0\nsamples = 2\nvalue = [2, 0, 0, 0]"] ;
933 -> 935 ;
936 [label="gini = 0.0\nsamples = 1\nvalue = [0, 1, 0, 0]"] ;
868 -> 936 ;
937 [label="Height <= 186.5\ngini = 0.424\nsamples = 895\nvalue = [664, 53, 116, 62]"] ;
739 -> 937 ;
938 [label="Height <= 170.5\ngini = 0.41\nsamples = 875\nvalue = [659, 52, 106, 58]"] ;
937 -> 938 ;
939 [label="Height <= 169.0\ngini = 0.71\nsamples = 25\nvalue = [10, 7, 4, 4]"] ;
938 -> 939 ;
940 [label="Height <= 167.5\ngini = 0.66\nsamples = 18\nvalue = [9, 2, 4, 3]"] ;
939 -> 940 ;
941 [label="Team <= 26.5\ngini = 0.724\nsamples = 14\nvalue = [5, 2, 4, 3]"] ;
940 -> 941 ;
942 [label="Year <= 1907.0\ngini = 0.625\nsamples = 8\nvalue = [2, 0, 4, 2]"] ;
941 -> 942 ;
943 [label="gini = 0.0\nsamples = 2\nvalue = [0, 0, 0, 2]"] ;
942 -> 943 ;
944 [label="Year <= 1914.0\ngini = 0.444\nsamples = 6\nvalue = [2, 0, 4, 0]"] ;
942 -> 944 ;
945 [label="gini = 0.0\nsamples = 1\nvalue = [0, 0, 1, 0]"] ;
944 -> 945 ;
946 [label="Age <= 24.5\ngini = 0.48\nsamples = 5\nvalue = [2, 0, 3, 0]"] ;
944 -> 946 ;
947 [label="Team <= 15.0\ngini = 0.375\nsamples = 4\nvalue = [1, 0, 3, 0]"] ;
946 -> 947 ;
948 [label="gini = 0.0\nsamples = 2\nvalue = [0, 0, 2, 0]"] ;
947 -> 948 ;
949 [label="gini = 0.5\nsamples = 2\nvalue = [1, 0, 1, 0]"] ;
947 -> 949 ;
950 [label="gini = 0.0\nsamples = 1\nvalue = [1, 0, 0, 0]"] ;
946 -> 950 ;
951 [label="Height <= 165.0\ngini = 0.611\nsamples = 6\nvalue = [3, 2, 0, 1]"] ;
941 -> 951 ;
952 [label="Weight <= 80.308\ngini = 0.56\nsamples = 5\nvalue = [3, 1, 0, 1]"] ;
951 -> 952 ;
953 [label="gini = 0.0\nsamples = 2\nvalue = [2, 0, 0, 0]"] ;
952 -> 953 ;
954 [label="gini = 0.667\nsamples = 3\nvalue = [1, 1, 0, 1]"] ;
952 -> 954 ;
955 [label="gini = 0.0\nsamples = 1\nvalue = [0, 1, 0, 0]"] ;
951 -> 955 ;
956 [label="gini = 0.0\nsamples = 4\nvalue = [4, 0, 0, 0]"] ;
940 -> 956 ;
957 [label="Weight <= 68.308\ngini = 0.449\nsamples = 7\nvalue = [1, 5, 0, 1]"] ;
939 -> 957 ;
958 [label="gini = 0.0\nsamples = 1\nvalue = [1, 0, 0, 0]"] ;
957 -> 958 ;
959 [label="Sport <= 12.5\ngini = 0.278\nsamples = 6\nvalue = [0, 5, 0, 1]"] ;
957 -> 959 ;
960 [label="gini = 0.0\nsamples = 1\nvalue = [0, 0, 0, 1]"] ;
959 -> 960 ;
961 [label="gini = 0.0\nsamples = 5\nvalue = [0, 5, 0, 0]"] ;
959 -> 961 ;
962 [label="Year <= 1898.0\ngini = 0.396\nsamples = 850\nvalue = [649, 45, 102, 54]"] ;
938 -> 962 ;
963 [label="Team <= 13.5\ngini = 0.525\nsamples = 58\nvalue = [36, 2, 17, 3]"] ;
962 -> 963 ;
964 [label="Age <= 20.5\ngini = 0.678\nsamples = 11\nvalue = [2, 1, 5, 3]"] ;
963 -> 964 ;
965 [label="Age <= 18.5\ngini = 0.64\nsamples = 10\nvalue = [1, 1, 5, 3]"] ;
964 -> 965 ;
966 [label="Sport <= 11.5\ngini = 0.72\nsamples = 5\nvalue = [1, 1, 1, 2]"] ;
965 -> 966 ;
967 [label="gini = 0.0\nsamples = 1\nvalue = [0, 0, 0, 1]"] ;
966 -> 967 ;
968 [label="gini = 0.75\nsamples = 4\nvalue = [1, 1, 1, 1]"] ;
966 -> 968 ;
969 [label="Age <= 19.5\ngini = 0.32\nsamples = 5\nvalue = [0, 0, 4, 1]"] ;
965 -> 969 ;
970 [label="gini = 0.0\nsamples = 3\nvalue = [0, 0, 3, 0]"] ;
969 -> 970 ;
971 [label="gini = 0.5\nsamples = 2\nvalue = [0, 0, 1, 1]"] ;
969 -> 971 ;
972 [label="gini = 0.0\nsamples = 1\nvalue = [1, 0, 0, 0]"] ;
964 -> 972 ;
973 [label="Age <= 18.5\ngini = 0.411\nsamples = 47\nvalue = [34, 1, 12, 0]"] ;
963 -> 973 ;
974 [label="gini = 0.0\nsamples = 2\nvalue = [0, 0, 2, 0]"] ;
973 -> 974 ;
975 [label="Sport <= 8.5\ngini = 0.379\nsamples = 45\nvalue = [34, 1, 10, 0]"] ;
973 -> 975 ;
976 [label="Team <= 25.0\ngini = 0.401\nsamples = 36\nvalue = [26, 0, 10, 0]"] ;
975 -> 976 ;
977 [label="gini = 0.0\nsamples = 4\nvalue = [4, 0, 0, 0]"] ;
976 -> 977 ;
978 [label="Age <= 20.0\ngini = 0.43\nsamples = 32\nvalue = [22, 0, 10, 0]"] ;
976 -> 978 ;
979 [label="gini = 0.444\nsamples = 12\nvalue = [8, 0, 4, 0]"] ;
978 -> 979 ;
980 [label="Weight <= 66.308\ngini = 0.42\nsamples = 20\nvalue = [14, 0, 6, 0]"] ;
978 -> 980 ;
981 [label="gini = 0.444\nsamples = 6\nvalue = [4, 0, 2, 0]"] ;
980 -> 981 ;
982 [label="Age <= 23.0\ngini = 0.408\nsamples = 14\nvalue = [10, 0, 4, 0]"] ;
980 -> 982 ;
983 [label="gini = 0.408\nsamples = 7\nvalue = [5, 0, 2, 0]"] ;
982 -> 983 ;
984 [label="gini = 0.408\nsamples = 7\nvalue = [5, 0, 2, 0]"] ;
982 -> 984 ;
985 [label="Sport <= 19.0\ngini = 0.198\nsamples = 9\nvalue = [8, 1, 0, 0]"] ;
975 -> 985 ;
986 [label="gini = 0.0\nsamples = 7\nvalue = [7, 0, 0, 0]"] ;
985 -> 986 ;
987 [label="Age <= 21.5\ngini = 0.5\nsamples = 2\nvalue = [1, 1, 0, 0]"] ;
985 -> 987 ;
988 [label="gini = 0.0\nsamples = 1\nvalue = [1, 0, 0, 0]"] ;
987 -> 988 ;
989 [label="gini = 0.0\nsamples = 1\nvalue = [0, 1, 0, 0]"] ;
987 -> 989 ;
990 [label="Weight <= 61.0\ngini = 0.382\nsamples = 792\nvalue = [613, 43, 85, 51]"] ;
962 -> 990 ;
991 [label="gini = 0.0\nsamples = 2\nvalue = [0, 0, 0, 2]"] ;
990 -> 991 ;
992 [label="Year <= 1916.0\ngini = 0.38\nsamples = 790\nvalue = [613, 43, 85, 49]"] ;
990 -> 992 ;
993 [label="Sex <= 0.5\ngini = 0.358\nsamples = 651\nvalue = [515, 29, 62, 45]"] ;
992 -> 993 ;
994 [label="Year <= 1907.0\ngini = 0.349\nsamples = 638\nvalue = [509, 28, 60, 41]"] ;
993 -> 994 ;
995 [label="Sport <= 21.0\ngini = 0.417\nsamples = 238\nvalue = [178, 15, 30, 15]"] ;
994 -> 995 ;
996 [label="Sport <= 4.0\ngini = 0.399\nsamples = 231\nvalue = [176, 15, 26, 14]"] ;
995 -> 996 ;
997 [label="Year <= 1902.0\ngini = 0.57\nsamples = 46\nvalue = [28, 3, 9, 6]"] ;
996 -> 997 ;
998 [label="Team <= 18.5\ngini = 0.226\nsamples = 24\nvalue = [21, 0, 2, 1]"] ;
997 -> 998 ;
999 [label="Age <= 18.5\ngini = 0.185\nsamples = 20\nvalue = [18, 0, 1, 1]"] ;
998 -> 999 ;
1000 [label="Age <= 17.5\ngini = 0.198\nsamples = 9\nvalue = [8, 0, 1, 0]"] ;
999 -> 1000 ;
1001 [label="gini = 0.0\nsamples = 3\nvalue = [3, 0, 0, 0]"] ;
1000 -> 1001 ;
1002 [label="gini = 0.278\nsamples = 6\nvalue = [5, 0, 1, 0]"] ;
1000 -> 1002 ;
1003 [label="Age <= 20.5\ngini = 0.165\nsamples = 11\nvalue = [10, 0, 0, 1]"] ;
999 -> 1003 ;
1004 [label="Age <= 19.5\ngini = 0.219\nsamples = 8\nvalue = [7, 0, 0, 1]"] ;
1003 -> 1004 ;
1005 [label="gini = 0.0\nsamples = 2\nvalue = [2, 0, 0, 0]"] ;
1004 -> 1005 ;
1006 [label="gini = 0.278\nsamples = 6\nvalue = [5, 0, 0, 1]"] ;
1004 -> 1006 ;
1007 [label="gini = 0.0\nsamples = 3\nvalue = [3, 0, 0, 0]"] ;
1003 -> 1007 ;
1008 [label="Age <= 19.5\ngini = 0.375\nsamples = 4\nvalue = [3, 0, 1, 0]"] ;
998 -> 1008 ;
1009 [label="gini = 0.0\nsamples = 2\nvalue = [2, 0, 0, 0]"] ;
1008 -> 1009 ;
1010 [label="gini = 0.5\nsamples = 2\nvalue = [1, 0, 1, 0]"] ;
1008 -> 1010 ;
1011 [label="Year <= 1905.0\ngini = 0.727\nsamples = 22\nvalue = [7, 3, 7, 5]"] ;
997 -> 1011 ;
1012 [label="Team <= 25.0\ngini = 0.642\nsamples = 9\nvalue = [0, 3, 4, 2]"] ;
1011 -> 1012 ;
1013 [label="gini = 0.5\nsamples = 2\nvalue = [0, 1, 0, 1]"] ;
1012 -> 1013 ;
1014 [label="Age <= 22.0\ngini = 0.571\nsamples = 7\nvalue = [0, 2, 4, 1]"] ;
1012 -> 1014 ;
1015 [label="Age <= 20.5\ngini = 0.48\nsamples = 5\nvalue = [0, 2, 3, 0]"] ;
1014 -> 1015 ;
1016 [label="gini = 0.5\nsamples = 2\nvalue = [0, 1, 1, 0]"] ;
1015 -> 1016 ;
1017 [label="gini = 0.444\nsamples = 3\nvalue = [0, 1, 2, 0]"] ;
1015 -> 1017 ;
1018 [label="gini = 0.5\nsamples = 2\nvalue = [0, 0, 1, 1]"] ;
1014 -> 1018 ;
1019 [label="NOC <= 24.0\ngini = 0.604\nsamples = 13\nvalue = [7, 0, 3, 3]"] ;
1011 -> 1019 ;
1020 [label="Age <= 22.0\ngini = 0.49\nsamples = 7\nvalue = [4, 0, 3, 0]"] ;
1019 -> 1020 ;
1021 [label="NOC <= 12.5\ngini = 0.375\nsamples = 4\nvalue = [3, 0, 1, 0]"] ;
1020 -> 1021 ;
1022 [label="gini = 0.0\nsamples = 1\nvalue = [1, 0, 0, 0]"] ;
1021 -> 1022 ;
1023 [label="Weight <= 78.308\ngini = 0.444\nsamples = 3\nvalue = [2, 0, 1, 0]"] ;
1021 -> 1023 ;
1024 [label="gini = 0.5\nsamples = 2\nvalue = [1, 0, 1, 0]"] ;
1023 -> 1024 ;
1025 [label="gini = 0.0\nsamples = 1\nvalue = [1, 0, 0, 0]"] ;
1023 -> 1025 ;
1026 [label="gini = 0.444\nsamples = 3\nvalue = [1, 0, 2, 0]"] ;
1020 -> 1026 ;
1027 [label="Age <= 20.0\ngini = 0.5\nsamples = 6\nvalue = [3, 0, 0, 3]"] ;
1019 -> 1027 ;
1028 [label="gini = 0.5\nsamples = 4\nvalue = [2, 0, 0, 2]"] ;
1027 -> 1028 ;
1029 [label="gini = 0.5\nsamples = 2\nvalue = [1, 0, 0, 1]"] ;
1027 -> 1029 ;
1030 [label="Sport <= 7.0\ngini = 0.345\nsamples = 185\nvalue = [148, 12, 17, 8]"] ;
996 -> 1030 ;
1031 [label="Team <= 13.5\ngini = 0.07\nsamples = 56\nvalue = [54, 1, 0, 1]"] ;
1030 -> 1031 ;
1032 [label="Age <= 24.5\ngini = 0.227\nsamples = 16\nvalue = [14, 1, 0, 1]"] ;
1031 -> 1032 ;
1033 [label="Age <= 21.0\ngini = 0.124\nsamples = 15\nvalue = [14, 0, 0, 1]"] ;
1032 -> 1033 ;
1034 [label="gini = 0.0\nsamples = 8\nvalue = [8, 0, 0, 0]"] ;
1033 -> 1034 ;
1035 [label="Age <= 22.5\ngini = 0.245\nsamples = 7\nvalue = [6, 0, 0, 1]"] ;
1033 -> 1035 ;
1036 [label="gini = 0.375\nsamples = 4\nvalue = [3, 0, 0, 1]"] ;
1035 -> 1036 ;
1037 [label="gini = 0.0\nsamples = 3\nvalue = [3, 0, 0, 0]"] ;
1035 -> 1037 ;
1038 [label="gini = 0.0\nsamples = 1\nvalue = [0, 1, 0, 0]"] ;
1032 -> 1038 ;
1039 [label="gini = 0.0\nsamples = 40\nvalue = [40, 0, 0, 0]"] ;
1031 -> 1039 ;
1040 [label="Age <= 20.5\ngini = 0.441\nsamples = 129\nvalue = [94, 11, 17, 7]"] ;
1030 -> 1040 ;
1041 [label="Age <= 19.5\ngini = 0.591\nsamples = 51\nvalue = [30, 7, 10, 4]"] ;
1040 -> 1041 ;
1042 [label="NOC <= 20.5\ngini = 0.511\nsamples = 33\nvalue = [22, 6, 3, 2]"] ;
1041 -> 1042 ;
1043 [label="NOC <= 8.5\ngini = 0.579\nsamples = 25\nvalue = [15, 5, 3, 2]"] ;
1042 -> 1043 ;
1044 [label="Year <= 1903.0\ngini = 0.492\nsamples = 22\nvalue = [15, 4, 2, 1]"] ;
1043 -> 1044 ;
1045 [label="Age <= 17.5\ngini = 0.394\nsamples = 17\nvalue = [13, 2, 1, 1]"] ;
1044 -> 1045 ;
1046 [label="gini = 0.0\nsamples = 3\nvalue = [3, 0, 0, 0]"] ;
1045 -> 1046 ;
1047 [label="Sport <= 11.5\ngini = 0.459\nsamples = 14\nvalue = [10, 2, 1, 1]"] ;
1045 -> 1047 ;
1048 [label="Age <= 18.5\ngini = 0.32\nsamples = 5\nvalue = [4, 1, 0, 0]"] ;
1047 -> 1048 ;
1049 [label="gini = 0.0\nsamples = 1\nvalue = [1, 0, 0, 0]"] ;
1048 -> 1049 ;
1050 [label="Sport <= 8.5\ngini = 0.375\nsamples = 4\nvalue = [3, 1, 0, 0]"] ;
1048 -> 1050 ;
1051 [label="gini = 0.0\nsamples = 1\nvalue = [1, 0, 0, 0]"] ;
1050 -> 1051 ;
1052 [label="gini = 0.444\nsamples = 3\nvalue = [2, 1, 0, 0]"] ;
1050 -> 1052 ;
1053 [label="Age <= 18.5\ngini = 0.519\nsamples = 9\nvalue = [6, 1, 1, 1]"] ;
1047 -> 1053 ;
1054 [label="gini = 0.5\nsamples = 6\nvalue = [4, 1, 1, 0]"] ;
1053 -> 1054 ;
1055 [label="gini = 0.444\nsamples = 3\nvalue = [2, 0, 0, 1]"] ;
1053 -> 1055 ;
1056 [label="gini = 0.64\nsamples = 5\nvalue = [2, 2, 1, 0]"] ;
1044 -> 1056 ;
1057 [label="Team <= 16.0\ngini = 0.667\nsamples = 3\nvalue = [0, 1, 1, 1]"] ;
1043 -> 1057 ;
1058 [label="gini = 0.5\nsamples = 2\nvalue = [0, 0, 1, 1]"] ;
1057 -> 1058 ;
1059 [label="gini = 0.0\nsamples = 1\nvalue = [0, 1, 0, 0]"] ;
1057 -> 1059 ;
1060 [label="Sport <= 11.5\ngini = 0.219\nsamples = 8\nvalue = [7, 1, 0, 0]"] ;
1042 -> 1060 ;
1061 [label="gini = 0.444\nsamples = 3\nvalue = [2, 1, 0, 0]"] ;
1060 -> 1061 ;
1062 [label="gini = 0.0\nsamples = 5\nvalue = [5, 0, 0, 0]"] ;
1060 -> 1062 ;
1063 [label="NOC <= 8.5\ngini = 0.636\nsamples = 18\nvalue = [8, 1, 7, 2]"] ;
1041 -> 1063 ;
1064 [label="Sport <= 8.5\ngini = 0.617\nsamples = 9\nvalue = [5, 1, 1, 2]"] ;
1063 -> 1064 ;
1065 [label="gini = 0.0\nsamples = 1\nvalue = [0, 0, 1, 0]"] ;
1064 -> 1065 ;
1066 [label="Year <= 1903.0\ngini = 0.531\nsamples = 8\nvalue = [5, 1, 0, 2]"] ;
1064 -> 1066 ;
1067 [label="gini = 0.0\nsamples = 1\nvalue = [1, 0, 0, 0]"] ;
1066 -> 1067 ;
1068 [label="gini = 0.571\nsamples = 7\nvalue = [4, 1, 0, 2]"] ;
1066 -> 1068 ;
1069 [label="NOC <= 25.5\ngini = 0.444\nsamples = 9\nvalue = [3, 0, 6, 0]"] ;
1063 -> 1069 ;
1070 [label="gini = 0.0\nsamples = 6\nvalue = [0, 0, 6, 0]"] ;
1069 -> 1070 ;
1071 [label="gini = 0.0\nsamples = 3\nvalue = [3, 0, 0, 0]"] ;
1069 -> 1071 ;
1072 [label="Sport <= 8.5\ngini = 0.315\nsamples = 78\nvalue = [64, 4, 7, 3]"] ;
1040 -> 1072 ;
1073 [label="gini = 0.0\nsamples = 1\nvalue = [0, 0, 1, 0]"] ;
1072 -> 1073 ;
1074 [label="Team <= 21.5\ngini = 0.299\nsamples = 77\nvalue = [64, 4, 6, 3]"] ;
1072 -> 1074 ;
1075 [label="Year <= 1903.0\ngini = 0.219\nsamples = 58\nvalue = [51, 4, 3, 0]"] ;
1074 -> 1075 ;
1076 [label="Age <= 24.5\ngini = 0.331\nsamples = 31\nvalue = [25, 3, 3, 0]"] ;
1075 -> 1076 ;
1077 [label="Age <= 22.5\ngini = 0.278\nsamples = 25\nvalue = [21, 3, 1, 0]"] ;
1076 -> 1077 ;
1078 [label="Age <= 21.5\ngini = 0.398\nsamples = 16\nvalue = [12, 3, 1, 0]"] ;
1077 -> 1078 ;
1079 [label="Sport <= 12.5\ngini = 0.245\nsamples = 7\nvalue = [6, 0, 1, 0]"] ;
1078 -> 1079 ;
1080 [label="gini = 0.0\nsamples = 2\nvalue = [2, 0, 0, 0]"] ;
1079 -> 1080 ;
1081 [label="gini = 0.32\nsamples = 5\nvalue = [4, 0, 1, 0]"] ;
1079 -> 1081 ;
1082 [label="Sport <= 11.5\ngini = 0.444\nsamples = 9\nvalue = [6, 3, 0, 0]"] ;
1078 -> 1082 ;
1083 [label="gini = 0.444\nsamples = 6\nvalue = [4, 2, 0, 0]"] ;
1082 -> 1083 ;
1084 [label="gini = 0.444\nsamples = 3\nvalue = [2, 1, 0, 0]"] ;
1082 -> 1084 ;
1085 [label="gini = 0.0\nsamples = 9\nvalue = [9, 0, 0, 0]"] ;
1077 -> 1085 ;
1086 [label="gini = 0.444\nsamples = 6\nvalue = [4, 0, 2, 0]"] ;
1076 -> 1086 ;
1087 [label="Sport <= 10.0\ngini = 0.071\nsamples = 27\nvalue = [26, 1, 0, 0]"] ;
1075 -> 1087 ;
1088 [label="Age <= 22.5\ngini = 0.198\nsamples = 9\nvalue = [8, 1, 0, 0]"] ;
1087 -> 1088 ;
1089 [label="gini = 0.0\nsamples = 4\nvalue = [4, 0, 0, 0]"] ;
1088 -> 1089 ;
1090 [label="gini = 0.32\nsamples = 5\nvalue = [4, 1, 0, 0]"] ;
1088 -> 1090 ;
1091 [label="gini = 0.0\nsamples = 18\nvalue = [18, 0, 0, 0]"] ;
1087 -> 1091 ;
1092 [label="Age <= 22.5\ngini = 0.482\nsamples = 19\nvalue = [13, 0, 3, 3]"] ;
1074 -> 1092 ;
1093 [label="Sport <= 12.0\ngini = 0.64\nsamples = 5\nvalue = [2, 0, 2, 1]"] ;
1092 -> 1093 ;
1094 [label="gini = 0.667\nsamples = 3\nvalue = [1, 0, 1, 1]"] ;
1093 -> 1094 ;
1095 [label="gini = 0.5\nsamples = 2\nvalue = [1, 0, 1, 0]"] ;
1093 -> 1095 ;
1096 [label="Sport <= 16.5\ngini = 0.357\nsamples = 14\nvalue = [11, 0, 1, 2]"] ;
1092 -> 1096 ;
1097 [label="Sport <= 13.0\ngini = 0.278\nsamples = 12\nvalue = [10, 0, 0, 2]"] ;
1096 -> 1097 ;
1098 [label="gini = 0.0\nsamples = 2\nvalue = [2, 0, 0, 0]"] ;
1097 -> 1098 ;
1099 [label="Age <= 24.0\ngini = 0.32\nsamples = 10\nvalue = [8, 0, 0, 2]"] ;
1097 -> 1099 ;
1100 [label="gini = 0.32\nsamples = 5\nvalue = [4, 0, 0, 1]"] ;
1099 -> 1100 ;
1101 [label="gini = 0.32\nsamples = 5\nvalue = [4, 0, 0, 1]"] ;
1099 -> 1101 ;
1102 [label="Age <= 23.5\ngini = 0.5\nsamples = 2\nvalue = [1, 0, 1, 0]"] ;
1096 -> 1102 ;
1103 [label="gini = 0.0\nsamples = 1\nvalue = [1, 0, 0, 0]"] ;
1102 -> 1103 ;
1104 [label="gini = 0.0\nsamples = 1\nvalue = [0, 0, 1, 0]"] ;
1102 -> 1104 ;
1105 [label="Year <= 1903.0\ngini = 0.571\nsamples = 7\nvalue = [2, 0, 4, 1]"] ;
995 -> 1105 ;
1106 [label="gini = 0.0\nsamples = 1\nvalue = [1, 0, 0, 0]"] ;
1105 -> 1106 ;
1107 [label="gini = 0.5\nsamples = 6\nvalue = [1, 0, 4, 1]"] ;
1105 -> 1107 ;
1108 [label="Team <= 31.0\ngini = 0.304\nsamples = 400\nvalue = [331, 13, 30, 26]"] ;
994 -> 1108 ;
1109 [label="Sport <= 5.5\ngini = 0.296\nsamples = 395\nvalue = [329, 12, 28, 26]"] ;
1108 -> 1109 ;
1110 [label="NOC <= 20.5\ngini = 0.365\nsamples = 176\nvalue = [138, 3, 17, 18]"] ;
1109 -> 1110 ;
1111 [label="Sport <= 4.0\ngini = 0.382\nsamples = 68\nvalue = [51, 1, 0, 16]"] ;
1110 -> 1111 ;
1112 [label="Age <= 18.5\ngini = 0.161\nsamples = 34\nvalue = [31, 0, 0, 3]"] ;
1111 -> 1112 ;
1113 [label="Age <= 16.0\ngini = 0.397\nsamples = 11\nvalue = [8, 0, 0, 3]"] ;
1112 -> 1113 ;
1114 [label="gini = 0.0\nsamples = 2\nvalue = [2, 0, 0, 0]"] ;
1113 -> 1114 ;
1115 [label="Team <= 13.5\ngini = 0.444\nsamples = 9\nvalue = [6, 0, 0, 3]"] ;
1113 -> 1115 ;
1116 [label="gini = 0.0\nsamples = 2\nvalue = [2, 0, 0, 0]"] ;
1115 -> 1116 ;
1117 [label="Year <= 1910.0\ngini = 0.49\nsamples = 7\nvalue = [4, 0, 0, 3]"] ;
1115 -> 1117 ;
1118 [label="Age <= 17.5\ngini = 0.5\nsamples = 6\nvalue = [3, 0, 0, 3]"] ;
1117 -> 1118 ;
1119 [label="gini = 0.5\nsamples = 4\nvalue = [2, 0, 0, 2]"] ;
1118 -> 1119 ;
1120 [label="gini = 0.5\nsamples = 2\nvalue = [1, 0, 0, 1]"] ;
1118 -> 1120 ;
1121 [label="gini = 0.0\nsamples = 1\nvalue = [1, 0, 0, 0]"] ;
1117 -> 1121 ;
1122 [label="gini = 0.0\nsamples = 23\nvalue = [23, 0, 0, 0]"] ;
1112 -> 1122 ;
1123 [label="Year <= 1910.0\ngini = 0.507\nsamples = 34\nvalue = [20, 1, 0, 13]"] ;
1111 -> 1123 ;
1124 [label="Age <= 18.5\ngini = 0.117\nsamples = 16\nvalue = [15, 1, 0, 0]"] ;
1123 -> 1124 ;
1125 [label="Age <= 17.0\ngini = 0.375\nsamples = 4\nvalue = [3, 1, 0, 0]"] ;
1124 -> 1125 ;
1126 [label="gini = 0.0\nsamples = 1\nvalue = [1, 0, 0, 0]"] ;
1125 -> 1126 ;
1127 [label="gini = 0.444\nsamples = 3\nvalue = [2, 1, 0, 0]"] ;
1125 -> 1127 ;
1128 [label="gini = 0.0\nsamples = 12\nvalue = [12, 0, 0, 0]"] ;
1124 -> 1128 ;
1129 [label="Age <= 19.5\ngini = 0.401\nsamples = 18\nvalue = [5, 0, 0, 13]"] ;
1123 -> 1129 ;
1130 [label="gini = 0.0\nsamples = 1\nvalue = [1, 0, 0, 0]"] ;
1129 -> 1130 ;
1131 [label="Team <= 13.5\ngini = 0.36\nsamples = 17\nvalue = [4, 0, 0, 13]"] ;
1129 -> 1131 ;
1132 [label="Age <= 21.0\ngini = 0.444\nsamples = 3\nvalue = [2, 0, 0, 1]"] ;
1131 -> 1132 ;
1133 [label="gini = 0.0\nsamples = 1\nvalue = [1, 0, 0, 0]"] ;
1132 -> 1133 ;
1134 [label="Age <= 23.0\ngini = 0.5\nsamples = 2\nvalue = [1, 0, 0, 1]"] ;
1132 -> 1134 ;
1135 [label="gini = 0.0\nsamples = 1\nvalue = [0, 0, 0, 1]"] ;
1134 -> 1135 ;
1136 [label="gini = 0.0\nsamples = 1\nvalue = [1, 0, 0, 0]"] ;
1134 -> 1136 ;
1137 [label="Age <= 21.5\ngini = 0.245\nsamples = 14\nvalue = [2, 0, 0, 12]"] ;
1131 -> 1137 ;
1138 [label="gini = 0.0\nsamples = 5\nvalue = [0, 0, 0, 5]"] ;
1137 -> 1138 ;
1139 [label="Age <= 23.5\ngini = 0.346\nsamples = 9\nvalue = [2, 0, 0, 7]"] ;
1137 -> 1139 ;
1140 [label="Age <= 22.5\ngini = 0.408\nsamples = 7\nvalue = [2, 0, 0, 5]"] ;
1139 -> 1140 ;
1141 [label="gini = 0.444\nsamples = 3\nvalue = [1, 0, 0, 2]"] ;
1140 -> 1141 ;
1142 [label="gini = 0.375\nsamples = 4\nvalue = [1, 0, 0, 3]"] ;
1140 -> 1142 ;
1143 [label="gini = 0.0\nsamples = 2\nvalue = [0, 0, 0, 2]"] ;
1139 -> 1143 ;
1144 [label="NOC <= 25.5\ngini = 0.326\nsamples = 108\nvalue = [87, 2, 17, 2]"] ;
1110 -> 1144 ;
1145 [label="Year <= 1910.0\ngini = 0.421\nsamples = 52\nvalue = [37, 1, 14, 0]"] ;
1144 -> 1145 ;
1146 [label="gini = 0.0\nsamples = 29\nvalue = [29, 0, 0, 0]"] ;
1145 -> 1146 ;
1147 [label="Sport <= 4.0\ngini = 0.507\nsamples = 23\nvalue = [8, 1, 14, 0]"] ;
1145 -> 1147 ;
1148 [label="gini = 0.0\nsamples = 5\nvalue = [5, 0, 0, 0]"] ;
1147 -> 1148 ;
1149 [label="Age <= 23.0\ngini = 0.364\nsamples = 18\nvalue = [3, 1, 14, 0]"] ;
1147 -> 1149 ;
1150 [label="Age <= 21.5\ngini = 0.314\nsamples = 11\nvalue = [1, 1, 9, 0]"] ;
1149 -> 1150 ;
1151 [label="Age <= 20.5\ngini = 0.219\nsamples = 8\nvalue = [1, 0, 7, 0]"] ;
1150 -> 1151 ;
1152 [label="Age <= 19.5\ngini = 0.32\nsamples = 5\nvalue = [1, 0, 4, 0]"] ;
1151 -> 1152 ;
1153 [label="gini = 0.0\nsamples = 2\nvalue = [0, 0, 2, 0]"] ;
1152 -> 1153 ;
1154 [label="gini = 0.444\nsamples = 3\nvalue = [1, 0, 2, 0]"] ;
1152 -> 1154 ;
1155 [label="gini = 0.0\nsamples = 3\nvalue = [0, 0, 3, 0]"] ;
1151 -> 1155 ;
1156 [label="gini = 0.444\nsamples = 3\nvalue = [0, 1, 2, 0]"] ;
1150 -> 1156 ;
1157 [label="Age <= 24.5\ngini = 0.408\nsamples = 7\nvalue = [2, 0, 5, 0]"] ;
1149 -> 1157 ;
1158 [label="gini = 0.444\nsamples = 6\nvalue = [2, 0, 4, 0]"] ;
1157 -> 1158 ;
1159 [label="gini = 0.0\nsamples = 1\nvalue = [0, 0, 1, 0]"] ;
1157 -> 1159 ;
1160 [label="Sport <= 4.0\ngini = 0.198\nsamples = 56\nvalue = [50, 1, 3, 2]"] ;
1144 -> 1160 ;
1161 [label="Age <= 21.5\ngini = 0.442\nsamples = 22\nvalue = [16, 1, 3, 2]"] ;
1160 -> 1161 ;
1162 [label="Year <= 1910.0\ngini = 0.578\nsamples = 15\nvalue = [9, 1, 3, 2]"] ;
1161 -> 1162 ;
1163 [label="gini = 0.5\nsamples = 2\nvalue = [1, 0, 1, 0]"] ;
1162 -> 1163 ;
1164 [label="Age <= 20.0\ngini = 0.568\nsamples = 13\nvalue = [8, 1, 2, 2]"] ;
1162 -> 1164 ;
1165 [label="Age <= 18.0\ngini = 0.56\nsamples = 10\nvalue = [6, 0, 2, 2]"] ;
1164 -> 1165 ;
1166 [label="gini = 0.0\nsamples = 1\nvalue = [1, 0, 0, 0]"] ;
1165 -> 1166 ;
1167 [label="gini = 0.593\nsamples = 9\nvalue = [5, 0, 2, 2]"] ;
1165 -> 1167 ;
1168 [label="gini = 0.444\nsamples = 3\nvalue = [2, 1, 0, 0]"] ;
1164 -> 1168 ;
1169 [label="gini = 0.0\nsamples = 7\nvalue = [7, 0, 0, 0]"] ;
1161 -> 1169 ;
1170 [label="gini = 0.0\nsamples = 34\nvalue = [34, 0, 0, 0]"] ;
1160 -> 1170 ;
1171 [label="Sport <= 16.5\ngini = 0.234\nsamples = 219\nvalue = [191, 9, 11, 8]"] ;
1109 -> 1171 ;
1172 [label="Year <= 1910.0\ngini = 0.196\nsamples = 189\nvalue = [169, 8, 8, 4]"] ;
1171 -> 1172 ;
1173 [label="Team <= 21.5\ngini = 0.313\nsamples = 90\nvalue = [74, 5, 7, 4]"] ;
1172 -> 1173 ;
1174 [label="Sport <= 10.0\ngini = 0.425\nsamples = 42\nvalue = [31, 4, 6, 1]"] ;
1173 -> 1174 ;
1175 [label="Weight <= 69.808\ngini = 0.569\nsamples = 12\nvalue = [6, 1, 5, 0]"] ;
1174 -> 1175 ;
1176 [label="gini = 0.0\nsamples = 1\nvalue = [0, 1, 0, 0]"] ;
1175 -> 1176 ;
1177 [label="Age <= 22.5\ngini = 0.496\nsamples = 11\nvalue = [6, 0, 5, 0]"] ;
1175 -> 1177 ;
1178 [label="gini = 0.0\nsamples = 2\nvalue = [2, 0, 0, 0]"] ;
1177 -> 1178 ;
1179 [label="Age <= 24.5\ngini = 0.494\nsamples = 9\nvalue = [4, 0, 5, 0]"] ;
1177 -> 1179 ;
1180 [label="gini = 0.5\nsamples = 4\nvalue = [2, 0, 2, 0]"] ;
1179 -> 1180 ;
1181 [label="gini = 0.48\nsamples = 5\nvalue = [2, 0, 3, 0]"] ;
1179 -> 1181 ;
