digraph Tree {
node [shape=box] ;
0 [label="X[6] <= 1922.0\ngini = 0.277\nsamples = 150154\nvalue = [126976, 7734, 7835, 7609]"] ;
1 [label="X[4] <= 127.5\ngini = 0.439\nsamples = 16021\nvalue = [11744, 1336, 1509, 1432]"] ;
0 -> 1 [labeldistance=2.5, labelangle=45, headlabel="True"] ;
2 [label="X[4] <= 99.5\ngini = 0.395\nsamples = 13958\nvalue = [10693, 1007, 1174, 1084]"] ;
1 -> 2 ;
3 [label="X[4] <= 32.5\ngini = 0.418\nsamples = 12438\nvalue = [9313, 954, 1148, 1023]"] ;
2 -> 3 ;
4 [label="X[5] <= 4.5\ngini = 0.371\nsamples = 6236\nvalue = [4883, 438, 407, 508]"] ;
3 -> 4 ;
5 [label="gini = 0.458\nsamples = 2256\nvalue = [1617, 221, 155, 263]"] ;
4 -> 5 ;
6 [label="gini = 0.316\nsamples = 3980\nvalue = [3266, 217, 252, 245]"] ;
4 -> 6 ;
7 [label="X[2] <= 175.736\ngini = 0.462\nsamples = 6202\nvalue = [4430, 516, 741, 515]"] ;
3 -> 7 ;
8 [label="gini = 0.442\nsamples = 5308\nvalue = [3876, 440, 567, 425]"] ;
7 -> 8 ;
9 [label="gini = 0.561\nsamples = 894\nvalue = [554, 76, 174, 90]"] ;
7 -> 9 ;
10 [label="X[6] <= 1905.0\ngini = 0.173\nsamples = 1520\nvalue = [1380, 53, 26, 61]"] ;
2 -> 10 ;
11 [label="X[1] <= 25.172\ngini = 0.471\nsamples = 221\nvalue = [156, 28, 15, 22]"] ;
10 -> 11 ;
12 [label="gini = 0.689\nsamples = 35\nvalue = [16, 8, 5, 6]"] ;
11 -> 12 ;
13 [label="gini = 0.412\nsamples = 186\nvalue = [140, 20, 10, 16]"] ;
11 -> 13 ;
14 [label="X[3] <= 80.5\ngini = 0.111\nsamples = 1299\nvalue = [1224, 25, 11, 39]"] ;
10 -> 14 ;
15 [label="gini = 0.094\nsamples = 1272\nvalue = [1210, 23, 8, 31]"] ;
14 -> 15 ;
16 [label="gini = 0.626\nsamples = 27\nvalue = [14, 2, 3, 8]"] ;
14 -> 16 ;
17 [label="X[5] <= 96.5\ngini = 0.66\nsamples = 2063\nvalue = [1051, 329, 335, 348]"] ;
1 -> 17 ;
18 [label="X[5] <= 66.5\ngini = 0.695\nsamples = 1785\nvalue = [807, 306, 329, 343]"] ;
17 -> 18 ;
19 [label="X[6] <= 1916.0\ngini = 0.663\nsamples = 1380\nvalue = [697, 237, 212, 234]"] ;
18 -> 19 ;
20 [label="gini = 0.644\nsamples = 1279\nvalue = [677, 232, 153, 217]"] ;
19 -> 20 ;
21 [label="gini = 0.589\nsamples = 101\nvalue = [20, 5, 59, 17]"] ;
19 -> 21 ;
22 [label="X[7] <= 9.0\ngini = 0.741\nsamples = 405\nvalue = [110, 69, 117, 109]"] ;
18 -> 22 ;
23 [label="gini = 0.7\nsamples = 263\nvalue = [24, 53, 99, 87]"] ;
22 -> 23 ;
24 [label="gini = 0.58\nsamples = 142\nvalue = [86, 16, 18, 22]"] ;
22 -> 24 ;
25 [label="X[1] <= 37.0\ngini = 0.222\nsamples = 278\nvalue = [244, 23, 6, 5]"] ;
17 -> 25 ;
26 [label="X[0] <= 0.5\ngini = 0.188\nsamples = 267\nvalue = [240, 16, 6, 5]"] ;
25 -> 26 ;
27 [label="gini = 0.164\nsamples = 263\nvalue = [240, 14, 5, 4]"] ;
26 -> 27 ;
28 [label="gini = 0.625\nsamples = 4\nvalue = [0, 2, 1, 1]"] ;
26 -> 28 ;
29 [label="X[5] <= 144.0\ngini = 0.463\nsamples = 11\nvalue = [4, 7, 0, 0]"] ;
25 -> 29 ;
30 [label="gini = 0.0\nsamples = 5\nvalue = [0, 5, 0, 0]"] ;
29 -> 30 ;
31 [label="gini = 0.444\nsamples = 6\nvalue = [4, 2, 0, 0]"] ;
29 -> 31 ;
32 [label="X[5] <= 59.5\ngini = 0.255\nsamples = 134133\nvalue = [115232, 6398, 6326, 6177]"] ;
0 -> 32 [labeldistance=2.5, labelangle=-45, headlabel="False"] ;
33 [label="X[4] <= 16.5\ngini = 0.306\nsamples = 77385\nvalue = [64002, 4255, 4989, 4139]"] ;
32 -> 33 ;
34 [label="X[7] <= 5.5\ngini = 0.21\nsamples = 24961\nvalue = [22129, 1102, 802, 928]"] ;
33 -> 34 ;
35 [label="X[7] <= 1.5\ngini = 0.131\nsamples = 12075\nvalue = [11245, 319, 213, 298]"] ;
34 -> 35 ;
36 [label="gini = 0.28\nsamples = 1400\nvalue = [1180, 93, 33, 94]"] ;
35 -> 36 ;
37 [label="gini = 0.11\nsamples = 10675\nvalue = [10065, 226, 180, 204]"] ;
35 -> 37 ;
38 [label="X[4] <= 9.5\ngini = 0.278\nsamples = 12886\nvalue = [10884, 783, 589, 630]"] ;
34 -> 38 ;
39 [label="gini = 0.304\nsamples = 9730\nvalue = [8059, 692, 465, 514]"] ;
38 -> 39 ;
40 [label="gini = 0.195\nsamples = 3156\nvalue = [2825, 91, 124, 116]"] ;
38 -> 40 ;
41 [label="X[4] <= 17.5\ngini = 0.348\nsamples = 52424\nvalue = [41873, 3153, 4187, 3211]"] ;
33 -> 41 ;
42 [label="X[7] <= 1.5\ngini = 0.628\nsamples = 4584\nvalue = [2523, 596, 830, 635]"] ;
41 -> 42 ;
43 [label="gini = 0.682\nsamples = 248\nvalue = [15, 99, 84, 50]"] ;
42 -> 43 ;
44 [label="gini = 0.604\nsamples = 4336\nvalue = [2508, 497, 746, 585]"] ;
42 -> 44 ;
45 [label="X[5] <= 58.5\ngini = 0.313\nsamples = 47840\nvalue = [39350, 2557, 3357, 2576]"] ;
41 -> 45 ;
46 [label="gini = 0.297\nsamples = 45736\nvalue = [38089, 2330, 3018, 2299]"] ;
45 -> 46 ;
47 [label="gini = 0.586\nsamples = 2104\nvalue = [1261, 227, 339, 277]"] ;
45 -> 47 ;
48 [label="X[3] <= 83.5\ngini = 0.182\nsamples = 56748\nvalue = [51230, 2143, 1337, 2038]"] ;
32 -> 48 ;
49 [label="X[5] <= 98.5\ngini = 0.166\nsamples = 50516\nvalue = [46066, 1714, 1077, 1659]"] ;
48 -> 49 ;
50 [label="X[6] <= 1934.0\ngini = 0.193\nsamples = 33895\nvalue = [30375, 1417, 840, 1263]"] ;
49 -> 50 ;
51 [label="gini = 0.297\nsamples = 3010\nvalue = [2506, 203, 110, 191]"] ;
50 -> 51 ;
52 [label="gini = 0.182\nsamples = 30885\nvalue = [27869, 1214, 730, 1072]"] ;
50 -> 52 ;
53 [label="X[7] <= 19.5\ngini = 0.108\nsamples = 16621\nvalue = [15691, 297, 237, 396]"] ;
49 -> 53 ;
54 [label="gini = 0.085\nsamples = 15409\nvalue = [14732, 227, 152, 298]"] ;
53 -> 54 ;
55 [label="gini = 0.359\nsamples = 1212\nvalue = [959, 70, 85, 98]"] ;
53 -> 55 ;
56 [label="X[7] <= 19.5\ngini = 0.303\nsamples = 6232\nvalue = [5164, 429, 260, 379]"] ;
48 -> 56 ;
57 [label="X[2] <= 196.5\ngini = 0.28\nsamples = 5640\nvalue = [4759, 347, 223, 311]"] ;
56 -> 57 ;
58 [label="gini = 0.258\nsamples = 4997\nvalue = [4285, 292, 182, 238]"] ;
57 -> 58 ;
59 [label="gini = 0.432\nsamples = 643\nvalue = [474, 55, 41, 73]"] ;
57 -> 59 ;
60 [label="X[7] <= 20.5\ngini = 0.496\nsamples = 592\nvalue = [405, 82, 37, 68]"] ;
56 -> 60 ;
61 [label="gini = 0.648\nsamples = 285\nvalue = [148, 49, 30, 58]"] ;
60 -> 61 ;
62 [label="gini = 0.286\nsamples = 307\nvalue = [257, 33, 7, 10]"] ;
60 -> 62 ;
}