digraph Tree {
node [shape=box] ;
0 [label="Year <= 1922.0\ngini = 0.277\nsamples = 150154\nvalue = [126976, 7734, 7835, 7609]"] ;
1 [label="Team <= 127.5\ngini = 0.439\nsamples = 16021\nvalue = [11744, 1336, 1509, 1432]"] ;
0 -> 1 [labeldistance=2.5, labelangle=45, headlabel="True"] ;
2 [label="Team <= 99.5\ngini = 0.395\nsamples = 13958\nvalue = [10693, 1007, 1174, 1084]"] ;
1 -> 2 ;
3 [label="Team <= 32.5\ngini = 0.418\nsamples = 12438\nvalue = [9313, 954, 1148, 1023]"] ;
2 -> 3 ;
4 [label="gini = 0.371\nsamples = 6236\nvalue = [4883, 438, 407, 508]"] ;
3 -> 4 ;
5 [label="gini = 0.462\nsamples = 6202\nvalue = [4430, 516, 741, 515]"] ;
3 -> 5 ;
6 [label="Year <= 1905.0\ngini = 0.173\nsamples = 1520\nvalue = [1380, 53, 26, 61]"] ;
2 -> 6 ;
7 [label="gini = 0.471\nsamples = 221\nvalue = [156, 28, 15, 22]"] ;
6 -> 7 ;
8 [label="gini = 0.111\nsamples = 1299\nvalue = [1224, 25, 11, 39]"] ;
6 -> 8 ;
9 [label="Sport <= 8.5\ngini = 0.66\nsamples = 2063\nvalue = [1051, 329, 335, 348]"] ;
1 -> 9 ;
10 [label="Year <= 1916.0\ngini = 0.695\nsamples = 1640\nvalue = [744, 286, 304, 306]"] ;
9 -> 10 ;
11 [label="gini = 0.683\nsamples = 1528\nvalue = [724, 278, 240, 286]"] ;
10 -> 11 ;
12 [label="gini = 0.605\nsamples = 112\nvalue = [20, 8, 64, 20]"] ;
10 -> 12 ;
13 [label="Year <= 1910.0\ngini = 0.448\nsamples = 423\nvalue = [307, 43, 31, 42]"] ;
9 -> 13 ;
14 [label="gini = 0.6\nsamples = 196\nvalue = [114, 36, 25, 21]"] ;
13 -> 14 ;
15 [label="gini = 0.267\nsamples = 227\nvalue = [193, 7, 6, 21]"] ;
13 -> 15 ;
16 [label="Team <= 60.5\ngini = 0.255\nsamples = 134133\nvalue = [115232, 6398, 6326, 6177]"] ;
0 -> 16 [labeldistance=2.5, labelangle=-45, headlabel="False"] ;
17 [label="Team <= 16.5\ngini = 0.308\nsamples = 75315\nvalue = [62209, 4174, 4877, 4055]"] ;
16 -> 17 ;
18 [label="Sport <= 5.5\ngini = 0.21\nsamples = 24961\nvalue = [22129, 1102, 802, 928]"] ;
17 -> 18 ;
19 [label="gini = 0.131\nsamples = 12075\nvalue = [11245, 319, 213, 298]"] ;
18 -> 19 ;
20 [label="gini = 0.278\nsamples = 12886\nvalue = [10884, 783, 589, 630]"] ;
18 -> 20 ;
21 [label="Team <= 17.5\ngini = 0.352\nsamples = 50354\nvalue = [40080, 3072, 4075, 3127]"] ;
17 -> 21 ;
22 [label="gini = 0.628\nsamples = 4584\nvalue = [2523, 596, 830, 635]"] ;
21 -> 22 ;
23 [label="gini = 0.316\nsamples = 45770\nvalue = [37557, 2476, 3245, 2492]"] ;
21 -> 23 ;
24 [label="Weight <= 83.5\ngini = 0.184\nsamples = 58818\nvalue = [53023, 2224, 1449, 2122]"] ;
16 -> 24 ;
25 [label="Sport <= 6.5\ngini = 0.169\nsamples = 52318\nvalue = [47612, 1786, 1183, 1737]"] ;
24 -> 25 ;
26 [label="gini = 0.137\nsamples = 28492\nvalue = [26442, 749, 502, 799]"] ;
25 -> 26 ;
27 [label="gini = 0.206\nsamples = 23826\nvalue = [21170, 1037, 681, 938]"] ;
25 -> 27 ;
28 [label="Sport <= 19.5\ngini = 0.297\nsamples = 6500\nvalue = [5411, 438, 266, 385]"] ;
24 -> 28 ;
29 [label="gini = 0.274\nsamples = 5906\nvalue = [5004, 356, 229, 317]"] ;
28 -> 29 ;
30 [label="gini = 0.494\nsamples = 594\nvalue = [407, 82, 37, 68]"] ;
28 -> 30 ;
}