digraph Tree {
node [shape=box] ;
0 [label="Team <= 299.5\ngini = 0.75\nsamples = 30841\nvalue = [7663, 7734, 7835, 7609]"] ;
1 [label="Team <= 59.5\ngini = 0.75\nsamples = 29525\nvalue = [7663, 7309, 7390, 7163]"] ;
0 -> 1 [labeldistance=2.5, labelangle=45, headlabel="True"] ;
2 [label="Team <= 1.5\ngini = 0.75\nsamples = 26993\nvalue = [6321, 6882, 6977, 6813]"] ;
1 -> 2 ;
3 [label="Sport <= 12.5\ngini = 0.702\nsamples = 2225\nvalue = [164, 596, 830, 635]"] ;
2 -> 3 ;
4 [label="Sex <= 0.5\ngini = 0.714\nsamples = 1497\nvalue = [133, 418, 483, 463]"] ;
3 -> 4 ;
5 [label="Sport <= 7.5\ngini = 0.708\nsamples = 972\nvalue = [81, 260, 282, 349]"] ;
4 -> 5 ;
6 [label="Team <= 0.5\ngini = 0.708\nsamples = 593\nvalue = [61, 125, 188, 219]"] ;
5 -> 6 ;
7 [label="gini = 0.0\nsamples = 5\nvalue = [5, 0, 0, 0]"] ;
6 -> 7 ;
8 [label="Sport <= 5.0\ngini = 0.705\nsamples = 588\nvalue = [56, 125, 188, 219]"] ;
6 -> 8 ;
9 [label="Host_Country <= 13.0\ngini = 0.711\nsamples = 412\nvalue = [37, 106, 122, 147]"] ;
8 -> 9 ;
10 [label="Weight <= 73.5\ngini = 0.721\nsamples = 324\nvalue = [34, 88, 103, 99]"] ;
9 -> 10 ;
11 [label="Height <= 173.5\ngini = 0.712\nsamples = 119\nvalue = [17, 37, 20, 45]"] ;
10 -> 11 ;
12 [label="Height <= 166.0\ngini = 0.704\nsamples = 42\nvalue = [4, 16, 13, 9]"] ;
11 -> 12 ;
13 [label="Age <= 30.0\ngini = 0.706\nsamples = 17\nvalue = [3, 2, 6, 6]"] ;
12 -> 13 ;
14 [label="Weight <= 52.5\ngini = 0.704\nsamples = 14\nvalue = [3, 2, 6, 3]"] ;
13 -> 14 ;
15 [label="Age <= 22.0\ngini = 0.625\nsamples = 4\nvalue = [1, 2, 0, 1]"] ;
14 -> 15 ;
16 [label="Weight <= 49.5\ngini = 0.5\nsamples = 2\nvalue = [1, 0, 0, 1]"] ;
15 -> 16 ;
17 [label="gini = 0.0\nsamples = 1\nvalue = [1, 0, 0, 0]"] ;
16 -> 17 ;
18 [label="gini = 0.0\nsamples = 1\nvalue = [0, 0, 0, 1]"] ;
16 -> 18 ;
19 [label="gini = 0.0\nsamples = 2\nvalue = [0, 2, 0, 0]"] ;
15 -> 19 ;
20 [label="Weight <= 58.0\ngini = 0.56\nsamples = 10\nvalue = [2, 0, 6, 2]"] ;
14 -> 20 ;
21 [label="gini = 0.0\nsamples = 5\nvalue = [0, 0, 5, 0]"] ;
20 -> 21 ;
22 [label="Host_Country <= 8.5\ngini = 0.64\nsamples = 5\nvalue = [2, 0, 1, 2]"] ;
20 -> 22 ;
23 [label="Age <= 27.0\ngini = 0.5\nsamples = 4\nvalue = [2, 0, 0, 2]"] ;
22 -> 23 ;
24 [label="Height <= 162.5\ngini = 0.444\nsamples = 3\nvalue = [1, 0, 0, 2]"] ;
23 -> 24 ;
25 [label="gini = 0.0\nsamples = 1\nvalue = [0, 0, 0, 1]"] ;
24 -> 25 ;
26 [label="gini = 0.5\nsamples = 2\nvalue = [1, 0, 0, 1]"] ;
24 -> 26 ;
27 [label="gini = 0.0\nsamples = 1\nvalue = [1, 0, 0, 0]"] ;
23 -> 27 ;
28 [label="gini = 0.0\nsamples = 1\nvalue = [0, 0, 1, 0]"] ;
22 -> 28 ;
29 [label="gini = 0.0\nsamples = 3\nvalue = [0, 0, 0, 3]"] ;
13 -> 29 ;
30 [label="Age <= 28.5\ngini = 0.592\nsamples = 25\nvalue = [1, 14, 7, 3]"] ;
12 -> 30 ;
31 [label="Host_Country <= 6.0\ngini = 0.414\nsamples = 16\nvalue = [1, 12, 2, 1]"] ;
30 -> 31 ;
32 [label="Weight <= 59.5\ngini = 0.18\nsamples = 10\nvalue = [0, 9, 0, 1]"] ;
31 -> 32 ;
33 [label="Host_Country <= 2.0\ngini = 0.5\nsamples = 2\nvalue = [0, 1, 0, 1]"] ;
32 -> 33 ;
34 [label="gini = 0.0\nsamples = 1\nvalue = [0, 1, 0, 0]"] ;
33 -> 34 ;
35 [label="gini = 0.0\nsamples = 1\nvalue = [0, 0, 0, 1]"] ;
33 -> 35 ;
36 [label="gini = 0.0\nsamples = 8\nvalue = [0, 8, 0, 0]"] ;
32 -> 36 ;
37 [label="Age <= 25.5\ngini = 0.611\nsamples = 6\nvalue = [1, 3, 2, 0]"] ;
31 -> 37 ;
38 [label="Weight <= 59.5\ngini = 0.375\nsamples = 4\nvalue = [0, 3, 1, 0]"] ;
37 -> 38 ;
39 [label="Age <= 21.0\ngini = 0.5\nsamples = 2\nvalue = [0, 1, 1, 0]"] ;
38 -> 39 ;
40 [label="gini = 0.0\nsamples = 1\nvalue = [0, 1, 0, 0]"] ;
39 -> 40 ;
41 [label="gini = 0.0\nsamples = 1\nvalue = [0, 0, 1, 0]"] ;
39 -> 41 ;
42 [label="gini = 0.0\nsamples = 2\nvalue = [0, 2, 0, 0]"] ;
38 -> 42 ;
43 [label="Host_Country <= 9.5\ngini = 0.5\nsamples = 2\nvalue = [1, 0, 1, 0]"] ;
37 -> 43 ;
44 [label="gini = 0.0\nsamples = 1\nvalue = [0, 0, 1, 0]"] ;
43 -> 44 ;
45 [label="gini = 0.0\nsamples = 1\nvalue = [1, 0, 0, 0]"] ;
43 -> 45 ;
46 [label="Height <= 171.5\ngini = 0.593\nsamples = 9\nvalue = [0, 2, 5, 2]"] ;
30 -> 46 ;
47 [label="Host_Country <= 5.5\ngini = 0.5\nsamples = 4\nvalue = [0, 2, 0, 2]"] ;
46 -> 47 ;
48 [label="gini = 0.0\nsamples = 2\nvalue = [0, 0, 0, 2]"] ;
47 -> 48 ;
49 [label="gini = 0.0\nsamples = 2\nvalue = [0, 2, 0, 0]"] ;
47 -> 49 ;
50 [label="gini = 0.0\nsamples = 5\nvalue = [0, 0, 5, 0]"] ;
46 -> 50 ;
51 [label="Height <= 179.5\ngini = 0.67\nsamples = 77\nvalue = [13, 21, 7, 36]"] ;
11 -> 51 ;
52 [label="Weight <= 71.0\ngini = 0.647\nsamples = 68\nvalue = [12, 15, 6, 35]"] ;
51 -> 52 ;
53 [label="Host_Country <= 6.0\ngini = 0.338\nsamples = 15\nvalue = [2, 1, 0, 12]"] ;
52 -> 53 ;
54 [label="gini = 0.0\nsamples = 6\nvalue = [0, 0, 0, 6]"] ;
53 -> 54 ;
55 [label="Sport <= 0.5\ngini = 0.494\nsamples = 9\nvalue = [2, 1, 0, 6]"] ;
53 -> 55 ;
56 [label="Host_Country <= 8.5\ngini = 0.64\nsamples = 5\nvalue = [2, 1, 0, 2]"] ;
55 -> 56 ;
57 [label="Host_Country <= 7.5\ngini = 0.444\nsamples = 3\nvalue = [2, 1, 0, 0]"] ;
56 -> 57 ;
58 [label="Weight <= 68.5\ngini = 0.5\nsamples = 2\nvalue = [1, 1, 0, 0]"] ;
57 -> 58 ;
59 [label="gini = 0.0\nsamples = 1\nvalue = [0, 1, 0, 0]"] ;
58 -> 59 ;
60 [label="gini = 0.0\nsamples = 1\nvalue = [1, 0, 0, 0]"] ;
58 -> 60 ;
61 [label="gini = 0.0\nsamples = 1\nvalue = [1, 0, 0, 0]"] ;
57 -> 61 ;
62 [label="gini = 0.0\nsamples = 2\nvalue = [0, 0, 0, 2]"] ;
56 -> 62 ;
63 [label="gini = 0.0\nsamples = 4\nvalue = [0, 0, 0, 4]"] ;
55 -> 63 ;
64 [label="Host_Country <= 1.5\ngini = 0.693\nsamples = 53\nvalue = [10, 14, 6, 23]"] ;
52 -> 64 ;
65 [label="gini = 0.0\nsamples = 2\nvalue = [2, 0, 0, 0]"] ;
64 -> 65 ;
66 [label="Sport <= 0.5\ngini = 0.683\nsamples = 51\nvalue = [8, 14, 6, 23]"] ;
64 -> 66 ;
67 [label="Age <= 25.5\ngini = 0.593\nsamples = 9\nvalue = [4, 0, 1, 4]"] ;
66 -> 67 ;
68 [label="Age <= 24.5\ngini = 0.56\nsamples = 5\nvalue = [1, 0, 1, 3]"] ;
67 -> 68 ;
69 [label="Host_Country <= 7.0\ngini = 0.5\nsamples = 2\nvalue = [1, 0, 1, 0]"] ;
68 -> 69 ;
70 [label="gini = 0.0\nsamples = 1\nvalue = [1, 0, 0, 0]"] ;
69 -> 70 ;
71 [label="gini = 0.0\nsamples = 1\nvalue = [0, 0, 1, 0]"] ;
69 -> 71 ;
72 [label="gini = 0.0\nsamples = 3\nvalue = [0, 0, 0, 3]"] ;
68 -> 72 ;
73 [label="Weight <= 72.43\ngini = 0.375\nsamples = 4\nvalue = [3, 0, 0, 1]"] ;
67 -> 73 ;
74 [label="gini = 0.5\nsamples = 2\nvalue = [1, 0, 0, 1]"] ;
73 -> 74 ;
75 [label="gini = 0.0\nsamples = 2\nvalue = [2, 0, 0, 0]"] ;
73 -> 75 ;
76 [label="Sport <= 3.5\ngini = 0.661\nsamples = 42\nvalue = [4, 14, 5, 19]"] ;
66 -> 76 ;
77 [label="Weight <= 72.93\ngini = 0.653\nsamples = 21\nvalue = [1, 10, 4, 6]"] ;
76 -> 77 ;
78 [label="Age <= 33.0\ngini = 0.645\nsamples = 20\nvalue = [1, 10, 4, 5]"] ;
77 -> 78 ;
79 [label="Sport <= 2.0\ngini = 0.604\nsamples = 15\nvalue = [0, 8, 4, 3]"] ;
78 -> 79 ;
80 [label="Height <= 177.596\ngini = 0.611\nsamples = 6\nvalue = [0, 2, 3, 1]"] ;
79 -> 80 ;
81 [label="gini = 0.56\nsamples = 5\nvalue = [0, 1, 3, 1]"] ;
80 -> 81 ;
82 [label="gini = 0.0\nsamples = 1\nvalue = [0, 1, 0, 0]"] ;
80 -> 82 ;
83 [label="Age <= 21.5\ngini = 0.494\nsamples = 9\nvalue = [0, 6, 1, 2]"] ;
79 -> 83 ;
84 [label="gini = 0.625\nsamples = 4\nvalue = [0, 2, 1, 1]"] ;
83 -> 84 ;
85 [label="gini = 0.32\nsamples = 5\nvalue = [0, 4, 0, 1]"] ;
83 -> 85 ;
86 [label="Sport <= 2.0\ngini = 0.64\nsamples = 5\nvalue = [1, 2, 0, 2]"] ;
78 -> 86 ;
87 [label="Age <= 39.0\ngini = 0.625\nsamples = 4\nvalue = [1, 2, 0, 1]"] ;
86 -> 87 ;
88 [label="gini = 0.0\nsamples = 1\nvalue = [0, 1, 0, 0]"] ;
87 -> 88 ;
89 [label="gini = 0.667\nsamples = 3\nvalue = [1, 1, 0, 1]"] ;
87 -> 89 ;
90 [label="gini = 0.0\nsamples = 1\nvalue = [0, 0, 0, 1]"] ;
86 -> 90 ;
91 [label="gini = 0.0\nsamples = 1\nvalue = [0, 0, 0, 1]"] ;
77 -> 91 ;
92 [label="Weight <= 72.93\ngini = 0.558\nsamples = 21\nvalue = [3, 4, 1, 13]"] ;
76 -> 92 ;
93 [label="Host_Country <= 7.0\ngini = 0.482\nsamples = 19\nvalue = [3, 3, 0, 13]"] ;
92 -> 93 ;
94 [label="Age <= 24.0\ngini = 0.26\nsamples = 13\nvalue = [2, 0, 0, 11]"] ;
93 -> 94 ;
95 [label="Age <= 22.0\ngini = 0.48\nsamples = 5\nvalue = [2, 0, 0, 3]"] ;
94 -> 95 ;
96 [label="gini = 0.444\nsamples = 3\nvalue = [1, 0, 0, 2]"] ;
95 -> 96 ;
97 [label="gini = 0.5\nsamples = 2\nvalue = [1, 0, 0, 1]"] ;
95 -> 97 ;
98 [label="gini = 0.0\nsamples = 8\nvalue = [0, 0, 0, 8]"] ;
94 -> 98 ;
99 [label="Age <= 24.5\ngini = 0.611\nsamples = 6\nvalue = [1, 3, 0, 2]"] ;
93 -> 99 ;
100 [label="gini = 0.0\nsamples = 1\nvalue = [0, 1, 0, 0]"] ;
99 -> 100 ;
101 [label="Age <= 25.833\ngini = 0.64\nsamples = 5\nvalue = [1, 2, 0, 2]"] ;
99 -> 101 ;
102 [label="gini = 0.5\nsamples = 2\nvalue = [1, 0, 0, 1]"] ;
101 -> 102 ;
103 [label="gini = 0.444\nsamples = 3\nvalue = [0, 2, 0, 1]"] ;
101 -> 103 ;
104 [label="Height <= 177.5\ngini = 0.5\nsamples = 2\nvalue = [0, 1, 1, 0]"] ;
92 -> 104 ;
105 [label="gini = 0.0\nsamples = 1\nvalue = [0, 1, 0, 0]"] ;
104 -> 105 ;
106 [label="gini = 0.0\nsamples = 1\nvalue = [0, 0, 1, 0]"] ;
104 -> 106 ;
107 [label="Host_Country <= 10.5\ngini = 0.519\nsamples = 9\nvalue = [1, 6, 1, 1]"] ;
51 -> 107 ;
108 [label="Host_Country <= 6.5\ngini = 0.245\nsamples = 7\nvalue = [0, 6, 0, 1]"] ;
107 -> 108 ;
109 [label="Age <= 22.5\ngini = 0.444\nsamples = 3\nvalue = [0, 2, 0, 1]"] ;
108 -> 109 ;
110 [label="gini = 0.0\nsamples = 1\nvalue = [0, 1, 0, 0]"] ;
109 -> 110 ;
111 [label="Weight <= 71.0\ngini = 0.5\nsamples = 2\nvalue = [0, 1, 0, 1]"] ;
109 -> 111 ;
112 [label="gini = 0.0\nsamples = 1\nvalue = [0, 1, 0, 0]"] ;
111 -> 112 ;
113 [label="gini = 0.0\nsamples = 1\nvalue = [0, 0, 0, 1]"] ;
111 -> 113 ;
114 [label="gini = 0.0\nsamples = 4\nvalue = [0, 4, 0, 0]"] ;
108 -> 114 ;
115 [label="Sport <= 1.5\ngini = 0.5\nsamples = 2\nvalue = [1, 0, 1, 0]"] ;
107 -> 115 ;
116 [label="gini = 0.0\nsamples = 1\nvalue = [0, 0, 1, 0]"] ;
115 -> 116 ;
117 [label="gini = 0.0\nsamples = 1\nvalue = [1, 0, 0, 0]"] ;
115 -> 117 ;
118 [label="Sport <= 1.5\ngini = 0.698\nsamples = 205\nvalue = [17, 51, 83, 54]"] ;
10 -> 118 ;
119 [label="Age <= 28.5\ngini = 0.719\nsamples = 103\nvalue = [10, 31, 32, 30]"] ;
118 -> 119 ;
120 [label="Host_Country <= 0.5\ngini = 0.714\nsamples = 73\nvalue = [8, 27, 17, 21]"] ;
119 -> 120 ;
121 [label="Height <= 187.0\ngini = 0.579\nsamples = 11\nvalue = [0, 1, 5, 5]"] ;
120 -> 121 ;
122 [label="Weight <= 81.5\ngini = 0.408\nsamples = 7\nvalue = [0, 0, 2, 5]"] ;
121 -> 122 ;
123 [label="Age <= 21.5\ngini = 0.5\nsamples = 4\nvalue = [0, 0, 2, 2]"] ;
122 -> 123 ;
124 [label="gini = 0.0\nsamples = 1\nvalue = [0, 0, 0, 1]"] ;
123 -> 124 ;
125 [label="gini = 0.444\nsamples = 3\nvalue = [0, 0, 2, 1]"] ;
123 -> 125 ;
126 [label="gini = 0.0\nsamples = 3\nvalue = [0, 0, 0, 3]"] ;
122 -> 126 ;
127 [label="Height <= 194.5\ngini = 0.375\nsamples = 4\nvalue = [0, 1, 3, 0]"] ;
121 -> 127 ;
128 [label="gini = 0.0\nsamples = 3\nvalue = [0, 0, 3, 0]"] ;
127 -> 128 ;
129 [label="gini = 0.0\nsamples = 1\nvalue = [0, 1, 0, 0]"] ;
127 -> 129 ;
130 [label="Host_Country <= 10.5\ngini = 0.703\nsamples = 62\nvalue = [8, 26, 12, 16]"] ;
120 -> 130 ;
131 [label="Age <= 21.5\ngini = 0.692\nsamples = 48\nvalue = [8, 21, 6, 13]"] ;
130 -> 131 ;
132 [label="Host_Country <= 2.0\ngini = 0.375\nsamples = 4\nvalue = [0, 0, 1, 3]"] ;
131 -> 132 ;
133 [label="gini = 0.0\nsamples = 1\nvalue = [0, 0, 1, 0]"] ;
132 -> 133 ;
134 [label="gini = 0.0\nsamples = 3\nvalue = [0, 0, 0, 3]"] ;
132 -> 134 ;
135 [label="Host_Country <= 2.0\ngini = 0.675\nsamples = 44\nvalue = [8, 21, 5, 10]"] ;
131 -> 135 ;
136 [label="Weight <= 82.5\ngini = 0.397\nsamples = 11\nvalue = [0, 8, 0, 3]"] ;
135 -> 136 ;
137 [label="gini = 0.0\nsamples = 6\nvalue = [0, 6, 0, 0]"] ;
136 -> 137 ;
138 [label="Age <= 26.5\ngini = 0.48\nsamples = 5\nvalue = [0, 2, 0, 3]"] ;
136 -> 138 ;
139 [label="gini = 0.0\nsamples = 2\nvalue = [0, 0, 0, 2]"] ;
138 -> 139 ;
140 [label="Sport <= 0.5\ngini = 0.444\nsamples = 3\nvalue = [0, 2, 0, 1]"] ;
138 -> 140 ;
141 [label="gini = 0.0\nsamples = 2\nvalue = [0, 2, 0, 0]"] ;
140 -> 141 ;
142 [label="gini = 0.0\nsamples = 1\nvalue = [0, 0, 0, 1]"] ;
140 -> 142 ;
143 [label="Weight <= 95.0\ngini = 0.718\nsamples = 33\nvalue = [8, 13, 5, 7]"] ;
135 -> 143 ;
144 [label="Weight <= 80.5\ngini = 0.711\nsamples = 27\nvalue = [4, 11, 5, 7]"] ;
143 -> 144 ;
145 [label="Height <= 184.0\ngini = 0.742\nsamples = 16\nvalue = [3, 4, 5, 4]"] ;
144 -> 145 ;
146 [label="Host_Country <= 4.0\ngini = 0.7\nsamples = 10\nvalue = [3, 1, 2, 4]"] ;
145 -> 146 ;
147 [label="gini = 0.0\nsamples = 2\nvalue = [0, 0, 2, 0]"] ;
146 -> 147 ;
148 [label="gini = 0.594\nsamples = 8\nvalue = [3, 1, 0, 4]"] ;
146 -> 148 ;
149 [label="Weight <= 78.5\ngini = 0.5\nsamples = 6\nvalue = [0, 3, 3, 0]"] ;
145 -> 149 ;
150 [label="gini = 0.375\nsamples = 4\nvalue = [0, 3, 1, 0]"] ;
149 -> 150 ;
151 [label="gini = 0.0\nsamples = 2\nvalue = [0, 0, 2, 0]"] ;
149 -> 151 ;
152 [label="Height <= 185.5\ngini = 0.512\nsamples = 11\nvalue = [1, 7, 0, 3]"] ;
144 -> 152 ;
153 [label="gini = 0.0\nsamples = 6\nvalue = [0, 6, 0, 0]"] ;
152 -> 153 ;
154 [label="Weight <= 91.0\ngini = 0.56\nsamples = 5\nvalue = [1, 1, 0, 3]"] ;
152 -> 154 ;
155 [label="gini = 0.375\nsamples = 4\nvalue = [1, 0, 0, 3]"] ;
154 -> 155 ;
156 [label="gini = 0.0\nsamples = 1\nvalue = [0, 1, 0, 0]"] ;
154 -> 156 ;
157 [label="Host_Country <= 7.5\ngini = 0.444\nsamples = 6\nvalue = [4, 2, 0, 0]"] ;
143 -> 157 ;
158 [label="gini = 0.0\nsamples = 3\nvalue = [3, 0, 0, 0]"] ;
157 -> 158 ;
159 [label="Height <= 192.5\ngini = 0.444\nsamples = 3\nvalue = [1, 2, 0, 0]"] ;
157 -> 159 ;
160 [label="gini = 0.0\nsamples = 2\nvalue = [0, 2, 0, 0]"] ;
159 -> 160 ;
161 [label="gini = 0.0\nsamples = 1\nvalue = [1, 0, 0, 0]"] ;
159 -> 161 ;
162 [label="Height <= 187.0\ngini = 0.643\nsamples = 14\nvalue = [0, 5, 6, 3]"] ;
130 -> 162 ;
163 [label="Height <= 180.5\ngini = 0.494\nsamples = 9\nvalue = [0, 4, 5, 0]"] ;
162 -> 163 ;
164 [label="Sport <= 0.5\ngini = 0.375\nsamples = 4\nvalue = [0, 3, 1, 0]"] ;
163 -> 164 ;
165 [label="Weight <= 77.0\ngini = 0.5\nsamples = 2\nvalue = [0, 1, 1, 0]"] ;
164 -> 165 ;
166 [label="gini = 0.0\nsamples = 1\nvalue = [0, 0, 1, 0]"] ;
165 -> 166 ;
167 [label="gini = 0.0\nsamples = 1\nvalue = [0, 1, 0, 0]"] ;
165 -> 167 ;
168 [label="gini = 0.0\nsamples = 2\nvalue = [0, 2, 0, 0]"] ;
164 -> 168 ;
169 [label="Height <= 184.5\ngini = 0.32\nsamples = 5\nvalue = [0, 1, 4, 0]"] ;
163 -> 169 ;
170 [label="gini = 0.0\nsamples = 4\nvalue = [0, 0, 4, 0]"] ;
169 -> 170 ;
171 [label="gini = 0.0\nsamples = 1\nvalue = [0, 1, 0, 0]"] ;
169 -> 171 ;
172 [label="Weight <= 82.5\ngini = 0.56\nsamples = 5\nvalue = [0, 1, 1, 3]"] ;
162 -> 172 ;
173 [label="Height <= 195.0\ngini = 0.667\nsamples = 3\nvalue = [0, 1, 1, 1]"] ;
172 -> 173 ;
174 [label="gini = 0.0\nsamples = 1\nvalue = [0, 0, 0, 1]"] ;
173 -> 174 ;
175 [label="Height <= 201.5\ngini = 0.5\nsamples = 2\nvalue = [0, 1, 1, 0]"] ;
173 -> 175 ;
176 [label="gini = 0.0\nsamples = 1\nvalue = [0, 1, 0, 0]"] ;
175 -> 176 ;
177 [label="gini = 0.0\nsamples = 1\nvalue = [0, 0, 1, 0]"] ;
175 -> 177 ;
178 [label="gini = 0.0\nsamples = 2\nvalue = [0, 0, 0, 2]"] ;
172 -> 178 ;
179 [label="Age <= 32.5\ngini = 0.638\nsamples = 30\nvalue = [2, 4, 15, 9]"] ;
119 -> 179 ;
180 [label="Weight <= 77.5\ngini = 0.436\nsamples = 15\nvalue = [1, 1, 11, 2]"] ;
179 -> 180 ;
181 [label="Height <= 178.5\ngini = 0.444\nsamples = 3\nvalue = [0, 0, 1, 2]"] ;
180 -> 181 ;
182 [label="gini = 0.0\nsamples = 1\nvalue = [0, 0, 1, 0]"] ;
181 -> 182 ;
183 [label="gini = 0.0\nsamples = 2\nvalue = [0, 0, 0, 2]"] ;
181 -> 183 ;
184 [label="Weight <= 116.5\ngini = 0.292\nsamples = 12\nvalue = [1, 1, 10, 0]"] ;
180 -> 184 ;
185 [label="Height <= 178.5\ngini = 0.165\nsamples = 11\nvalue = [1, 0, 10, 0]"] ;
184 -> 185 ;
186 [label="Host_Country <= 0.5\ngini = 0.5\nsamples = 2\nvalue = [1, 0, 1, 0]"] ;
185 -> 186 ;
187 [label="gini = 0.0\nsamples = 1\nvalue = [0, 0, 1, 0]"] ;
186 -> 187 ;
188 [label="gini = 0.0\nsamples = 1\nvalue = [1, 0, 0, 0]"] ;
186 -> 188 ;
189 [label="gini = 0.0\nsamples = 9\nvalue = [0, 0, 9, 0]"] ;
185 -> 189 ;
190 [label="gini = 0.0\nsamples = 1\nvalue = [0, 1, 0, 0]"] ;
184 -> 190 ;
191 [label="Height <= 178.5\ngini = 0.667\nsamples = 15\nvalue = [1, 3, 4, 7]"] ;
179 -> 191 ;
192 [label="Weight <= 81.0\ngini = 0.691\nsamples = 9\nvalue = [1, 2, 4, 2]"] ;
191 -> 192 ;
193 [label="Weight <= 78.5\ngini = 0.667\nsamples = 3\nvalue = [1, 1, 0, 1]"] ;
192 -> 193 ;
194 [label="gini = 0.0\nsamples = 1\nvalue = [0, 0, 0, 1]"] ;
193 -> 194 ;
195 [label="Age <= 35.0\ngini = 0.5\nsamples = 2\nvalue = [1, 1, 0, 0]"] ;
193 -> 195 ;
196 [label="gini = 0.0\nsamples = 1\nvalue = [0, 1, 0, 0]"] ;
195 -> 196 ;
197 [label="gini = 0.0\nsamples = 1\nvalue = [1, 0, 0, 0]"] ;
195 -> 197 ;
198 [label="Weight <= 84.5\ngini = 0.5\nsamples = 6\nvalue = [0, 1, 4, 1]"] ;
192 -> 198 ;
199 [label="gini = 0.0\nsamples = 2\nvalue = [0, 0, 2, 0]"] ;
198 -> 199 ;
200 [label="Host_Country <= 6.0\ngini = 0.625\nsamples = 4\nvalue = [0, 1, 2, 1]"] ;
198 -> 200 ;
201 [label="gini = 0.0\nsamples = 1\nvalue = [0, 1, 0, 0]"] ;
200 -> 201 ;
202 [label="Age <= 37.0\ngini = 0.444\nsamples = 3\nvalue = [0, 0, 2, 1]"] ;
200 -> 202 ;
203 [label="gini = 0.5\nsamples = 2\nvalue = [0, 0, 1, 1]"] ;
202 -> 203 ;
204 [label="gini = 0.0\nsamples = 1\nvalue = [0, 0, 1, 0]"] ;
202 -> 204 ;
205 [label="Weight <= 109.5\ngini = 0.278\nsamples = 6\nvalue = [0, 1, 0, 5]"] ;
191 -> 205 ;
206 [label="gini = 0.0\nsamples = 5\nvalue = [0, 0, 0, 5]"] ;
205 -> 206 ;
207 [label="gini = 0.0\nsamples = 1\nvalue = [0, 1, 0, 0]"] ;
205 -> 207 ;
208 [label="Sport <= 2.5\ngini = 0.651\nsamples = 102\nvalue = [7, 20, 51, 24]"] ;
118 -> 208 ;
209 [label="Host_Country <= 0.5\ngini = 0.067\nsamples = 29\nvalue = [1, 0, 28, 0]"] ;
208 -> 209 ;
210 [label="gini = 0.0\nsamples = 1\nvalue = [1, 0, 0, 0]"] ;
209 -> 210 ;
211 [label="gini = 0.0\nsamples = 28\nvalue = [0, 0, 28, 0]"] ;
209 -> 211 ;
212 [label="Host_Country <= 10.5\ngini = 0.711\nsamples = 73\nvalue = [6, 20, 23, 24]"] ;
208 -> 212 ;
213 [label="Host_Country <= 0.5\ngini = 0.703\nsamples = 60\nvalue = [5, 17, 23, 15]"] ;
212 -> 213 ;
214 [label="gini = 0.0\nsamples = 4\nvalue = [0, 0, 4, 0]"] ;
213 -> 214 ;
215 [label="Host_Country <= 8.5\ngini = 0.713\nsamples = 56\nvalue = [5, 17, 19, 15]"] ;
213 -> 215 ;
216 [label="Host_Country <= 7.5\ngini = 0.717\nsamples = 52\nvalue = [5, 17, 15, 15]"] ;
215 -> 216 ;
217 [label="Host_Country <= 4.0\ngini = 0.716\nsamples = 38\nvalue = [4, 9, 12, 13]"] ;
216 -> 217 ;
218 [label="Weight <= 79.5\ngini = 0.671\nsamples = 28\nvalue = [1, 8, 7, 12]"] ;
217 -> 218 ;
219 [label="Age <= 29.5\ngini = 0.56\nsamples = 10\nvalue = [0, 6, 2, 2]"] ;
218 -> 219 ;
220 [label="Weight <= 77.5\ngini = 0.494\nsamples = 9\nvalue = [0, 6, 2, 1]"] ;
219 -> 220 ;
221 [label="gini = 0.611\nsamples = 6\nvalue = [0, 3, 2, 1]"] ;
220 -> 221 ;
222 [label="gini = 0.0\nsamples = 3\nvalue = [0, 3, 0, 0]"] ;
220 -> 222 ;
223 [label="gini = 0.0\nsamples = 1\nvalue = [0, 0, 0, 1]"] ;
219 -> 223 ;
224 [label="Sport <= 3.5\ngini = 0.599\nsamples = 18\nvalue = [1, 2, 5, 10]"] ;
218 -> 224 ;
225 [label="gini = 0.0\nsamples = 1\nvalue = [1, 0, 0, 0]"] ;
224 -> 225 ;
226 [label="Weight <= 91.0\ngini = 0.554\nsamples = 17\nvalue = [0, 2, 5, 10]"] ;
224 -> 226 ;
227 [label="gini = 0.46\nsamples = 10\nvalue = [0, 2, 1, 7]"] ;
226 -> 227 ;
228 [label="gini = 0.49\nsamples = 7\nvalue = [0, 0, 4, 3]"] ;
226 -> 228 ;
229 [label="Weight <= 86.0\ngini = 0.64\nsamples = 10\nvalue = [3, 1, 5, 1]"] ;
217 -> 229 ;
230 [label="Age <= 28.0\ngini = 0.449\nsamples = 7\nvalue = [1, 0, 5, 1]"] ;
229 -> 230 ;
231 [label="Height <= 179.5\ngini = 0.278\nsamples = 6\nvalue = [0, 0, 5, 1]"] ;
230 -> 231 ;
232 [label="gini = 0.5\nsamples = 2\nvalue = [0, 0, 1, 1]"] ;
231 -> 232 ;
233 [label="gini = 0.0\nsamples = 4\nvalue = [0, 0, 4, 0]"] ;
231 -> 233 ;
234 [label="gini = 0.0\nsamples = 1\nvalue = [1, 0, 0, 0]"] ;
230 -> 234 ;
235 [label="Height <= 187.5\ngini = 0.444\nsamples = 3\nvalue = [2, 1, 0, 0]"] ;
229 -> 235 ;
236 [label="gini = 0.0\nsamples = 2\nvalue = [2, 0, 0, 0]"] ;
235 -> 236 ;
237 [label="gini = 0.0\nsamples = 1\nvalue = [0, 1, 0, 0]"] ;
235 -> 237 ;
238 [label="Sport <= 3.5\ngini = 0.602\nsamples = 14\nvalue = [1, 8, 3, 2]"] ;
216 -> 238 ;
239 [label="Age <= 28.5\ngini = 0.444\nsamples = 3\nvalue = [0, 0, 1, 2]"] ;
238 -> 239 ;
240 [label="gini = 0.0\nsamples = 1\nvalue = [0, 0, 1, 0]"] ;
239 -> 240 ;
241 [label="gini = 0.0\nsamples = 2\nvalue = [0, 0, 0, 2]"] ;
239 -> 241 ;
242 [label="Age <= 22.0\ngini = 0.43\nsamples = 11\nvalue = [1, 8, 2, 0]"] ;
238 -> 242 ;
243 [label="gini = 0.0\nsamples = 1\nvalue = [0, 0, 1, 0]"] ;
242 -> 243 ;
244 [label="Weight <= 85.5\ngini = 0.34\nsamples = 10\nvalue = [1, 8, 1, 0]"] ;
242 -> 244 ;
245 [label="Height <= 187.5\ngini = 0.625\nsamples = 4\nvalue = [1, 2, 1, 0]"] ;
244 -> 245 ;
246 [label="gini = 0.0\nsamples = 2\nvalue = [0, 2, 0, 0]"] ;
245 -> 246 ;
247 [label="gini = 0.5\nsamples = 2\nvalue = [1, 0, 1, 0]"] ;
245 -> 247 ;
248 [label="gini = 0.0\nsamples = 6\nvalue = [0, 6, 0, 0]"] ;
244 -> 248 ;
249 [label="gini = 0.0\nsamples = 4\nvalue = [0, 0, 4, 0]"] ;
215 -> 249 ;
250 [label="Age <= 22.0\ngini = 0.462\nsamples = 13\nvalue = [1, 3, 0, 9]"] ;
212 -> 250 ;
251 [label="Weight <= 86.0\ngini = 0.5\nsamples = 2\nvalue = [1, 1, 0, 0]"] ;
250 -> 251 ;
252 [label="gini = 0.0\nsamples = 1\nvalue = [0, 1, 0, 0]"] ;
251 -> 252 ;
253 [label="gini = 0.0\nsamples = 1\nvalue = [1, 0, 0, 0]"] ;
251 -> 253 ;
254 [label="Sport <= 3.5\ngini = 0.298\nsamples = 11\nvalue = [0, 2, 0, 9]"] ;
250 -> 254 ;
255 [label="Age <= 23.5\ngini = 0.5\nsamples = 2\nvalue = [0, 1, 0, 1]"] ;
254 -> 255 ;
256 [label="gini = 0.0\nsamples = 1\nvalue = [0, 0, 0, 1]"] ;
255 -> 256 ;
257 [label="gini = 0.0\nsamples = 1\nvalue = [0, 1, 0, 0]"] ;
255 -> 257 ;
258 [label="Age <= 29.0\ngini = 0.198\nsamples = 9\nvalue = [0, 1, 0, 8]"] ;
254 -> 258 ;
259 [label="gini = 0.0\nsamples = 6\nvalue = [0, 0, 0, 6]"] ;
258 -> 259 ;
260 [label="Height <= 192.0\ngini = 0.444\nsamples = 3\nvalue = [0, 1, 0, 2]"] ;
258 -> 260 ;
261 [label="gini = 0.0\nsamples = 1\nvalue = [0, 0, 0, 1]"] ;
260 -> 261 ;
262 [label="Height <= 194.5\ngini = 0.5\nsamples = 2\nvalue = [0, 1, 0, 1]"] ;
260 -> 262 ;
263 [label="gini = 0.0\nsamples = 1\nvalue = [0, 1, 0, 0]"] ;
262 -> 263 ;
264 [label="gini = 0.0\nsamples = 1\nvalue = [0, 0, 0, 1]"] ;
262 -> 264 ;
265 [label="Sport <= 1.5\ngini = 0.613\nsamples = 88\nvalue = [3, 18, 19, 48]"] ;
9 -> 265 ;
266 [label="Weight <= 64.0\ngini = 0.669\nsamples = 38\nvalue = [3, 8, 18, 9]"] ;
265 -> 266 ;
267 [label="gini = 0.0\nsamples = 3\nvalue = [0, 3, 0, 0]"] ;
266 -> 267 ;
268 [label="Age <= 26.5\ngini = 0.642\nsamples = 35\nvalue = [3, 5, 18, 9]"] ;
266 -> 268 ;
269 [label="Height <= 188.5\ngini = 0.571\nsamples = 26\nvalue = [3, 3, 16, 4]"] ;
268 -> 269 ;
270 [label="Weight <= 66.0\ngini = 0.515\nsamples = 20\nvalue = [3, 0, 13, 4]"] ;
269 -> 270 ;
271 [label="gini = 0.0\nsamples = 1\nvalue = [0, 0, 0, 1]"] ;
270 -> 271 ;
272 [label="Age <= 24.0\ngini = 0.482\nsamples = 19\nvalue = [3, 0, 13, 3]"] ;
270 -> 272 ;
273 [label="Weight <= 98.0\ngini = 0.298\nsamples = 11\nvalue = [0, 0, 9, 2]"] ;
272 -> 273 ;
274 [label="Age <= 20.5\ngini = 0.198\nsamples = 9\nvalue = [0, 0, 8, 1]"] ;
273 -> 274 ;
275 [label="Height <= 181.0\ngini = 0.444\nsamples = 3\nvalue = [0, 0, 2, 1]"] ;
274 -> 275 ;
276 [label="gini = 0.0\nsamples = 1\nvalue = [0, 0, 1, 0]"] ;
275 -> 276 ;
277 [label="Height <= 185.0\ngini = 0.5\nsamples = 2\nvalue = [0, 0, 1, 1]"] ;
275 -> 277 ;
278 [label="gini = 0.0\nsamples = 1\nvalue = [0, 0, 0, 1]"] ;
277 -> 278 ;
279 [label="gini = 0.0\nsamples = 1\nvalue = [0, 0, 1, 0]"] ;
277 -> 279 ;
280 [label="gini = 0.0\nsamples = 6\nvalue = [0, 0, 6, 0]"] ;
274 -> 280 ;
281 [label="Weight <= 115.5\ngini = 0.5\nsamples = 2\nvalue = [0, 0, 1, 1]"] ;
273 -> 281 ;
282 [label="gini = 0.0\nsamples = 1\nvalue = [0, 0, 0, 1]"] ;
281 -> 282 ;
283 [label="gini = 0.0\nsamples = 1\nvalue = [0, 0, 1, 0]"] ;
281 -> 283 ;
284 [label="Height <= 177.5\ngini = 0.594\nsamples = 8\nvalue = [3, 0, 4, 1]"] ;
272 -> 284 ;
285 [label="gini = 0.0\nsamples = 2\nvalue = [0, 0, 2, 0]"] ;
284 -> 285 ;
286 [label="Height <= 179.0\ngini = 0.611\nsamples = 6\nvalue = [3, 0, 2, 1]"] ;
284 -> 286 ;
287 [label="gini = 0.0\nsamples = 1\nvalue = [0, 0, 0, 1]"] ;
286 -> 287 ;
288 [label="Weight <= 90.5\ngini = 0.48\nsamples = 5\nvalue = [3, 0, 2, 0]"] ;
286 -> 288 ;
289 [label="Height <= 183.0\ngini = 0.375\nsamples = 4\nvalue = [3, 0, 1, 0]"] ;
288 -> 289 ;
290 [label="Height <= 181.0\ngini = 0.5\nsamples = 2\nvalue = [1, 0, 1, 0]"] ;
289 -> 290 ;
291 [label="gini = 0.0\nsamples = 1\nvalue = [1, 0, 0, 0]"] ;
290 -> 291 ;
292 [label="gini = 0.0\nsamples = 1\nvalue = [0, 0, 1, 0]"] ;
290 -> 292 ;
293 [label="gini = 0.0\nsamples = 2\nvalue = [2, 0, 0, 0]"] ;
289 -> 293 ;
294 [label="gini = 0.0\nsamples = 1\nvalue = [0, 0, 1, 0]"] ;
288 -> 294 ;
295 [label="Age <= 22.0\ngini = 0.5\nsamples = 6\nvalue = [0, 3, 3, 0]"] ;
269 -> 295 ;
296 [label="gini = 0.0\nsamples = 1\nvalue = [0, 0, 1, 0]"] ;
295 -> 296 ;
297 [label="Weight <= 86.0\ngini = 0.48\nsamples = 5\nvalue = [0, 3, 2, 0]"] ;
295 -> 297 ;
298 [label="Weight <= 77.5\ngini = 0.444\nsamples = 3\nvalue = [0, 1, 2, 0]"] ;
297 -> 298 ;
299 [label="gini = 0.0\nsamples = 1\nvalue = [0, 0, 1, 0]"] ;
298 -> 299 ;
300 [label="Weight <= 83.0\ngini = 0.5\nsamples = 2\nvalue = [0, 1, 1, 0]"] ;
298 -> 300 ;
301 [label="gini = 0.0\nsamples = 1\nvalue = [0, 1, 0, 0]"] ;
300 -> 301 ;
302 [label="gini = 0.0\nsamples = 1\nvalue = [0, 0, 1, 0]"] ;
300 -> 302 ;
303 [label="gini = 0.0\nsamples = 2\nvalue = [0, 2, 0, 0]"] ;
297 -> 303 ;
304 [label="Height <= 183.0\ngini = 0.593\nsamples = 9\nvalue = [0, 2, 2, 5]"] ;
268 -> 304 ;
305 [label="Age <= 28.0\ngini = 0.444\nsamples = 3\nvalue = [0, 2, 0, 1]"] ;
304 -> 305 ;
306 [label="gini = 0.0\nsamples = 1\nvalue = [0, 1, 0, 0]"] ;
305 -> 306 ;
307 [label="Age <= 31.5\ngini = 0.5\nsamples = 2\nvalue = [0, 1, 0, 1]"] ;
305 -> 307 ;
308 [label="gini = 0.0\nsamples = 1\nvalue = [0, 0, 0, 1]"] ;
307 -> 308 ;
309 [label="gini = 0.0\nsamples = 1\nvalue = [0, 1, 0, 0]"] ;
307 -> 309 ;
310 [label="Sport <= 0.5\ngini = 0.444\nsamples = 6\nvalue = [0, 0, 2, 4]"] ;
304 -> 310 ;
311 [label="Weight <= 102.5\ngini = 0.32\nsamples = 5\nvalue = [0, 0, 1, 4]"] ;
310 -> 311 ;
312 [label="gini = 0.0\nsamples = 3\nvalue = [0, 0, 0, 3]"] ;
311 -> 312 ;
313 [label="Height <= 193.0\ngini = 0.5\nsamples = 2\nvalue = [0, 0, 1, 1]"] ;
311 -> 313 ;
314 [label="gini = 0.0\nsamples = 1\nvalue = [0, 0, 1, 0]"] ;
313 -> 314 ;
315 [label="gini = 0.0\nsamples = 1\nvalue = [0, 0, 0, 1]"] ;
313 -> 315 ;
316 [label="gini = 0.0\nsamples = 1\nvalue = [0, 0, 1, 0]"] ;
310 -> 316 ;
317 [label="Age <= 20.5\ngini = 0.351\nsamples = 50\nvalue = [0, 10, 1, 39]"] ;
265 -> 317 ;
318 [label="Sport <= 3.5\ngini = 0.444\nsamples = 9\nvalue = [0, 6, 0, 3]"] ;
317 -> 318 ;
319 [label="gini = 0.0\nsamples = 2\nvalue = [0, 0, 0, 2]"] ;
318 -> 319 ;
320 [label="Age <= 19.5\ngini = 0.245\nsamples = 7\nvalue = [0, 6, 0, 1]"] ;
318 -> 320 ;
321 [label="Weight <= 93.5\ngini = 0.5\nsamples = 2\nvalue = [0, 1, 0, 1]"] ;
320 -> 321 ;
322 [label="gini = 0.0\nsamples = 1\nvalue = [0, 1, 0, 0]"] ;
321 -> 322 ;
323 [label="gini = 0.0\nsamples = 1\nvalue = [0, 0, 0, 1]"] ;
321 -> 323 ;
324 [label="gini = 0.0\nsamples = 5\nvalue = [0, 5, 0, 0]"] ;
320 -> 324 ;
325 [label="Weight <= 54.5\ngini = 0.219\nsamples = 41\nvalue = [0, 4, 1, 36]"] ;
317 -> 325 ;
326 [label="Weight <= 51.0\ngini = 0.625\nsamples = 4\nvalue = [0, 2, 1, 1]"] ;
325 -> 326 ;
327 [label="Sport <= 3.5\ngini = 0.5\nsamples = 2\nvalue = [0, 0, 1, 1]"] ;
326 -> 327 ;
328 [label="gini = 0.0\nsamples = 1\nvalue = [0, 0, 1, 0]"] ;
327 -> 328 ;
329 [label="gini = 0.0\nsamples = 1\nvalue = [0, 0, 0, 1]"] ;
327 -> 329 ;
330 [label="gini = 0.0\nsamples = 2\nvalue = [0, 2, 0, 0]"] ;
326 -> 330 ;
331 [label="Height <= 191.5\ngini = 0.102\nsamples = 37\nvalue = [0, 2, 0, 35]"] ;
325 -> 331 ;
332 [label="gini = 0.0\nsamples = 26\nvalue = [0, 0, 0, 26]"] ;
331 -> 332 ;
333 [label="Height <= 192.5\ngini = 0.298\nsamples = 11\nvalue = [0, 2, 0, 9]"] ;
331 -> 333 ;
334 [label="gini = 0.0\nsamples = 1\nvalue = [0, 1, 0, 0]"] ;
333 -> 334 ;
335 [label="Age <= 21.5\ngini = 0.18\nsamples = 10\nvalue = [0, 1, 0, 9]"] ;
333 -> 335 ;
336 [label="gini = 0.0\nsamples = 1\nvalue = [0, 1, 0, 0]"] ;
335 -> 336 ;
337 [label="gini = 0.0\nsamples = 9\nvalue = [0, 0, 0, 9]"] ;
335 -> 337 ;
338 [label="Host_Country <= 8.5\ngini = 0.669\nsamples = 176\nvalue = [19, 19, 66, 72]"] ;
8 -> 338 ;
339 [label="Weight <= 70.5\ngini = 0.659\nsamples = 110\nvalue = [15, 12, 29, 54]"] ;
338 -> 339 ;
340 [label="Height <= 166.5\ngini = 0.58\nsamples = 61\nvalue = [9, 7, 8, 37]"] ;
339 -> 340 ;
341 [label="Height <= 165.5\ngini = 0.694\nsamples = 14\nvalue = [1, 3, 5, 5]"] ;
340 -> 341 ;
342 [label="Host_Country <= 3.5\ngini = 0.625\nsamples = 4\nvalue = [1, 1, 0, 2]"] ;
341 -> 342 ;
343 [label="gini = 0.5\nsamples = 2\nvalue = [1, 0, 0, 1]"] ;
342 -> 343 ;
344 [label="gini = 0.5\nsamples = 2\nvalue = [0, 1, 0, 1]"] ;
342 -> 344 ;
345 [label="Age <= 21.0\ngini = 0.62\nsamples = 10\nvalue = [0, 2, 5, 3]"] ;
341 -> 345 ;
346 [label="gini = 0.667\nsamples = 3\nvalue = [0, 1, 1, 1]"] ;
345 -> 346 ;
347 [label="gini = 0.571\nsamples = 7\nvalue = [0, 1, 4, 2]"] ;
345 -> 347 ;
348 [label="Height <= 168.5\ngini = 0.496\nsamples = 47\nvalue = [8, 4, 3, 32]"] ;
340 -> 348 ;
349 [label="Host_Country <= 5.0\ngini = 0.556\nsamples = 13\nvalue = [5, 1, 0, 7]"] ;
348 -> 349 ;
350 [label="Age <= 27.0\ngini = 0.32\nsamples = 5\nvalue = [0, 1, 0, 4]"] ;
349 -> 350 ;
351 [label="gini = 0.0\nsamples = 3\nvalue = [0, 0, 0, 3]"] ;
350 -> 351 ;
352 [label="gini = 0.5\nsamples = 2\nvalue = [0, 1, 0, 1]"] ;
350 -> 352 ;
353 [label="Age <= 21.5\ngini = 0.469\nsamples = 8\nvalue = [5, 0, 0, 3]"] ;
349 -> 353 ;
354 [label="gini = 0.5\nsamples = 2\nvalue = [1, 0, 0, 1]"] ;
353 -> 354 ;
355 [label="Weight <= 64.0\ngini = 0.444\nsamples = 6\nvalue = [4, 0, 0, 2]"] ;
353 -> 355 ;
356 [label="gini = 0.444\nsamples = 3\nvalue = [2, 0, 0, 1]"] ;
355 -> 356 ;
357 [label="gini = 0.444\nsamples = 3\nvalue = [2, 0, 0, 1]"] ;
355 -> 357 ;
358 [label="Age <= 18.5\ngini = 0.436\nsamples = 34\nvalue = [3, 3, 3, 25]"] ;
348 -> 358 ;
359 [label="Height <= 173.5\ngini = 0.5\nsamples = 6\nvalue = [3, 0, 0, 3]"] ;
358 -> 359 ;
360 [label="gini = 0.5\nsamples = 2\nvalue = [1, 0, 0, 1]"] ;
359 -> 360 ;
361 [label="gini = 0.5\nsamples = 4\nvalue = [2, 0, 0, 2]"] ;
359 -> 361 ;
362 [label="Host_Country <= 7.5\ngini = 0.36\nsamples = 28\nvalue = [0, 3, 3, 22]"] ;
358 -> 362 ;
363 [label="Weight <= 62.0\ngini = 0.204\nsamples = 18\nvalue = [0, 1, 1, 16]"] ;
362 -> 363 ;
364 [label="Host_Country <= 0.5\ngini = 0.375\nsamples = 4\nvalue = [0, 0, 1, 3]"] ;
363 -> 364 ;
365 [label="gini = 0.444\nsamples = 3\nvalue = [0, 0, 1, 2]"] ;
364 -> 365 ;
366 [label="gini = 0.0\nsamples = 1\nvalue = [0, 0, 0, 1]"] ;
364 -> 366 ;
367 [label="Weight <= 67.5\ngini = 0.133\nsamples = 14\nvalue = [0, 1, 0, 13]"] ;
363 -> 367 ;
368 [label="gini = 0.0\nsamples = 8\nvalue = [0, 0, 0, 8]"] ;
367 -> 368 ;
369 [label="Host_Country <= 5.0\ngini = 0.278\nsamples = 6\nvalue = [0, 1, 0, 5]"] ;
367 -> 369 ;
370 [label="Age <= 23.0\ngini = 0.375\nsamples = 4\nvalue = [0, 1, 0, 3]"] ;
369 -> 370 ;
371 [label="gini = 0.0\nsamples = 1\nvalue = [0, 0, 0, 1]"] ;
370 -> 371 ;
372 [label="gini = 0.444\nsamples = 3\nvalue = [0, 1, 0, 2]"] ;
370 -> 372 ;
373 [label="gini = 0.0\nsamples = 2\nvalue = [0, 0, 0, 2]"] ;
369 -> 373 ;
374 [label="Age <= 21.0\ngini = 0.56\nsamples = 10\nvalue = [0, 2, 2, 6]"] ;
362 -> 374 ;
375 [label="gini = 0.5\nsamples = 2\nvalue = [0, 1, 0, 1]"] ;
374 -> 375 ;
376 [label="Weight <= 64.5\ngini = 0.531\nsamples = 8\nvalue = [0, 1, 2, 5]"] ;
374 -> 376 ;
377 [label="gini = 0.0\nsamples = 1\nvalue = [0, 0, 0, 1]"] ;
376 -> 377 ;
378 [label="gini = 0.571\nsamples = 7\nvalue = [0, 1, 2, 4]"] ;
376 -> 378 ;
379 [label="Age <= 26.0\ngini = 0.671\nsamples = 49\nvalue = [6, 5, 21, 17]"] ;
339 -> 379 ;
380 [label="Age <= 24.0\ngini = 0.738\nsamples = 15\nvalue = [4, 3, 3, 5]"] ;
379 -> 380 ;
381 [label="Height <= 176.596\ngini = 0.708\nsamples = 12\nvalue = [4, 1, 3, 4]"] ;
380 -> 381 ;
382 [label="Weight <= 73.5\ngini = 0.5\nsamples = 4\nvalue = [2, 0, 0, 2]"] ;
381 -> 382 ;
383 [label="gini = 0.5\nsamples = 2\nvalue = [1, 0, 0, 1]"] ;
382 -> 383 ;
384 [label="gini = 0.5\nsamples = 2\nvalue = [1, 0, 0, 1]"] ;
382 -> 384 ;
385 [label="Height <= 184.596\ngini = 0.719\nsamples = 8\nvalue = [2, 1, 3, 2]"] ;
381 -> 385 ;
386 [label="Age <= 22.0\ngini = 0.694\nsamples = 7\nvalue = [2, 1, 3, 1]"] ;
385 -> 386 ;
387 [label="gini = 0.5\nsamples = 2\nvalue = [0, 0, 1, 1]"] ;
386 -> 387 ;
388 [label="gini = 0.64\nsamples = 5\nvalue = [2, 1, 2, 0]"] ;
386 -> 388 ;
389 [label="gini = 0.0\nsamples = 1\nvalue = [0, 0, 0, 1]"] ;
385 -> 389 ;
390 [label="Weight <= 73.0\ngini = 0.444\nsamples = 3\nvalue = [0, 2, 0, 1]"] ;
380 -> 390 ;
391 [label="gini = 0.5\nsamples = 2\nvalue = [0, 1, 0, 1]"] ;
390 -> 391 ;
392 [label="gini = 0.0\nsamples = 1\nvalue = [0, 1, 0, 0]"] ;
390 -> 392 ;
393 [label="Host_Country <= 0.5\ngini = 0.588\nsamples = 34\nvalue = [2, 2, 18, 12]"] ;
379 -> 393 ;
394 [label="gini = 0.0\nsamples = 2\nvalue = [0, 0, 2, 0]"] ;
393 -> 394 ;
395 [label="Host_Country <= 2.0\ngini = 0.602\nsamples = 32\nvalue = [2, 2, 16, 12]"] ;
393 -> 395 ;
396 [label="gini = 0.0\nsamples = 2\nvalue = [0, 0, 0, 2]"] ;
395 -> 396 ;
397 [label="Height <= 181.5\ngini = 0.596\nsamples = 30\nvalue = [2, 2, 16, 10]"] ;
395 -> 397 ;
398 [label="Weight <= 72.43\ngini = 0.59\nsamples = 29\nvalue = [2, 2, 16, 9]"] ;
397 -> 398 ;
399 [label="Age <= 29.5\ngini = 0.663\nsamples = 14\nvalue = [1, 2, 6, 5]"] ;
398 -> 399 ;
400 [label="gini = 0.571\nsamples = 7\nvalue = [0, 1, 4, 2]"] ;
399 -> 400 ;
401 [label="Height <= 172.5\ngini = 0.694\nsamples = 7\nvalue = [1, 1, 2, 3]"] ;
399 -> 401 ;
402 [label="gini = 0.625\nsamples = 4\nvalue = [0, 1, 1, 2]"] ;
401 -> 402 ;
403 [label="gini = 0.667\nsamples = 3\nvalue = [1, 0, 1, 1]"] ;
401 -> 403 ;
404 [label="Sport <= 6.5\ngini = 0.48\nsamples = 15\nvalue = [1, 0, 10, 4]"] ;
398 -> 404 ;
405 [label="Age <= 27.5\ngini = 0.5\nsamples = 14\nvalue = [1, 0, 9, 4]"] ;
404 -> 405 ;
406 [label="gini = 0.0\nsamples = 1\nvalue = [0, 0, 1, 0]"] ;
405 -> 406 ;
407 [label="Age <= 28.5\ngini = 0.521\nsamples = 13\nvalue = [1, 0, 8, 4]"] ;
405 -> 407 ;
408 [label="gini = 0.5\nsamples = 4\nvalue = [0, 0, 2, 2]"] ;
407 -> 408 ;
409 [label="Age <= 29.5\ngini = 0.494\nsamples = 9\nvalue = [1, 0, 6, 2]"] ;
407 -> 409 ;
410 [label="gini = 0.5\nsamples = 2\nvalue = [1, 0, 1, 0]"] ;
409 -> 410 ;
411 [label="Age <= 32.0\ngini = 0.408\nsamples = 7\nvalue = [0, 0, 5, 2]"] ;
409 -> 411 ;
412 [label="gini = 0.444\nsamples = 6\nvalue = [0, 0, 4, 2]"] ;
411 -> 412 ;
413 [label="gini = 0.0\nsamples = 1\nvalue = [0, 0, 1, 0]"] ;
411 -> 413 ;
414 [label="gini = 0.0\nsamples = 1\nvalue = [0, 0, 1, 0]"] ;
404 -> 414 ;
415 [label="gini = 0.0\nsamples = 1\nvalue = [0, 0, 0, 1]"] ;
397 -> 415 ;
416 [label="Sport <= 6.5\ngini = 0.596\nsamples = 66\nvalue = [4, 7, 37, 18]"] ;
338 -> 416 ;
417 [label="Height <= 177.596\ngini = 0.557\nsamples = 57\nvalue = [3, 6, 35, 13]"] ;
416 -> 417 ;
418 [label="Height <= 166.5\ngini = 0.526\nsamples = 49\nvalue = [3, 5, 32, 9]"] ;
417 -> 418 ;
419 [label="Age <= 19.5\ngini = 0.58\nsamples = 10\nvalue = [0, 1, 5, 4]"] ;
418 -> 419 ;
420 [label="gini = 0.0\nsamples = 1\nvalue = [0, 0, 1, 0]"] ;
419 -> 420 ;
421 [label="Weight <= 59.0\ngini = 0.593\nsamples = 9\nvalue = [0, 1, 4, 4]"] ;
419 -> 421 ;
422 [label="gini = 0.5\nsamples = 4\nvalue = [0, 0, 2, 2]"] ;
421 -> 422 ;
423 [label="gini = 0.64\nsamples = 5\nvalue = [0, 1, 2, 2]"] ;
421 -> 423 ;
424 [label="Weight <= 69.0\ngini = 0.488\nsamples = 39\nvalue = [3, 4, 27, 5]"] ;
418 -> 424 ;
425 [label="Age <= 21.0\ngini = 0.245\nsamples = 14\nvalue = [0, 0, 12, 2]"] ;
424 -> 425 ;
426 [label="gini = 0.0\nsamples = 3\nvalue = [0, 0, 3, 0]"] ;
425 -> 426 ;
427 [label="Weight <= 63.5\ngini = 0.298\nsamples = 11\nvalue = [0, 0, 9, 2]"] ;
425 -> 427 ;
428 [label="Height <= 168.0\ngini = 0.346\nsamples = 9\nvalue = [0, 0, 7, 2]"] ;
427 -> 428 ;
429 [label="Age <= 22.5\ngini = 0.278\nsamples = 6\nvalue = [0, 0, 5, 1]"] ;
428 -> 429 ;
430 [label="gini = 0.0\nsamples = 1\nvalue = [0, 0, 1, 0]"] ;
429 -> 430 ;
431 [label="gini = 0.32\nsamples = 5\nvalue = [0, 0, 4, 1]"] ;
429 -> 431 ;
432 [label="gini = 0.444\nsamples = 3\nvalue = [0, 0, 2, 1]"] ;
428 -> 432 ;
433 [label="gini = 0.0\nsamples = 2\nvalue = [0, 0, 2, 0]"] ;
427 -> 433 ;
434 [label="Age <= 20.5\ngini = 0.586\nsamples = 25\nvalue = [3, 4, 15, 3]"] ;
424 -> 434 ;
435 [label="gini = 0.72\nsamples = 5\nvalue = [1, 2, 1, 1]"] ;
434 -> 435 ;
436 [label="Height <= 175.596\ngini = 0.48\nsamples = 20\nvalue = [2, 2, 14, 2]"] ;
434 -> 436 ;
437 [label="Host_Country <= 10.5\ngini = 0.219\nsamples = 8\nvalue = [0, 1, 7, 0]"] ;
436 -> 437 ;
438 [label="gini = 0.0\nsamples = 4\nvalue = [0, 0, 4, 0]"] ;
437 -> 438 ;
439 [label="gini = 0.375\nsamples = 4\nvalue = [0, 1, 3, 0]"] ;
437 -> 439 ;
440 [label="Age <= 27.5\ngini = 0.597\nsamples = 12\nvalue = [2, 1, 7, 2]"] ;
436 -> 440 ;
441 [label="gini = 0.5\nsamples = 2\nvalue = [1, 0, 1, 0]"] ;
440 -> 441 ;
442 [label="Age <= 31.5\ngini = 0.58\nsamples = 10\nvalue = [1, 1, 6, 2]"] ;
440 -> 442 ;
443 [label="gini = 0.56\nsamples = 5\nvalue = [1, 0, 3, 1]"] ;
442 -> 443 ;
444 [label="gini = 0.56\nsamples = 5\nvalue = [0, 1, 3, 1]"] ;
442 -> 444 ;
445 [label="gini = 0.594\nsamples = 8\nvalue = [0, 1, 3, 4]"] ;
417 -> 445 ;
446 [label="Weight <= 85.0\ngini = 0.617\nsamples = 9\nvalue = [1, 1, 2, 5]"] ;
416 -> 446 ;
447 [label="Height <= 169.0\ngini = 0.32\nsamples = 5\nvalue = [1, 0, 0, 4]"] ;
446 -> 447 ;
448 [label="gini = 0.0\nsamples = 1\nvalue = [1, 0, 0, 0]"] ;
447 -> 448 ;
449 [label="gini = 0.0\nsamples = 4\nvalue = [0, 0, 0, 4]"] ;
447 -> 449 ;
450 [label="Weight <= 92.5\ngini = 0.625\nsamples = 4\nvalue = [0, 1, 2, 1]"] ;
446 -> 450 ;
451 [label="gini = 0.0\nsamples = 2\nvalue = [0, 0, 2, 0]"] ;
450 -> 451 ;
452 [label="Height <= 180.0\ngini = 0.5\nsamples = 2\nvalue = [0, 1, 0, 1]"] ;
450 -> 452 ;
453 [label="gini = 0.0\nsamples = 1\nvalue = [0, 1, 0, 0]"] ;
452 -> 453 ;
454 [label="gini = 0.0\nsamples = 1\nvalue = [0, 0, 0, 1]"] ;
452 -> 454 ;
455 [label="Sport <= 9.5\ngini = 0.691\nsamples = 379\nvalue = [20, 135, 94, 130]"] ;
5 -> 455 ;
456 [label="Sport <= 8.5\ngini = 0.634\nsamples = 120\nvalue = [7, 59, 15, 39]"] ;
455 -> 456 ;
457 [label="Host_Country <= 13.0\ngini = 0.663\nsamples = 104\nvalue = [7, 43, 15, 39]"] ;
456 -> 457 ;
458 [label="Age <= 25.333\ngini = 0.575\nsamples = 73\nvalue = [6, 40, 2, 25]"] ;
457 -> 458 ;
459 [label="Host_Country <= 7.5\ngini = 0.527\nsamples = 68\nvalue = [3, 40, 1, 24]"] ;
458 -> 459 ;
460 [label="Host_Country <= 4.0\ngini = 0.601\nsamples = 24\nvalue = [3, 10, 0, 11]"] ;
459 -> 460 ;
461 [label="Host_Country <= 0.5\ngini = 0.575\nsamples = 23\nvalue = [2, 10, 0, 11]"] ;
460 -> 461 ;
462 [label="Age <= 19.5\ngini = 0.602\nsamples = 14\nvalue = [2, 7, 0, 5]"] ;
461 -> 462 ;
463 [label="gini = 0.5\nsamples = 2\nvalue = [1, 1, 0, 0]"] ;
462 -> 463 ;
464 [label="Weight <= 77.0\ngini = 0.569\nsamples = 12\nvalue = [1, 6, 0, 5]"] ;
462 -> 464 ;
465 [label="Weight <= 75.5\ngini = 0.611\nsamples = 6\nvalue = [1, 3, 0, 2]"] ;
464 -> 465 ;
466 [label="gini = 0.5\nsamples = 2\nvalue = [0, 1, 0, 1]"] ;
465 -> 466 ;
467 [label="gini = 0.625\nsamples = 4\nvalue = [1, 2, 0, 1]"] ;
465 -> 467 ;
468 [label="Weight <= 80.0\ngini = 0.5\nsamples = 6\nvalue = [0, 3, 0, 3]"] ;
464 -> 468 ;
469 [label="gini = 0.5\nsamples = 2\nvalue = [0, 1, 0, 1]"] ;
468 -> 469 ;
470 [label="Weight <= 86.0\ngini = 0.5\nsamples = 4\nvalue = [0, 2, 0, 2]"] ;
468 -> 470 ;
471 [label="gini = 0.5\nsamples = 2\nvalue = [0, 1, 0, 1]"] ;
470 -> 471 ;
472 [label="gini = 0.5\nsamples = 2\nvalue = [0, 1, 0, 1]"] ;
470 -> 472 ;
473 [label="Height <= 178.096\ngini = 0.444\nsamples = 9\nvalue = [0, 3, 0, 6]"] ;
461 -> 473 ;
474 [label="Age <= 19.5\ngini = 0.5\nsamples = 6\nvalue = [0, 3, 0, 3]"] ;
473 -> 474 ;
475 [label="Height <= 174.596\ngini = 0.48\nsamples = 5\nvalue = [0, 2, 0, 3]"] ;
474 -> 475 ;
476 [label="gini = 0.5\nsamples = 2\nvalue = [0, 1, 0, 1]"] ;
475 -> 476 ;
477 [label="gini = 0.444\nsamples = 3\nvalue = [0, 1, 0, 2]"] ;
475 -> 477 ;
478 [label="gini = 0.0\nsamples = 1\nvalue = [0, 1, 0, 0]"] ;
474 -> 478 ;
479 [label="gini = 0.0\nsamples = 3\nvalue = [0, 0, 0, 3]"] ;
473 -> 479 ;
480 [label="gini = 0.0\nsamples = 1\nvalue = [1, 0, 0, 0]"] ;
460 -> 480 ;
481 [label="Age <= 16.5\ngini = 0.447\nsamples = 44\nvalue = [0, 30, 1, 13]"] ;
459 -> 481 ;
482 [label="gini = 0.0\nsamples = 1\nvalue = [0, 0, 0, 1]"] ;
481 -> 482 ;
483 [label="Weight <= 67.5\ngini = 0.435\nsamples = 43\nvalue = [0, 30, 1, 12]"] ;
481 -> 483 ;
484 [label="gini = 0.444\nsamples = 3\nvalue = [0, 1, 0, 2]"] ;
483 -> 484 ;
485 [label="Height <= 182.0\ngini = 0.411\nsamples = 40\nvalue = [0, 29, 1, 10]"] ;
483 -> 485 ;
486 [label="Weight <= 74.5\ngini = 0.219\nsamples = 16\nvalue = [0, 14, 0, 2]"] ;
485 -> 486 ;
487 [label="gini = 0.0\nsamples = 8\nvalue = [0, 8, 0, 0]"] ;
486 -> 487 ;
488 [label="Height <= 180.5\ngini = 0.375\nsamples = 8\nvalue = [0, 6, 0, 2]"] ;
486 -> 488 ;
489 [label="Age <= 22.0\ngini = 0.48\nsamples = 5\nvalue = [0, 3, 0, 2]"] ;
488 -> 489 ;
490 [label="gini = 0.5\nsamples = 2\nvalue = [0, 1, 0, 1]"] ;
489 -> 490 ;
491 [label="gini = 0.444\nsamples = 3\nvalue = [0, 2, 0, 1]"] ;
489 -> 491 ;
492 [label="gini = 0.0\nsamples = 3\nvalue = [0, 3, 0, 0]"] ;
488 -> 492 ;
493 [label="Age <= 19.5\ngini = 0.497\nsamples = 24\nvalue = [0, 15, 1, 8]"] ;
485 -> 493 ;
494 [label="gini = 0.0\nsamples = 1\nvalue = [0, 0, 0, 1]"] ;
493 -> 494 ;
495 [label="Weight <= 86.5\ngini = 0.48\nsamples = 23\nvalue = [0, 15, 1, 7]"] ;
493 -> 495 ;
496 [label="Height <= 191.5\ngini = 0.526\nsamples = 19\nvalue = [0, 11, 1, 7]"] ;
495 -> 496 ;
497 [label="Age <= 23.5\ngini = 0.492\nsamples = 16\nvalue = [0, 9, 0, 7]"] ;
496 -> 497 ;
498 [label="Age <= 22.5\ngini = 0.498\nsamples = 15\nvalue = [0, 8, 0, 7]"] ;
497 -> 498 ;
499 [label="Height <= 189.5\ngini = 0.486\nsamples = 12\nvalue = [0, 7, 0, 5]"] ;
498 -> 499 ;
500 [label="gini = 0.444\nsamples = 6\nvalue = [0, 4, 0, 2]"] ;
499 -> 500 ;
501 [label="gini = 0.5\nsamples = 6\nvalue = [0, 3, 0, 3]"] ;
499 -> 501 ;
502 [label="Host_Country <= 10.0\ngini = 0.444\nsamples = 3\nvalue = [0, 1, 0, 2]"] ;
498 -> 502 ;
503 [label="gini = 0.5\nsamples = 2\nvalue = [0, 1, 0, 1]"] ;
502 -> 503 ;
504 [label="gini = 0.0\nsamples = 1\nvalue = [0, 0, 0, 1]"] ;
502 -> 504 ;
505 [label="gini = 0.0\nsamples = 1\nvalue = [0, 1, 0, 0]"] ;
497 -> 505 ;
506 [label="gini = 0.444\nsamples = 3\nvalue = [0, 2, 1, 0]"] ;
496 -> 506 ;
507 [label="gini = 0.0\nsamples = 4\nvalue = [0, 4, 0, 0]"] ;
495 -> 507 ;
508 [label="Age <= 26.333\ngini = 0.56\nsamples = 5\nvalue = [3, 0, 1, 1]"] ;
458 -> 508 ;
509 [label="gini = 0.0\nsamples = 3\nvalue = [3, 0, 0, 0]"] ;
508 -> 509 ;
510 [label="Age <= 27.5\ngini = 0.5\nsamples = 2\nvalue = [0, 0, 1, 1]"] ;
508 -> 510 ;
511 [label="gini = 0.0\nsamples = 1\nvalue = [0, 0, 0, 1]"] ;
510 -> 511 ;
512 [label="gini = 0.0\nsamples = 1\nvalue = [0, 0, 1, 0]"] ;
510 -> 512 ;
513 [label="Height <= 192.5\ngini = 0.61\nsamples = 31\nvalue = [1, 3, 13, 14]"] ;
457 -> 513 ;
514 [label="Age <= 19.5\ngini = 0.611\nsamples = 29\nvalue = [1, 3, 11, 14]"] ;
513 -> 514 ;
515 [label="Weight <= 75.5\ngini = 0.597\nsamples = 12\nvalue = [1, 2, 2, 7]"] ;
514 -> 515 ;
516 [label="Weight <= 73.0\ngini = 0.32\nsamples = 5\nvalue = [0, 1, 0, 4]"] ;
515 -> 516 ;
517 [label="gini = 0.0\nsamples = 2\nvalue = [0, 0, 0, 2]"] ;
516 -> 517 ;
518 [label="gini = 0.444\nsamples = 3\nvalue = [0, 1, 0, 2]"] ;
516 -> 518 ;
519 [label="Height <= 189.5\ngini = 0.694\nsamples = 7\nvalue = [1, 1, 2, 3]"] ;
515 -> 519 ;
520 [label="Age <= 18.0\ngini = 0.667\nsamples = 3\nvalue = [1, 1, 1, 0]"] ;
519 -> 520 ;
521 [label="gini = 0.0\nsamples = 1\nvalue = [1, 0, 0, 0]"] ;
520 -> 521 ;
522 [label="gini = 0.5\nsamples = 2\nvalue = [0, 1, 1, 0]"] ;
520 -> 522 ;
523 [label="Age <= 18.5\ngini = 0.375\nsamples = 4\nvalue = [0, 0, 1, 3]"] ;
519 -> 523 ;
524 [label="gini = 0.5\nsamples = 2\nvalue = [0, 0, 1, 1]"] ;
523 -> 524 ;
525 [label="gini = 0.0\nsamples = 2\nvalue = [0, 0, 0, 2]"] ;
523 -> 525 ;
526 [label="Age <= 20.5\ngini = 0.547\nsamples = 17\nvalue = [0, 1, 9, 7]"] ;
514 -> 526 ;
527 [label="Height <= 188.5\ngini = 0.278\nsamples = 6\nvalue = [0, 1, 5, 0]"] ;
526 -> 527 ;
528 [label="gini = 0.0\nsamples = 5\nvalue = [0, 0, 5, 0]"] ;
527 -> 528 ;
529 [label="gini = 0.0\nsamples = 1\nvalue = [0, 1, 0, 0]"] ;
527 -> 529 ;
530 [label="Age <= 21.5\ngini = 0.463\nsamples = 11\nvalue = [0, 0, 4, 7]"] ;
526 -> 530 ;
531 [label="Weight <= 81.5\ngini = 0.5\nsamples = 6\nvalue = [0, 0, 3, 3]"] ;
530 -> 531 ;
532 [label="Weight <= 76.5\ngini = 0.48\nsamples = 5\nvalue = [0, 0, 3, 2]"] ;
531 -> 532 ;
533 [label="gini = 0.444\nsamples = 3\nvalue = [0, 0, 2, 1]"] ;
532 -> 533 ;
534 [label="gini = 0.5\nsamples = 2\nvalue = [0, 0, 1, 1]"] ;
532 -> 534 ;
535 [label="gini = 0.0\nsamples = 1\nvalue = [0, 0, 0, 1]"] ;
531 -> 535 ;
536 [label="Height <= 188.5\ngini = 0.32\nsamples = 5\nvalue = [0, 0, 1, 4]"] ;
530 -> 536 ;
537 [label="gini = 0.0\nsamples = 2\nvalue = [0, 0, 0, 2]"] ;
536 -> 537 ;
538 [label="gini = 0.444\nsamples = 3\nvalue = [0, 0, 1, 2]"] ;
536 -> 538 ;
539 [label="gini = 0.0\nsamples = 2\nvalue = [0, 0, 2, 0]"] ;
513 -> 539 ;
540 [label="gini = 0.0\nsamples = 16\nvalue = [0, 16, 0, 0]"] ;
456 -> 540 ;
541 [label="Height <= 177.096\ngini = 0.695\nsamples = 259\nvalue = [13, 76, 79, 91]"] ;
455 -> 541 ;
542 [label="Weight <= 77.0\ngini = 0.646\nsamples = 76\nvalue = [5, 11, 37, 23]"] ;
541 -> 542 ;
543 [label="Host_Country <= 10.5\ngini = 0.616\nsamples = 68\nvalue = [4, 8, 36, 20]"] ;
542 -> 543 ;
544 [label="Host_Country <= 7.5\ngini = 0.656\nsamples = 49\nvalue = [4, 6, 22, 17]"] ;
543 -> 544 ;
545 [label="Sport <= 11.5\ngini = 0.642\nsamples = 35\nvalue = [3, 5, 18, 9]"] ;
544 -> 545 ;
546 [label="Host_Country <= 0.5\ngini = 0.626\nsamples = 33\nvalue = [3, 5, 18, 7]"] ;
545 -> 546 ;
547 [label="Age <= 37.5\ngini = 0.62\nsamples = 10\nvalue = [0, 2, 3, 5]"] ;
546 -> 547 ;
548 [label="Age <= 30.0\ngini = 0.531\nsamples = 8\nvalue = [0, 2, 1, 5]"] ;
547 -> 548 ;
549 [label="Height <= 175.0\ngini = 0.449\nsamples = 7\nvalue = [0, 1, 1, 5]"] ;
548 -> 549 ;
550 [label="gini = 0.0\nsamples = 3\nvalue = [0, 0, 0, 3]"] ;
549 -> 550 ;
551 [label="Age <= 27.0\ngini = 0.625\nsamples = 4\nvalue = [0, 1, 1, 2]"] ;
549 -> 551 ;
552 [label="gini = 0.5\nsamples = 2\nvalue = [0, 1, 0, 1]"] ;
551 -> 552 ;
553 [label="gini = 0.5\nsamples = 2\nvalue = [0, 0, 1, 1]"] ;
551 -> 553 ;
554 [label="gini = 0.0\nsamples = 1\nvalue = [0, 1, 0, 0]"] ;
548 -> 554 ;
555 [label="gini = 0.0\nsamples = 2\nvalue = [0, 0, 2, 0]"] ;
547 -> 555 ;
556 [label="Age <= 35.5\ngini = 0.533\nsamples = 23\nvalue = [3, 3, 15, 2]"] ;
546 -> 556 ;
557 [label="Age <= 21.5\ngini = 0.415\nsamples = 20\nvalue = [2, 1, 15, 2]"] ;
556 -> 557 ;
558 [label="gini = 0.0\nsamples = 1\nvalue = [1, 0, 0, 0]"] ;
557 -> 558 ;
559 [label="Height <= 175.5\ngini = 0.36\nsamples = 19\nvalue = [1, 1, 15, 2]"] ;
557 -> 559 ;
560 [label="Age <= 30.0\ngini = 0.153\nsamples = 12\nvalue = [1, 0, 11, 0]"] ;
559 -> 560 ;
561 [label="gini = 0.0\nsamples = 8\nvalue = [0, 0, 8, 0]"] ;
560 -> 561 ;
562 [label="Age <= 32.0\ngini = 0.375\nsamples = 4\nvalue = [1, 0, 3, 0]"] ;
560 -> 562 ;
563 [label="gini = 0.0\nsamples = 1\nvalue = [1, 0, 0, 0]"] ;
562 -> 563 ;
564 [label="gini = 0.0\nsamples = 3\nvalue = [0, 0, 3, 0]"] ;
562 -> 564 ;
565 [label="Age <= 31.0\ngini = 0.571\nsamples = 7\nvalue = [0, 1, 4, 2]"] ;
559 -> 565 ;
566 [label="Host_Country <= 5.0\ngini = 0.48\nsamples = 5\nvalue = [0, 0, 3, 2]"] ;
565 -> 566 ;
567 [label="Host_Country <= 2.0\ngini = 0.5\nsamples = 4\nvalue = [0, 0, 2, 2]"] ;
566 -> 567 ;
568 [label="gini = 0.5\nsamples = 2\nvalue = [0, 0, 1, 1]"] ;
567 -> 568 ;
569 [label="gini = 0.5\nsamples = 2\nvalue = [0, 0, 1, 1]"] ;
567 -> 569 ;
570 [label="gini = 0.0\nsamples = 1\nvalue = [0, 0, 1, 0]"] ;
566 -> 570 ;
571 [label="gini = 0.5\nsamples = 2\nvalue = [0, 1, 1, 0]"] ;
565 -> 571 ;
572 [label="Age <= 42.5\ngini = 0.444\nsamples = 3\nvalue = [1, 2, 0, 0]"] ;
556 -> 572 ;
573 [label="gini = 0.0\nsamples = 2\nvalue = [0, 2, 0, 0]"] ;
572 -> 573 ;
574 [label="gini = 0.0\nsamples = 1\nvalue = [1, 0, 0, 0]"] ;
572 -> 574 ;
575 [label="gini = 0.0\nsamples = 2\nvalue = [0, 0, 0, 2]"] ;
545 -> 575 ;
576 [label="Age <= 26.0\ngini = 0.582\nsamples = 14\nvalue = [1, 1, 4, 8]"] ;
544 -> 576 ;
577 [label="gini = 0.0\nsamples = 3\nvalue = [0, 0, 3, 0]"] ;
576 -> 577 ;
578 [label="Host_Country <= 8.5\ngini = 0.446\nsamples = 11\nvalue = [1, 1, 1, 8]"] ;
576 -> 578 ;
579 [label="Age <= 35.5\ngini = 0.198\nsamples = 9\nvalue = [0, 0, 1, 8]"] ;
578 -> 579 ;
580 [label="gini = 0.0\nsamples = 6\nvalue = [0, 0, 0, 6]"] ;
579 -> 580 ;
581 [label="Age <= 40.5\ngini = 0.444\nsamples = 3\nvalue = [0, 0, 1, 2]"] ;
579 -> 581 ;
582 [label="gini = 0.5\nsamples = 2\nvalue = [0, 0, 1, 1]"] ;
581 -> 582 ;
583 [label="gini = 0.0\nsamples = 1\nvalue = [0, 0, 0, 1]"] ;
581 -> 583 ;
584 [label="gini = 0.5\nsamples = 2\nvalue = [1, 1, 0, 0]"] ;
578 -> 584 ;
585 [label="Sport <= 10.5\ngini = 0.421\nsamples = 19\nvalue = [0, 2, 14, 3]"] ;
543 -> 585 ;
586 [label="gini = 0.0\nsamples = 5\nvalue = [0, 0, 5, 0]"] ;
585 -> 586 ;
587 [label="Age <= 36.5\ngini = 0.52\nsamples = 14\nvalue = [0, 2, 9, 3]"] ;
585 -> 587 ;
588 [label="Weight <= 72.0\ngini = 0.486\nsamples = 12\nvalue = [0, 1, 8, 3]"] ;
587 -> 588 ;
589 [label="Height <= 175.0\ngini = 0.42\nsamples = 10\nvalue = [0, 0, 7, 3]"] ;
588 -> 589 ;
590 [label="Weight <= 65.0\ngini = 0.278\nsamples = 6\nvalue = [0, 0, 5, 1]"] ;
589 -> 590 ;
591 [label="gini = 0.5\nsamples = 2\nvalue = [0, 0, 1, 1]"] ;
590 -> 591 ;
592 [label="gini = 0.0\nsamples = 4\nvalue = [0, 0, 4, 0]"] ;
590 -> 592 ;
593 [label="Age <= 29.0\ngini = 0.5\nsamples = 4\nvalue = [0, 0, 2, 2]"] ;
589 -> 593 ;
594 [label="gini = 0.5\nsamples = 2\nvalue = [0, 0, 1, 1]"] ;
593 -> 594 ;
595 [label="gini = 0.5\nsamples = 2\nvalue = [0, 0, 1, 1]"] ;
593 -> 595 ;
596 [label="gini = 0.5\nsamples = 2\nvalue = [0, 1, 1, 0]"] ;
588 -> 596 ;
597 [label="gini = 0.5\nsamples = 2\nvalue = [0, 1, 1, 0]"] ;
587 -> 597 ;
598 [label="Age <= 28.5\ngini = 0.688\nsamples = 8\nvalue = [1, 3, 1, 3]"] ;
542 -> 598 ;
599 [label="gini = 0.0\nsamples = 3\nvalue = [0, 0, 0, 3]"] ;
598 -> 599 ;
600 [label="Host_Country <= 10.0\ngini = 0.56\nsamples = 5\nvalue = [1, 3, 1, 0]"] ;
598 -> 600 ;
601 [label="Host_Country <= 5.0\ngini = 0.375\nsamples = 4\nvalue = [0, 3, 1, 0]"] ;
600 -> 601 ;
602 [label="Weight <= 79.5\ngini = 0.5\nsamples = 2\nvalue = [0, 1, 1, 0]"] ;
601 -> 602 ;
603 [label="gini = 0.0\nsamples = 1\nvalue = [0, 1, 0, 0]"] ;
602 -> 603 ;
604 [label="gini = 0.0\nsamples = 1\nvalue = [0, 0, 1, 0]"] ;
602 -> 604 ;
605 [label="gini = 0.0\nsamples = 2\nvalue = [0, 2, 0, 0]"] ;
601 -> 605 ;
606 [label="gini = 0.0\nsamples = 1\nvalue = [1, 0, 0, 0]"] ;
600 -> 606 ;
607 [label="Weight <= 75.5\ngini = 0.681\nsamples = 183\nvalue = [8, 65, 42, 68]"] ;
541 -> 607 ;
608 [label="Sport <= 11.5\ngini = 0.583\nsamples = 51\nvalue = [5, 12, 4, 30]"] ;
607 -> 608 ;
609 [label="Host_Country <= 10.5\ngini = 0.707\nsamples = 26\nvalue = [5, 11, 4, 6]"] ;
608 -> 609 ;
610 [label="Age <= 25.833\ngini = 0.612\nsamples = 14\nvalue = [5, 7, 1, 1]"] ;
609 -> 610 ;
611 [label="Height <= 177.596\ngini = 0.656\nsamples = 8\nvalue = [4, 2, 1, 1]"] ;
610 -> 611 ;
612 [label="gini = 0.0\nsamples = 3\nvalue = [3, 0, 0, 0]"] ;
611 -> 612 ;
613 [label="Height <= 179.0\ngini = 0.72\nsamples = 5\nvalue = [1, 2, 1, 1]"] ;
611 -> 613 ;
614 [label="Weight <= 73.0\ngini = 0.5\nsamples = 2\nvalue = [0, 0, 1, 1]"] ;
613 -> 614 ;
615 [label="gini = 0.0\nsamples = 1\nvalue = [0, 0, 0, 1]"] ;
614 -> 615 ;
616 [label="gini = 0.0\nsamples = 1\nvalue = [0, 0, 1, 0]"] ;
614 -> 616 ;
617 [label="Sport <= 10.5\ngini = 0.444\nsamples = 3\nvalue = [1, 2, 0, 0]"] ;
613 -> 617 ;
618 [label="gini = 0.0\nsamples = 2\nvalue = [0, 2, 0, 0]"] ;
617 -> 618 ;
619 [label="gini = 0.0\nsamples = 1\nvalue = [1, 0, 0, 0]"] ;
617 -> 619 ;
620 [label="Age <= 27.5\ngini = 0.278\nsamples = 6\nvalue = [1, 5, 0, 0]"] ;
610 -> 620 ;
621 [label="gini = 0.0\nsamples = 4\nvalue = [0, 4, 0, 0]"] ;
620 -> 621 ;
622 [label="Host_Country <= 7.0\ngini = 0.5\nsamples = 2\nvalue = [1, 1, 0, 0]"] ;
620 -> 622 ;
623 [label="gini = 0.0\nsamples = 1\nvalue = [1, 0, 0, 0]"] ;
622 -> 623 ;
624 [label="gini = 0.0\nsamples = 1\nvalue = [0, 1, 0, 0]"] ;
622 -> 624 ;
625 [label="Height <= 177.596\ngini = 0.653\nsamples = 12\nvalue = [0, 4, 3, 5]"] ;
609 -> 625 ;
626 [label="gini = 0.0\nsamples = 1\nvalue = [0, 0, 1, 0]"] ;
625 -> 626 ;
627 [label="Age <= 33.0\ngini = 0.628\nsamples = 11\nvalue = [0, 4, 2, 5]"] ;
625 -> 627 ;
628 [label="Weight <= 74.5\ngini = 0.568\nsamples = 9\nvalue = [0, 3, 1, 5]"] ;
627 -> 628 ;
629 [label="Weight <= 73.5\ngini = 0.531\nsamples = 8\nvalue = [0, 2, 1, 5]"] ;
628 -> 629 ;
630 [label="Height <= 180.5\ngini = 0.5\nsamples = 4\nvalue = [0, 2, 0, 2]"] ;
629 -> 630 ;
631 [label="gini = 0.5\nsamples = 2\nvalue = [0, 1, 0, 1]"] ;
630 -> 631 ;
632 [label="gini = 0.5\nsamples = 2\nvalue = [0, 1, 0, 1]"] ;
630 -> 632 ;
633 [label="Age <= 25.5\ngini = 0.375\nsamples = 4\nvalue = [0, 0, 1, 3]"] ;
629 -> 633 ;
634 [label="gini = 0.5\nsamples = 2\nvalue = [0, 0, 1, 1]"] ;
633 -> 634 ;
635 [label="gini = 0.0\nsamples = 2\nvalue = [0, 0, 0, 2]"] ;
633 -> 635 ;
636 [label="gini = 0.0\nsamples = 1\nvalue = [0, 1, 0, 0]"] ;
628 -> 636 ;
637 [label="gini = 0.5\nsamples = 2\nvalue = [0, 1, 1, 0]"] ;
627 -> 637 ;
638 [label="Host_Country <= 11.5\ngini = 0.077\nsamples = 25\nvalue = [0, 1, 0, 24]"] ;
608 -> 638 ;
639 [label="gini = 0.0\nsamples = 24\nvalue = [0, 0, 0, 24]"] ;
638 -> 639 ;
640 [label="gini = 0.0\nsamples = 1\nvalue = [0, 1, 0, 0]"] ;
638 -> 640 ;
641 [label="Host_Country <= 0.5\ngini = 0.673\nsamples = 132\nvalue = [3, 53, 38, 38]"] ;
607 -> 641 ;
642 [label="Sport <= 11.0\ngini = 0.5\nsamples = 18\nvalue = [1, 1, 12, 4]"] ;
641 -> 642 ;
643 [label="Weight <= 87.0\ngini = 0.5\nsamples = 6\nvalue = [1, 1, 0, 4]"] ;
642 -> 643 ;
644 [label="gini = 0.0\nsamples = 4\nvalue = [0, 0, 0, 4]"] ;
643 -> 644 ;
645 [label="gini = 0.5\nsamples = 2\nvalue = [1, 1, 0, 0]"] ;
643 -> 645 ;
646 [label="gini = 0.0\nsamples = 12\nvalue = [0, 0, 12, 0]"] ;
642 -> 646 ;
647 [label="Height <= 179.5\ngini = 0.651\nsamples = 114\nvalue = [2, 52, 26, 34]"] ;
641 -> 647 ;
648 [label="Weight <= 78.5\ngini = 0.43\nsamples = 11\nvalue = [0, 2, 8, 1]"] ;
647 -> 648 ;
649 [label="Weight <= 76.5\ngini = 0.34\nsamples = 10\nvalue = [0, 1, 8, 1]"] ;
648 -> 649 ;
650 [label="gini = 0.0\nsamples = 4\nvalue = [0, 0, 4, 0]"] ;
649 -> 650 ;
651 [label="Host_Country <= 7.5\ngini = 0.5\nsamples = 6\nvalue = [0, 1, 4, 1]"] ;
649 -> 651 ;
652 [label="Weight <= 77.5\ngini = 0.444\nsamples = 3\nvalue = [0, 1, 2, 0]"] ;
651 -> 652 ;
653 [label="gini = 0.5\nsamples = 2\nvalue = [0, 1, 1, 0]"] ;
652 -> 653 ;
654 [label="gini = 0.0\nsamples = 1\nvalue = [0, 0, 1, 0]"] ;
652 -> 654 ;
655 [label="Weight <= 77.5\ngini = 0.444\nsamples = 3\nvalue = [0, 0, 2, 1]"] ;
651 -> 655 ;
656 [label="gini = 0.0\nsamples = 1\nvalue = [0, 0, 1, 0]"] ;
655 -> 656 ;
657 [label="gini = 0.5\nsamples = 2\nvalue = [0, 0, 1, 1]"] ;
655 -> 657 ;
658 [label="gini = 0.0\nsamples = 1\nvalue = [0, 1, 0, 0]"] ;
648 -> 658 ;
659 [label="Host_Country <= 2.0\ngini = 0.631\nsamples = 103\nvalue = [2, 50, 18, 33]"] ;
647 -> 659 ;
660 [label="gini = 0.0\nsamples = 12\nvalue = [0, 12, 0, 0]"] ;
659 -> 660 ;
661 [label="Host_Country <= 7.5\ngini = 0.655\nsamples = 91\nvalue = [2, 38, 18, 33]"] ;
659 -> 661 ;
662 [label="Sport <= 11.0\ngini = 0.446\nsamples = 28\nvalue = [0, 5, 3, 20]"] ;
661 -> 662 ;
663 [label="Height <= 181.0\ngini = 0.469\nsamples = 8\nvalue = [0, 5, 3, 0]"] ;
662 -> 663 ;
664 [label="gini = 0.0\nsamples = 3\nvalue = [0, 3, 0, 0]"] ;
663 -> 664 ;
665 [label="Age <= 21.5\ngini = 0.48\nsamples = 5\nvalue = [0, 2, 3, 0]"] ;
663 -> 665 ;
666 [label="gini = 0.0\nsamples = 2\nvalue = [0, 2, 0, 0]"] ;
665 -> 666 ;
667 [label="gini = 0.0\nsamples = 3\nvalue = [0, 0, 3, 0]"] ;
665 -> 667 ;
668 [label="gini = 0.0\nsamples = 20\nvalue = [0, 0, 0, 20]"] ;
662 -> 668 ;
669 [label="Weight <= 91.0\ngini = 0.625\nsamples = 63\nvalue = [2, 33, 15, 13]"] ;
661 -> 669 ;
670 [label="Weight <= 78.5\ngini = 0.579\nsamples = 39\nvalue = [2, 22, 3, 12]"] ;
669 -> 670 ;
671 [label="Height <= 187.5\ngini = 0.656\nsamples = 8\nvalue = [1, 1, 2, 4]"] ;
670 -> 671 ;
672 [label="Host_Country <= 13.0\ngini = 0.5\nsamples = 6\nvalue = [0, 1, 1, 4]"] ;
671 -> 672 ;
673 [label="gini = 0.0\nsamples = 2\nvalue = [0, 0, 0, 2]"] ;
672 -> 673 ;
674 [label="Age <= 23.5\ngini = 0.625\nsamples = 4\nvalue = [0, 1, 1, 2]"] ;
672 -> 674 ;
675 [label="gini = 0.0\nsamples = 1\nvalue = [0, 0, 0, 1]"] ;
674 -> 675 ;
676 [label="gini = 0.667\nsamples = 3\nvalue = [0, 1, 1, 1]"] ;
674 -> 676 ;
677 [label="gini = 0.5\nsamples = 2\nvalue = [1, 0, 1, 0]"] ;
671 -> 677 ;
678 [label="Host_Country <= 13.0\ngini = 0.472\nsamples = 31\nvalue = [1, 21, 1, 8]"] ;
670 -> 678 ;
679 [label="Sport <= 11.0\ngini = 0.545\nsamples = 24\nvalue = [1, 14, 1, 8]"] ;
678 -> 679 ;
680 [label="Host_Country <= 8.5\ngini = 0.627\nsamples = 13\nvalue = [1, 5, 1, 6]"] ;
679 -> 680 ;
681 [label="gini = 0.0\nsamples = 4\nvalue = [0, 0, 0, 4]"] ;
680 -> 681 ;
682 [label="Height <= 184.5\ngini = 0.617\nsamples = 9\nvalue = [1, 5, 1, 2]"] ;
680 -> 682 ;
683 [label="Host_Country <= 10.5\ngini = 0.625\nsamples = 4\nvalue = [0, 1, 1, 2]"] ;
682 -> 683 ;
684 [label="gini = 0.0\nsamples = 1\nvalue = [0, 1, 0, 0]"] ;
683 -> 684 ;
685 [label="gini = 0.444\nsamples = 3\nvalue = [0, 0, 1, 2]"] ;
683 -> 685 ;
686 [label="Height <= 186.5\ngini = 0.32\nsamples = 5\nvalue = [1, 4, 0, 0]"] ;
682 -> 686 ;
687 [label="gini = 0.0\nsamples = 3\nvalue = [0, 3, 0, 0]"] ;
686 -> 687 ;
688 [label="gini = 0.5\nsamples = 2\nvalue = [1, 1, 0, 0]"] ;
686 -> 688 ;
689 [label="Host_Country <= 8.5\ngini = 0.298\nsamples = 11\nvalue = [0, 9, 0, 2]"] ;
679 -> 689 ;
690 [label="gini = 0.0\nsamples = 9\nvalue = [0, 9, 0, 0]"] ;
689 -> 690 ;
691 [label="gini = 0.0\nsamples = 2\nvalue = [0, 0, 0, 2]"] ;
689 -> 691 ;
692 [label="gini = 0.0\nsamples = 7\nvalue = [0, 7, 0, 0]"] ;
678 -> 692 ;
693 [label="Host_Country <= 13.0\ngini = 0.538\nsamples = 24\nvalue = [0, 11, 12, 1]"] ;
669 -> 693 ;
694 [label="Host_Country <= 10.5\ngini = 0.443\nsamples = 17\nvalue = [0, 4, 12, 1]"] ;
693 -> 694 ;
695 [label="Host_Country <= 8.5\ngini = 0.375\nsamples = 4\nvalue = [0, 3, 0, 1]"] ;
694 -> 695 ;
696 [label="gini = 0.0\nsamples = 3\nvalue = [0, 3, 0, 0]"] ;
695 -> 696 ;
697 [label="gini = 0.0\nsamples = 1\nvalue = [0, 0, 0, 1]"] ;
695 -> 697 ;
698 [label="Sport <= 11.0\ngini = 0.142\nsamples = 13\nvalue = [0, 1, 12, 0]"] ;
694 -> 698 ;
699 [label="gini = 0.0\nsamples = 1\nvalue = [0, 1, 0, 0]"] ;
698 -> 699 ;
700 [label="gini = 0.0\nsamples = 12\nvalue = [0, 0, 12, 0]"] ;
698 -> 700 ;
701 [label="gini = 0.0\nsamples = 7\nvalue = [0, 7, 0, 0]"] ;
693 -> 701 ;
702 [label="Host_Country <= 6.0\ngini = 0.706\nsamples = 525\nvalue = [52, 158, 201, 114]"] ;
4 -> 702 ;
703 [label="Sport <= 9.0\ngini = 0.698\nsamples = 217\nvalue = [31, 39, 95, 52]"] ;
702 -> 703 ;
704 [label="Height <= 175.5\ngini = 0.729\nsamples = 184\nvalue = [31, 37, 66, 50]"] ;
703 -> 704 ;
705 [label="Sport <= 7.0\ngini = 0.724\nsamples = 128\nvalue = [27, 30, 49, 22]"] ;
704 -> 705 ;
706 [label="Sport <= 1.0\ngini = 0.706\nsamples = 113\nvalue = [19, 27, 48, 19]"] ;
705 -> 706 ;
707 [label="Weight <= 78.5\ngini = 0.727\nsamples = 41\nvalue = [12, 13, 11, 5]"] ;
706 -> 707 ;
708 [label="Height <= 165.5\ngini = 0.704\nsamples = 34\nvalue = [11, 13, 6, 4]"] ;
707 -> 708 ;
709 [label="Age <= 21.5\ngini = 0.62\nsamples = 10\nvalue = [3, 2, 5, 0]"] ;
708 -> 709 ;
710 [label="gini = 0.0\nsamples = 2\nvalue = [2, 0, 0, 0]"] ;
709 -> 710 ;
711 [label="Height <= 163.0\ngini = 0.531\nsamples = 8\nvalue = [1, 2, 5, 0]"] ;
709 -> 711 ;
712 [label="gini = 0.0\nsamples = 3\nvalue = [0, 0, 3, 0]"] ;
711 -> 712 ;
713 [label="Age <= 24.5\ngini = 0.64\nsamples = 5\nvalue = [1, 2, 2, 0]"] ;
711 -> 713 ;
714 [label="gini = 0.0\nsamples = 1\nvalue = [1, 0, 0, 0]"] ;
713 -> 714 ;
715 [label="Age <= 25.5\ngini = 0.5\nsamples = 4\nvalue = [0, 2, 2, 0]"] ;
713 -> 715 ;
716 [label="gini = 0.0\nsamples = 1\nvalue = [0, 0, 1, 0]"] ;
715 -> 716 ;
717 [label="Host_Country <= 0.5\ngini = 0.444\nsamples = 3\nvalue = [0, 2, 1, 0]"] ;
715 -> 717 ;
718 [label="gini = 0.0\nsamples = 1\nvalue = [0, 0, 1, 0]"] ;
717 -> 718 ;
719 [label="gini = 0.0\nsamples = 2\nvalue = [0, 2, 0, 0]"] ;
717 -> 719 ;
720 [label="Weight <= 63.5\ngini = 0.649\nsamples = 24\nvalue = [8, 11, 1, 4]"] ;
708 -> 720 ;
721 [label="Host_Country <= 2.0\ngini = 0.52\nsamples = 14\nvalue = [3, 9, 0, 2]"] ;
720 -> 721 ;
722 [label="Host_Country <= 0.5\ngini = 0.34\nsamples = 10\nvalue = [1, 8, 0, 1]"] ;
721 -> 722 ;
723 [label="gini = 0.0\nsamples = 1\nvalue = [0, 0, 0, 1]"] ;
722 -> 723 ;
724 [label="Weight <= 56.5\ngini = 0.198\nsamples = 9\nvalue = [1, 8, 0, 0]"] ;
722 -> 724 ;
725 [label="Height <= 166.5\ngini = 0.444\nsamples = 3\nvalue = [1, 2, 0, 0]"] ;
724 -> 725 ;
726 [label="gini = 0.5\nsamples = 2\nvalue = [1, 1, 0, 0]"] ;
725 -> 726 ;
727 [label="gini = 0.0\nsamples = 1\nvalue = [0, 1, 0, 0]"] ;
725 -> 727 ;
728 [label="gini = 0.0\nsamples = 6\nvalue = [0, 6, 0, 0]"] ;
724 -> 728 ;
729 [label="Host_Country <= 4.0\ngini = 0.625\nsamples = 4\nvalue = [2, 1, 0, 1]"] ;
721 -> 729 ;
730 [label="gini = 0.0\nsamples = 2\nvalue = [2, 0, 0, 0]"] ;
729 -> 730 ;
731 [label="Weight <= 57.5\ngini = 0.5\nsamples = 2\nvalue = [0, 1, 0, 1]"] ;
729 -> 731 ;
732 [label="gini = 0.0\nsamples = 1\nvalue = [0, 1, 0, 0]"] ;
731 -> 732 ;
733 [label="gini = 0.0\nsamples = 1\nvalue = [0, 0, 0, 1]"] ;
731 -> 733 ;
734 [label="Height <= 169.5\ngini = 0.66\nsamples = 10\nvalue = [5, 2, 1, 2]"] ;
720 -> 734 ;
735 [label="Height <= 167.5\ngini = 0.449\nsamples = 7\nvalue = [5, 1, 1, 0]"] ;
734 -> 735 ;
736 [label="gini = 0.0\nsamples = 1\nvalue = [0, 1, 0, 0]"] ;
735 -> 736 ;
737 [label="Weight <= 74.5\ngini = 0.278\nsamples = 6\nvalue = [5, 0, 1, 0]"] ;
735 -> 737 ;
738 [label="gini = 0.0\nsamples = 4\nvalue = [4, 0, 0, 0]"] ;
737 -> 738 ;
739 [label="gini = 0.5\nsamples = 2\nvalue = [1, 0, 1, 0]"] ;
737 -> 739 ;
740 [label="Height <= 172.5\ngini = 0.444\nsamples = 3\nvalue = [0, 1, 0, 2]"] ;
734 -> 740 ;
741 [label="gini = 0.0\nsamples = 2\nvalue = [0, 0, 0, 2]"] ;
740 -> 741 ;
742 [label="gini = 0.0\nsamples = 1\nvalue = [0, 1, 0, 0]"] ;
740 -> 742 ;
743 [label="Age <= 28.5\ngini = 0.449\nsamples = 7\nvalue = [1, 0, 5, 1]"] ;
707 -> 743 ;
744 [label="gini = 0.0\nsamples = 4\nvalue = [0, 0, 4, 0]"] ;
743 -> 744 ;
745 [label="Weight <= 86.0\ngini = 0.667\nsamples = 3\nvalue = [1, 0, 1, 1]"] ;
743 -> 745 ;
746 [label="gini = 0.0\nsamples = 1\nvalue = [0, 0, 1, 0]"] ;
745 -> 746 ;
747 [label="Age <= 30.5\ngini = 0.5\nsamples = 2\nvalue = [1, 0, 0, 1]"] ;
745 -> 747 ;
748 [label="gini = 0.0\nsamples = 1\nvalue = [0, 0, 0, 1]"] ;
747 -> 748 ;
749 [label="gini = 0.0\nsamples = 1\nvalue = [1, 0, 0, 0]"] ;
747 -> 749 ;
750 [label="Sport <= 3.0\ngini = 0.651\nsamples = 72\nvalue = [7, 14, 37, 14]"] ;
706 -> 750 ;
751 [label="gini = 0.0\nsamples = 10\nvalue = [0, 0, 10, 0]"] ;
750 -> 751 ;
752 [label="Sport <= 5.0\ngini = 0.696\nsamples = 62\nvalue = [7, 14, 27, 14]"] ;
750 -> 752 ;
753 [label="Height <= 160.5\ngini = 0.531\nsamples = 8\nvalue = [1, 5, 0, 2]"] ;
752 -> 753 ;
754 [label="Height <= 145.0\ngini = 0.444\nsamples = 3\nvalue = [0, 1, 0, 2]"] ;
753 -> 754 ;
755 [label="gini = 0.0\nsamples = 1\nvalue = [0, 1, 0, 0]"] ;
754 -> 755 ;
756 [label="gini = 0.0\nsamples = 2\nvalue = [0, 0, 0, 2]"] ;
754 -> 756 ;
757 [label="Weight <= 74.5\ngini = 0.32\nsamples = 5\nvalue = [1, 4, 0, 0]"] ;
753 -> 757 ;
758 [label="Age <= 28.5\ngini = 0.5\nsamples = 2\nvalue = [1, 1, 0, 0]"] ;
757 -> 758 ;
759 [label="gini = 0.0\nsamples = 1\nvalue = [1, 0, 0, 0]"] ;
758 -> 759 ;
760 [label="gini = 0.0\nsamples = 1\nvalue = [0, 1, 0, 0]"] ;
758 -> 760 ;
761 [label="gini = 0.0\nsamples = 3\nvalue = [0, 3, 0, 0]"] ;
757 -> 761 ;
762 [label="Weight <= 49.0\ngini = 0.66\nsamples = 54\nvalue = [6, 9, 27, 12]"] ;
752 -> 762 ;
763 [label="Height <= 153.0\ngini = 0.549\nsamples = 18\nvalue = [4, 0, 11, 3]"] ;
762 -> 763 ;
764 [label="Age <= 19.5\ngini = 0.397\nsamples = 11\nvalue = [0, 0, 8, 3]"] ;
763 -> 764 ;
765 [label="Age <= 15.5\ngini = 0.346\nsamples = 9\nvalue = [0, 0, 7, 2]"] ;
764 -> 765 ;
766 [label="gini = 0.0\nsamples = 1\nvalue = [0, 0, 1, 0]"] ;
765 -> 766 ;
767 [label="Host_Country <= 0.5\ngini = 0.375\nsamples = 8\nvalue = [0, 0, 6, 2]"] ;
765 -> 767 ;
768 [label="gini = 0.375\nsamples = 4\nvalue = [0, 0, 3, 1]"] ;
767 -> 768 ;
769 [label="gini = 0.375\nsamples = 4\nvalue = [0, 0, 3, 1]"] ;
767 -> 769 ;
770 [label="gini = 0.5\nsamples = 2\nvalue = [0, 0, 1, 1]"] ;
764 -> 770 ;
771 [label="Height <= 155.0\ngini = 0.49\nsamples = 7\nvalue = [4, 0, 3, 0]"] ;
763 -> 771 ;
772 [label="gini = 0.444\nsamples = 3\nvalue = [2, 0, 1, 0]"] ;
771 -> 772 ;
773 [label="Height <= 159.0\ngini = 0.5\nsamples = 4\nvalue = [2, 0, 2, 0]"] ;
771 -> 773 ;
774 [label="gini = 0.5\nsamples = 2\nvalue = [1, 0, 1, 0]"] ;
773 -> 774 ;
775 [label="gini = 0.5\nsamples = 2\nvalue = [1, 0, 1, 0]"] ;
773 -> 775 ;
776 [label="Weight <= 51.5\ngini = 0.674\nsamples = 36\nvalue = [2, 9, 16, 9]"] ;
762 -> 776 ;
777 [label="Weight <= 50.5\ngini = 0.656\nsamples = 8\nvalue = [1, 4, 2, 1]"] ;
776 -> 777 ;
778 [label="gini = 0.625\nsamples = 4\nvalue = [1, 2, 1, 0]"] ;
777 -> 778 ;
779 [label="gini = 0.625\nsamples = 4\nvalue = [0, 2, 1, 1]"] ;
777 -> 779 ;
780 [label="Height <= 159.5\ngini = 0.635\nsamples = 28\nvalue = [1, 5, 14, 8]"] ;
776 -> 780 ;
781 [label="gini = 0.0\nsamples = 2\nvalue = [0, 0, 2, 0]"] ;
780 -> 781 ;
782 [label="Height <= 162.5\ngini = 0.654\nsamples = 26\nvalue = [1, 5, 12, 8]"] ;
780 -> 782 ;
783 [label="Height <= 160.5\ngini = 0.681\nsamples = 19\nvalue = [1, 4, 7, 7]"] ;
782 -> 783 ;
784 [label="Host_Country <= 0.5\ngini = 0.698\nsamples = 13\nvalue = [1, 3, 4, 5]"] ;
783 -> 784 ;
785 [label="gini = 0.625\nsamples = 4\nvalue = [0, 1, 2, 1]"] ;
784 -> 785 ;
786 [label="Host_Country <= 2.0\ngini = 0.691\nsamples = 9\nvalue = [1, 2, 2, 4]"] ;
784 -> 786 ;
787 [label="gini = 0.72\nsamples = 5\nvalue = [1, 1, 1, 2]"] ;
786 -> 787 ;
788 [label="gini = 0.625\nsamples = 4\nvalue = [0, 1, 1, 2]"] ;
786 -> 788 ;
789 [label="gini = 0.611\nsamples = 6\nvalue = [0, 1, 3, 2]"] ;
783 -> 789 ;
790 [label="Weight <= 54.5\ngini = 0.449\nsamples = 7\nvalue = [0, 1, 5, 1]"] ;
782 -> 790 ;
791 [label="gini = 0.0\nsamples = 2\nvalue = [0, 0, 2, 0]"] ;
790 -> 791 ;
792 [label="Height <= 165.0\ngini = 0.56\nsamples = 5\nvalue = [0, 1, 3, 1]"] ;
790 -> 792 ;
793 [label="gini = 0.0\nsamples = 1\nvalue = [0, 0, 1, 0]"] ;
792 -> 793 ;
794 [label="gini = 0.625\nsamples = 4\nvalue = [0, 1, 2, 1]"] ;
792 -> 794 ;
795 [label="Age <= 20.5\ngini = 0.631\nsamples = 15\nvalue = [8, 3, 1, 3]"] ;
705 -> 795 ;
796 [label="Age <= 17.0\ngini = 0.48\nsamples = 10\nvalue = [7, 1, 1, 1]"] ;
795 -> 796 ;
797 [label="Height <= 166.5\ngini = 0.72\nsamples = 5\nvalue = [2, 1, 1, 1]"] ;
796 -> 797 ;
798 [label="Weight <= 61.5\ngini = 0.444\nsamples = 3\nvalue = [2, 0, 0, 1]"] ;
797 -> 798 ;
799 [label="gini = 0.5\nsamples = 2\nvalue = [1, 0, 0, 1]"] ;
798 -> 799 ;
800 [label="gini = 0.0\nsamples = 1\nvalue = [1, 0, 0, 0]"] ;
798 -> 800 ;
801 [label="gini = 0.5\nsamples = 2\nvalue = [0, 1, 1, 0]"] ;
797 -> 801 ;
802 [label="gini = 0.0\nsamples = 5\nvalue = [5, 0, 0, 0]"] ;
796 -> 802 ;
803 [label="Age <= 22.5\ngini = 0.64\nsamples = 5\nvalue = [1, 2, 0, 2]"] ;
795 -> 803 ;
804 [label="gini = 0.5\nsamples = 2\nvalue = [0, 1, 0, 1]"] ;
803 -> 804 ;
805 [label="gini = 0.667\nsamples = 3\nvalue = [1, 1, 0, 1]"] ;
803 -> 805 ;
806 [label="Height <= 180.5\ngini = 0.637\nsamples = 56\nvalue = [4, 7, 17, 28]"] ;
704 -> 806 ;
807 [label="Sport <= 3.0\ngini = 0.665\nsamples = 47\nvalue = [4, 6, 17, 20]"] ;
806 -> 807 ;
808 [label="Host_Country <= 4.0\ngini = 0.494\nsamples = 9\nvalue = [0, 2, 6, 1]"] ;
807 -> 808 ;
809 [label="Weight <= 90.5\ngini = 0.245\nsamples = 7\nvalue = [0, 0, 6, 1]"] ;
808 -> 809 ;
810 [label="gini = 0.0\nsamples = 5\nvalue = [0, 0, 5, 0]"] ;
809 -> 810 ;
811 [label="gini = 0.5\nsamples = 2\nvalue = [0, 0, 1, 1]"] ;
809 -> 811 ;
812 [label="gini = 0.0\nsamples = 2\nvalue = [0, 2, 0, 0]"] ;
808 -> 812 ;
813 [label="Sport <= 5.0\ngini = 0.644\nsamples = 38\nvalue = [4, 4, 11, 19]"] ;
807 -> 813 ;
814 [label="Weight <= 71.43\ngini = 0.444\nsamples = 9\nvalue = [0, 3, 0, 6]"] ;
813 -> 814 ;
815 [label="gini = 0.0\nsamples = 1\nvalue = [0, 1, 0, 0]"] ;
814 -> 815 ;
816 [label="Age <= 21.5\ngini = 0.375\nsamples = 8\nvalue = [0, 2, 0, 6]"] ;
814 -> 816 ;
817 [label="gini = 0.0\nsamples = 3\nvalue = [0, 0, 0, 3]"] ;
816 -> 817 ;
818 [label="Weight <= 76.5\ngini = 0.48\nsamples = 5\nvalue = [0, 2, 0, 3]"] ;
816 -> 818 ;
819 [label="Age <= 24.5\ngini = 0.375\nsamples = 4\nvalue = [0, 1, 0, 3]"] ;
818 -> 819 ;
820 [label="gini = 0.0\nsamples = 2\nvalue = [0, 0, 0, 2]"] ;
819 -> 820 ;
821 [label="Age <= 26.0\ngini = 0.5\nsamples = 2\nvalue = [0, 1, 0, 1]"] ;
819 -> 821 ;
822 [label="gini = 0.0\nsamples = 1\nvalue = [0, 1, 0, 0]"] ;
821 -> 822 ;
823 [label="gini = 0.0\nsamples = 1\nvalue = [0, 0, 0, 1]"] ;
821 -> 823 ;
824 [label="gini = 0.0\nsamples = 1\nvalue = [0, 1, 0, 0]"] ;
818 -> 824 ;
825 [label="Age <= 29.5\ngini = 0.635\nsamples = 29\nvalue = [4, 1, 11, 13]"] ;
813 -> 825 ;
826 [label="Age <= 26.5\ngini = 0.671\nsamples = 17\nvalue = [3, 1, 7, 6]"] ;
825 -> 826 ;
827 [label="Age <= 21.5\ngini = 0.716\nsamples = 9\nvalue = [2, 1, 3, 3]"] ;
826 -> 827 ;
828 [label="gini = 0.5\nsamples = 2\nvalue = [0, 0, 1, 1]"] ;
827 -> 828 ;
829 [label="Age <= 24.5\ngini = 0.735\nsamples = 7\nvalue = [2, 1, 2, 2]"] ;
827 -> 829 ;
830 [label="gini = 0.75\nsamples = 4\nvalue = [1, 1, 1, 1]"] ;
829 -> 830 ;
831 [label="gini = 0.667\nsamples = 3\nvalue = [1, 0, 1, 1]"] ;
829 -> 831 ;
832 [label="Age <= 28.0\ngini = 0.594\nsamples = 8\nvalue = [1, 0, 4, 3]"] ;
826 -> 832 ;
833 [label="gini = 0.5\nsamples = 4\nvalue = [0, 0, 2, 2]"] ;
832 -> 833 ;
834 [label="gini = 0.625\nsamples = 4\nvalue = [1, 0, 2, 1]"] ;
832 -> 834 ;
835 [label="Age <= 32.0\ngini = 0.542\nsamples = 12\nvalue = [1, 0, 4, 7]"] ;
825 -> 835 ;
836 [label="gini = 0.408\nsamples = 7\nvalue = [0, 0, 2, 5]"] ;
835 -> 836 ;
837 [label="gini = 0.64\nsamples = 5\nvalue = [1, 0, 2, 2]"] ;
835 -> 837 ;
838 [label="Host_Country <= 3.0\ngini = 0.198\nsamples = 9\nvalue = [0, 1, 0, 8]"] ;
806 -> 838 ;
839 [label="gini = 0.0\nsamples = 6\nvalue = [0, 0, 0, 6]"] ;
838 -> 839 ;
840 [label="gini = 0.444\nsamples = 3\nvalue = [0, 1, 0, 2]"] ;
838 -> 840 ;
841 [label="Age <= 26.5\ngini = 0.22\nsamples = 33\nvalue = [0, 2, 29, 2]"] ;
703 -> 841 ;
842 [label="gini = 0.0\nsamples = 20\nvalue = [0, 0, 20, 0]"] ;
841 -> 842 ;
843 [label="Height <= 167.5\ngini = 0.473\nsamples = 13\nvalue = [0, 2, 9, 2]"] ;
841 -> 843 ;
844 [label="Age <= 32.0\ngini = 0.444\nsamples = 6\nvalue = [0, 0, 4, 2]"] ;
843 -> 844 ;
845 [label="Weight <= 62.5\ngini = 0.5\nsamples = 4\nvalue = [0, 0, 2, 2]"] ;
844 -> 845 ;
846 [label="gini = 0.5\nsamples = 2\nvalue = [0, 0, 1, 1]"] ;
845 -> 846 ;
847 [label="gini = 0.5\nsamples = 2\nvalue = [0, 0, 1, 1]"] ;
845 -> 847 ;
848 [label="gini = 0.0\nsamples = 2\nvalue = [0, 0, 2, 0]"] ;
844 -> 848 ;
849 [label="Weight <= 72.5\ngini = 0.408\nsamples = 7\nvalue = [0, 2, 5, 0]"] ;
843 -> 849 ;
850 [label="Height <= 172.0\ngini = 0.5\nsamples = 4\nvalue = [0, 2, 2, 0]"] ;
849 -> 850 ;
851 [label="gini = 0.5\nsamples = 2\nvalue = [0, 1, 1, 0]"] ;
850 -> 851 ;
852 [label="gini = 0.5\nsamples = 2\nvalue = [0, 1, 1, 0]"] ;
850 -> 852 ;
853 [label="gini = 0.0\nsamples = 3\nvalue = [0, 0, 3, 0]"] ;
849 -> 853 ;
854 [label="Weight <= 45.5\ngini = 0.687\nsamples = 308\nvalue = [21, 119, 106, 62]"] ;
702 -> 854 ;
855 [label="Weight <= 40.5\ngini = 0.512\nsamples = 21\nvalue = [1, 3, 14, 3]"] ;
854 -> 855 ;
856 [label="Age <= 17.5\ngini = 0.278\nsamples = 6\nvalue = [0, 1, 5, 0]"] ;
855 -> 856 ;
857 [label="gini = 0.0\nsamples = 4\nvalue = [0, 0, 4, 0]"] ;
856 -> 857 ;
858 [label="gini = 0.5\nsamples = 2\nvalue = [0, 1, 1, 0]"] ;
856 -> 858 ;
859 [label="Host_Country <= 13.0\ngini = 0.578\nsamples = 15\nvalue = [1, 2, 9, 3]"] ;
855 -> 859 ;
860 [label="Sport <= 3.0\ngini = 0.628\nsamples = 11\nvalue = [1, 2, 6, 2]"] ;
859 -> 860 ;
861 [label="gini = 0.0\nsamples = 1\nvalue = [0, 0, 1, 0]"] ;
860 -> 861 ;
862 [label="Height <= 149.5\ngini = 0.66\nsamples = 10\nvalue = [1, 2, 5, 2]"] ;
860 -> 862 ;
863 [label="gini = 0.625\nsamples = 4\nvalue = [0, 1, 2, 1]"] ;
862 -> 863 ;
864 [label="Height <= 154.5\ngini = 0.667\nsamples = 6\nvalue = [1, 1, 3, 1]"] ;
862 -> 864 ;
865 [label="gini = 0.5\nsamples = 2\nvalue = [1, 0, 1, 0]"] ;
864 -> 865 ;
866 [label="gini = 0.625\nsamples = 4\nvalue = [0, 1, 2, 1]"] ;
864 -> 866 ;
867 [label="Height <= 147.0\ngini = 0.375\nsamples = 4\nvalue = [0, 0, 3, 1]"] ;
859 -> 867 ;
868 [label="gini = 0.0\nsamples = 1\nvalue = [0, 0, 1, 0]"] ;
867 -> 868 ;
869 [label="gini = 0.444\nsamples = 3\nvalue = [0, 0, 2, 1]"] ;
867 -> 869 ;
870 [label="Host_Country <= 13.0\ngini = 0.687\nsamples = 287\nvalue = [20, 116, 92, 59]"] ;
854 -> 870 ;
871 [label="Sport <= 11.5\ngini = 0.668\nsamples = 170\nvalue = [16, 80, 47, 27]"] ;
870 -> 871 ;
872 [label="Sport <= 3.0\ngini = 0.687\nsamples = 158\nvalue = [16, 68, 47, 27]"] ;
871 -> 872 ;
873 [label="Weight <= 96.0\ngini = 0.539\nsamples = 68\nvalue = [3, 43, 15, 7]"] ;
872 -> 873 ;
874 [label="Sport <= 1.5\ngini = 0.505\nsamples = 64\nvalue = [3, 43, 11, 7]"] ;
873 -> 874 ;
875 [label="Height <= 176.596\ngini = 0.599\nsamples = 49\nvalue = [3, 28, 11, 7]"] ;
874 -> 875 ;
876 [label="Host_Country <= 8.5\ngini = 0.541\nsamples = 43\nvalue = [2, 27, 10, 4]"] ;
875 -> 876 ;
877 [label="Weight <= 63.5\ngini = 0.32\nsamples = 16\nvalue = [2, 13, 1, 0]"] ;
876 -> 877 ;
878 [label="gini = 0.0\nsamples = 8\nvalue = [0, 8, 0, 0]"] ;
877 -> 878 ;
879 [label="Weight <= 66.5\ngini = 0.531\nsamples = 8\nvalue = [2, 5, 1, 0]"] ;
877 -> 879 ;
880 [label="Weight <= 64.5\ngini = 0.444\nsamples = 3\nvalue = [2, 1, 0, 0]"] ;
879 -> 880 ;
881 [label="gini = 0.0\nsamples = 1\nvalue = [1, 0, 0, 0]"] ;
880 -> 881 ;
882 [label="gini = 0.5\nsamples = 2\nvalue = [1, 1, 0, 0]"] ;
880 -> 882 ;
883 [label="Weight <= 72.0\ngini = 0.32\nsamples = 5\nvalue = [0, 4, 1, 0]"] ;
879 -> 883 ;
884 [label="gini = 0.0\nsamples = 2\nvalue = [0, 2, 0, 0]"] ;
883 -> 884 ;
885 [label="Weight <= 77.5\ngini = 0.444\nsamples = 3\nvalue = [0, 2, 1, 0]"] ;
883 -> 885 ;
886 [label="gini = 0.0\nsamples = 1\nvalue = [0, 0, 1, 0]"] ;
885 -> 886 ;
887 [label="gini = 0.0\nsamples = 2\nvalue = [0, 2, 0, 0]"] ;
885 -> 887 ;
888 [label="Age <= 22.5\ngini = 0.598\nsamples = 27\nvalue = [0, 14, 9, 4]"] ;
876 -> 888 ;
889 [label="Weight <= 56.0\ngini = 0.48\nsamples = 5\nvalue = [0, 0, 3, 2]"] ;
888 -> 889 ;
890 [label="gini = 0.0\nsamples = 1\nvalue = [0, 0, 1, 0]"] ;
889 -> 890 ;
891 [label="Height <= 169.5\ngini = 0.5\nsamples = 4\nvalue = [0, 0, 2, 2]"] ;
889 -> 891 ;
892 [label="gini = 0.5\nsamples = 2\nvalue = [0, 0, 1, 1]"] ;
891 -> 892 ;
893 [label="gini = 0.5\nsamples = 2\nvalue = [0, 0, 1, 1]"] ;
891 -> 893 ;
894 [label="Height <= 170.5\ngini = 0.512\nsamples = 22\nvalue = [0, 14, 6, 2]"] ;
888 -> 894 ;
895 [label="Weight <= 67.0\ngini = 0.438\nsamples = 18\nvalue = [0, 13, 3, 2]"] ;
894 -> 895 ;
896 [label="Age <= 31.0\ngini = 0.32\nsamples = 16\nvalue = [0, 13, 2, 1]"] ;
895 -> 896 ;
897 [label="Weight <= 57.5\ngini = 0.231\nsamples = 15\nvalue = [0, 13, 2, 0]"] ;
896 -> 897 ;
898 [label="Age <= 27.5\ngini = 0.375\nsamples = 8\nvalue = [0, 6, 2, 0]"] ;
897 -> 898 ;
899 [label="gini = 0.444\nsamples = 6\nvalue = [0, 4, 2, 0]"] ;
898 -> 899 ;
900 [label="gini = 0.0\nsamples = 2\nvalue = [0, 2, 0, 0]"] ;
898 -> 900 ;
901 [label="gini = 0.0\nsamples = 7\nvalue = [0, 7, 0, 0]"] ;
897 -> 901 ;
902 [label="gini = 0.0\nsamples = 1\nvalue = [0, 0, 0, 1]"] ;
896 -> 902 ;
903 [label="Height <= 168.5\ngini = 0.5\nsamples = 2\nvalue = [0, 0, 1, 1]"] ;
895 -> 903 ;
904 [label="gini = 0.0\nsamples = 1\nvalue = [0, 0, 0, 1]"] ;
903 -> 904 ;
905 [label="gini = 0.0\nsamples = 1\nvalue = [0, 0, 1, 0]"] ;
903 -> 905 ;
906 [label="Weight <= 73.5\ngini = 0.375\nsamples = 4\nvalue = [0, 1, 3, 0]"] ;
894 -> 906 ;
907 [label="gini = 0.0\nsamples = 3\nvalue = [0, 0, 3, 0]"] ;
906 -> 907 ;
908 [label="gini = 0.0\nsamples = 1\nvalue = [0, 1, 0, 0]"] ;
906 -> 908 ;
909 [label="Host_Country <= 10.5\ngini = 0.667\nsamples = 6\nvalue = [1, 1, 1, 3]"] ;
875 -> 909 ;
910 [label="gini = 0.0\nsamples = 3\nvalue = [0, 0, 0, 3]"] ;
909 -> 910 ;
911 [label="Height <= 178.5\ngini = 0.667\nsamples = 3\nvalue = [1, 1, 1, 0]"] ;
909 -> 911 ;
912 [label="gini = 0.0\nsamples = 1\nvalue = [0, 0, 1, 0]"] ;
911 -> 912 ;
913 [label="Height <= 183.5\ngini = 0.5\nsamples = 2\nvalue = [1, 1, 0, 0]"] ;
911 -> 913 ;
914 [label="gini = 0.0\nsamples = 1\nvalue = [0, 1, 0, 0]"] ;
913 -> 914 ;
915 [label="gini = 0.0\nsamples = 1\nvalue = [1, 0, 0, 0]"] ;
913 -> 915 ;
916 [label="gini = 0.0\nsamples = 15\nvalue = [0, 15, 0, 0]"] ;
874 -> 916 ;
917 [label="gini = 0.0\nsamples = 4\nvalue = [0, 0, 4, 0]"] ;
873 -> 917 ;
918 [label="Height <= 177.596\ngini = 0.726\nsamples = 90\nvalue = [13, 25, 32, 20]"] ;
872 -> 918 ;
919 [label="Sport <= 9.0\ngini = 0.714\nsamples = 84\nvalue = [12, 25, 32, 15]"] ;
918 -> 919 ;
920 [label="Sport <= 6.5\ngini = 0.702\nsamples = 71\nvalue = [11, 25, 26, 9]"] ;
919 -> 920 ;
921 [label="Age <= 18.0\ngini = 0.683\nsamples = 56\nvalue = [7, 16, 25, 8]"] ;
920 -> 921 ;
922 [label="Weight <= 50.0\ngini = 0.48\nsamples = 5\nvalue = [3, 0, 2, 0]"] ;
921 -> 922 ;
923 [label="gini = 0.0\nsamples = 1\nvalue = [0, 0, 1, 0]"] ;
922 -> 923 ;
924 [label="Host_Country <= 10.0\ngini = 0.375\nsamples = 4\nvalue = [3, 0, 1, 0]"] ;
922 -> 924 ;
925 [label="gini = 0.444\nsamples = 3\nvalue = [2, 0, 1, 0]"] ;
924 -> 925 ;
926 [label="gini = 0.0\nsamples = 1\nvalue = [1, 0, 0, 0]"] ;
924 -> 926 ;
927 [label="Height <= 157.5\ngini = 0.667\nsamples = 51\nvalue = [4, 16, 23, 8]"] ;
921 -> 927 ;
928 [label="Age <= 23.0\ngini = 0.48\nsamples = 5\nvalue = [2, 0, 3, 0]"] ;
927 -> 928 ;
929 [label="gini = 0.0\nsamples = 2\nvalue = [0, 0, 2, 0]"] ;
928 -> 929 ;
930 [label="gini = 0.444\nsamples = 3\nvalue = [2, 0, 1, 0]"] ;
928 -> 930 ;
931 [label="Height <= 160.5\ngini = 0.658\nsamples = 46\nvalue = [2, 16, 20, 8]"] ;
927 -> 931 ;
932 [label="Height <= 159.0\ngini = 0.469\nsamples = 8\nvalue = [0, 5, 3, 0]"] ;
931 -> 932 ;
933 [label="gini = 0.5\nsamples = 4\nvalue = [0, 2, 2, 0]"] ;
932 -> 933 ;
934 [label="gini = 0.375\nsamples = 4\nvalue = [0, 3, 1, 0]"] ;
932 -> 934 ;
935 [label="Age <= 19.5\ngini = 0.669\nsamples = 38\nvalue = [2, 11, 17, 8]"] ;
931 -> 935 ;
936 [label="Weight <= 53.5\ngini = 0.625\nsamples = 8\nvalue = [2, 2, 4, 0]"] ;
935 -> 936 ;
937 [label="gini = 0.444\nsamples = 3\nvalue = [0, 1, 2, 0]"] ;
936 -> 937 ;
938 [label="Host_Country <= 8.5\ngini = 0.64\nsamples = 5\nvalue = [2, 1, 2, 0]"] ;
936 -> 938 ;
939 [label="gini = 0.5\nsamples = 2\nvalue = [1, 0, 1, 0]"] ;
938 -> 939 ;
940 [label="gini = 0.667\nsamples = 3\nvalue = [1, 1, 1, 0]"] ;
938 -> 940 ;
941 [label="Height <= 163.0\ngini = 0.651\nsamples = 30\nvalue = [0, 9, 13, 8]"] ;
935 -> 941 ;
942 [label="Age <= 21.5\ngini = 0.642\nsamples = 18\nvalue = [0, 4, 8, 6]"] ;
941 -> 942 ;
943 [label="gini = 0.5\nsamples = 6\nvalue = [0, 1, 4, 1]"] ;
942 -> 943 ;
944 [label="Age <= 29.5\ngini = 0.653\nsamples = 12\nvalue = [0, 3, 4, 5]"] ;
942 -> 944 ;
945 [label="gini = 0.66\nsamples = 10\nvalue = [0, 3, 3, 4]"] ;
944 -> 945 ;
946 [label="gini = 0.5\nsamples = 2\nvalue = [0, 0, 1, 1]"] ;
944 -> 946 ;
947 [label="Host_Country <= 7.5\ngini = 0.625\nsamples = 12\nvalue = [0, 5, 5, 2]"] ;
941 -> 947 ;
948 [label="gini = 0.625\nsamples = 4\nvalue = [0, 1, 2, 1]"] ;
947 -> 948 ;
949 [label="Weight <= 54.5\ngini = 0.594\nsamples = 8\nvalue = [0, 4, 3, 1]"] ;
947 -> 949 ;
950 [label="gini = 0.625\nsamples = 4\nvalue = [0, 2, 1, 1]"] ;
949 -> 950 ;
951 [label="gini = 0.5\nsamples = 4\nvalue = [0, 2, 2, 0]"] ;
949 -> 951 ;
952 [label="Age <= 15.5\ngini = 0.56\nsamples = 15\nvalue = [4, 9, 1, 1]"] ;
920 -> 952 ;
953 [label="Height <= 167.5\ngini = 0.5\nsamples = 2\nvalue = [1, 0, 1, 0]"] ;
952 -> 953 ;
954 [label="gini = 0.0\nsamples = 1\nvalue = [1, 0, 0, 0]"] ;
953 -> 954 ;
955 [label="gini = 0.0\nsamples = 1\nvalue = [0, 0, 1, 0]"] ;
953 -> 955 ;
956 [label="Age <= 20.0\ngini = 0.462\nsamples = 13\nvalue = [3, 9, 0, 1]"] ;
952 -> 956 ;
957 [label="Height <= 169.5\ngini = 0.568\nsamples = 9\nvalue = [3, 5, 0, 1]"] ;
956 -> 957 ;
958 [label="Host_Country <= 7.5\ngini = 0.5\nsamples = 6\nvalue = [1, 4, 0, 1]"] ;
957 -> 958 ;
959 [label="Age <= 18.0\ngini = 0.375\nsamples = 4\nvalue = [1, 3, 0, 0]"] ;
958 -> 959 ;
960 [label="gini = 0.0\nsamples = 2\nvalue = [0, 2, 0, 0]"] ;
959 -> 960 ;
961 [label="gini = 0.5\nsamples = 2\nvalue = [1, 1, 0, 0]"] ;
959 -> 961 ;
962 [label="gini = 0.5\nsamples = 2\nvalue = [0, 1, 0, 1]"] ;
958 -> 962 ;
963 [label="Host_Country <= 7.5\ngini = 0.444\nsamples = 3\nvalue = [2, 1, 0, 0]"] ;
957 -> 963 ;
964 [label="gini = 0.5\nsamples = 2\nvalue = [1, 1, 0, 0]"] ;
963 -> 964 ;
965 [label="gini = 0.0\nsamples = 1\nvalue = [1, 0, 0, 0]"] ;
963 -> 965 ;
966 [label="gini = 0.0\nsamples = 4\nvalue = [0, 4, 0, 0]"] ;
956 -> 966 ;
967 [label="Host_Country <= 7.5\ngini = 0.568\nsamples = 13\nvalue = [1, 0, 6, 6]"] ;
919 -> 967 ;
968 [label="gini = 0.0\nsamples = 5\nvalue = [0, 0, 0, 5]"] ;
967 -> 968 ;
969 [label="Host_Country <= 10.0\ngini = 0.406\nsamples = 8\nvalue = [1, 0, 6, 1]"] ;
967 -> 969 ;
970 [label="Sport <= 10.5\ngini = 0.245\nsamples = 7\nvalue = [0, 0, 6, 1]"] ;
969 -> 970 ;
971 [label="gini = 0.0\nsamples = 6\nvalue = [0, 0, 6, 0]"] ;
970 -> 971 ;
972 [label="gini = 0.0\nsamples = 1\nvalue = [0, 0, 0, 1]"] ;
970 -> 972 ;
973 [label="gini = 0.0\nsamples = 1\nvalue = [1, 0, 0, 0]"] ;
969 -> 973 ;
974 [label="Weight <= 89.5\ngini = 0.278\nsamples = 6\nvalue = [1, 0, 0, 5]"] ;
918 -> 974 ;
975 [label="gini = 0.0\nsamples = 5\nvalue = [0, 0, 0, 5]"] ;
974 -> 975 ;
976 [label="gini = 0.0\nsamples = 1\nvalue = [1, 0, 0, 0]"] ;
974 -> 976 ;
977 [label="gini = 0.0\nsamples = 12\nvalue = [0, 12, 0, 0]"] ;
871 -> 977 ;
978 [label="Sport <= 10.5\ngini = 0.681\nsamples = 117\nvalue = [4, 36, 45, 32]"] ;
870 -> 978 ;
979 [label="Sport <= 3.0\ngini = 0.689\nsamples = 104\nvalue = [4, 36, 32, 32]"] ;
978 -> 979 ;
980 [label="Sport <= 1.0\ngini = 0.542\nsamples = 40\nvalue = [1, 5, 25, 9]"] ;
979 -> 980 ;
981 [label="Height <= 166.5\ngini = 0.656\nsamples = 27\nvalue = [1, 5, 12, 9]"] ;
980 -> 981 ;
982 [label="Age <= 27.0\ngini = 0.375\nsamples = 8\nvalue = [0, 2, 6, 0]"] ;
981 -> 982 ;
983 [label="Weight <= 56.5\ngini = 0.5\nsamples = 4\nvalue = [0, 2, 2, 0]"] ;
982 -> 983 ;
984 [label="gini = 0.0\nsamples = 1\nvalue = [0, 0, 1, 0]"] ;
983 -> 984 ;
985 [label="Weight <= 58.5\ngini = 0.444\nsamples = 3\nvalue = [0, 2, 1, 0]"] ;
983 -> 985 ;
986 [label="gini = 0.5\nsamples = 2\nvalue = [0, 1, 1, 0]"] ;
985 -> 986 ;
987 [label="gini = 0.0\nsamples = 1\nvalue = [0, 1, 0, 0]"] ;
985 -> 987 ;
988 [label="gini = 0.0\nsamples = 4\nvalue = [0, 0, 4, 0]"] ;
982 -> 988 ;
989 [label="Weight <= 84.0\ngini = 0.648\nsamples = 19\nvalue = [1, 3, 6, 9]"] ;
981 -> 989 ;
990 [label="Weight <= 67.5\ngini = 0.623\nsamples = 18\nvalue = [1, 2, 6, 9]"] ;
989 -> 990 ;
991 [label="Weight <= 56.0\ngini = 0.658\nsamples = 15\nvalue = [1, 2, 6, 6]"] ;
990 -> 991 ;
992 [label="Age <= 22.5\ngini = 0.56\nsamples = 5\nvalue = [1, 1, 0, 3]"] ;
991 -> 992 ;
993 [label="gini = 0.0\nsamples = 2\nvalue = [0, 0, 0, 2]"] ;
992 -> 993 ;
994 [label="Age <= 27.5\ngini = 0.667\nsamples = 3\nvalue = [1, 1, 0, 1]"] ;
992 -> 994 ;
995 [label="gini = 0.0\nsamples = 1\nvalue = [0, 1, 0, 0]"] ;
994 -> 995 ;
996 [label="gini = 0.5\nsamples = 2\nvalue = [1, 0, 0, 1]"] ;
994 -> 996 ;
997 [label="Age <= 24.5\ngini = 0.54\nsamples = 10\nvalue = [0, 1, 6, 3]"] ;
991 -> 997 ;
998 [label="Age <= 21.5\ngini = 0.375\nsamples = 4\nvalue = [0, 1, 3, 0]"] ;
997 -> 998 ;
999 [label="Height <= 169.5\ngini = 0.5\nsamples = 2\nvalue = [0, 1, 1, 0]"] ;
998 -> 999 ;
1000 [label="gini = 0.0\nsamples = 1\nvalue = [0, 0, 1, 0]"] ;
999 -> 1000 ;
1001 [label="gini = 0.0\nsamples = 1\nvalue = [0, 1, 0, 0]"] ;
999 -> 1001 ;
1002 [label="gini = 0.0\nsamples = 2\nvalue = [0, 0, 2, 0]"] ;
998 -> 1002 ;
1003 [label="Weight <= 63.5\ngini = 0.5\nsamples = 6\nvalue = [0, 0, 3, 3]"] ;
997 -> 1003 ;
1004 [label="Age <= 27.5\ngini = 0.48\nsamples = 5\nvalue = [0, 0, 2, 3]"] ;
1003 -> 1004 ;
1005 [label="Height <= 172.5\ngini = 0.5\nsamples = 4\nvalue = [0, 0, 2, 2]"] ;
1004 -> 1005 ;
1006 [label="gini = 0.5\nsamples = 2\nvalue = [0, 0, 1, 1]"] ;
1005 -> 1006 ;
1007 [label="gini = 0.5\nsamples = 2\nvalue = [0, 0, 1, 1]"] ;
1005 -> 1007 ;
1008 [label="gini = 0.0\nsamples = 1\nvalue = [0, 0, 0, 1]"] ;
1004 -> 1008 ;
1009 [label="gini = 0.0\nsamples = 1\nvalue = [0, 0, 1, 0]"] ;
1003 -> 1009 ;
1010 [label="gini = 0.0\nsamples = 3\nvalue = [0, 0, 0, 3]"] ;
990 -> 1010 ;
1011 [label="gini = 0.0\nsamples = 1\nvalue = [0, 1, 0, 0]"] ;
989 -> 1011 ;
1012 [label="gini = 0.0\nsamples = 13\nvalue = [0, 0, 13, 0]"] ;
980 -> 1012 ;
1013 [label="Sport <= 5.0\ngini = 0.622\nsamples = 64\nvalue = [3, 31, 7, 23]"] ;
979 -> 1013 ;
1014 [label="Weight <= 80.5\ngini = 0.486\nsamples = 24\nvalue = [0, 6, 2, 16]"] ;
1013 -> 1014 ;
1015 [label="Age <= 22.5\ngini = 0.526\nsamples = 17\nvalue = [0, 6, 1, 10]"] ;
1014 -> 1015 ;
1016 [label="Age <= 20.5\ngini = 0.594\nsamples = 8\nvalue = [0, 4, 1, 3]"] ;
1015 -> 1016 ;
1017 [label="Weight <= 61.0\ngini = 0.56\nsamples = 5\nvalue = [0, 1, 1, 3]"] ;
1016 -> 1017 ;
1018 [label="Weight <= 53.0\ngini = 0.667\nsamples = 3\nvalue = [0, 1, 1, 1]"] ;
1017 -> 1018 ;
1019 [label="gini = 0.5\nsamples = 2\nvalue = [0, 1, 0, 1]"] ;
1018 -> 1019 ;
1020 [label="gini = 0.0\nsamples = 1\nvalue = [0, 0, 1, 0]"] ;
1018 -> 1020 ;
1021 [label="gini = 0.0\nsamples = 2\nvalue = [0, 0, 0, 2]"] ;
1017 -> 1021 ;
1022 [label="gini = 0.0\nsamples = 3\nvalue = [0, 3, 0, 0]"] ;
1016 -> 1022 ;
1023 [label="Weight <= 71.0\ngini = 0.346\nsamples = 9\nvalue = [0, 2, 0, 7]"] ;
1015 -> 1023 ;
1024 [label="Height <= 173.5\ngini = 0.48\nsamples = 5\nvalue = [0, 2, 0, 3]"] ;
1023 -> 1024 ;
1025 [label="Age <= 32.0\ngini = 0.375\nsamples = 4\nvalue = [0, 1, 0, 3]"] ;
1024 -> 1025 ;
1026 [label="gini = 0.0\nsamples = 2\nvalue = [0, 0, 0, 2]"] ;
1025 -> 1026 ;
1027 [label="gini = 0.5\nsamples = 2\nvalue = [0, 1, 0, 1]"] ;
1025 -> 1027 ;
1028 [label="gini = 0.0\nsamples = 1\nvalue = [0, 1, 0, 0]"] ;
1024 -> 1028 ;
1029 [label="gini = 0.0\nsamples = 4\nvalue = [0, 0, 0, 4]"] ;
1023 -> 1029 ;
1030 [label="Age <= 23.5\ngini = 0.245\nsamples = 7\nvalue = [0, 0, 1, 6]"] ;
1014 -> 1030 ;
1031 [label="Age <= 22.5\ngini = 0.375\nsamples = 4\nvalue = [0, 0, 1, 3]"] ;
1030 -> 1031 ;
1032 [label="gini = 0.0\nsamples = 2\nvalue = [0, 0, 0, 2]"] ;
1031 -> 1032 ;
1033 [label="Weight <= 84.5\ngini = 0.5\nsamples = 2\nvalue = [0, 0, 1, 1]"] ;
1031 -> 1033 ;
1034 [label="gini = 0.0\nsamples = 1\nvalue = [0, 0, 1, 0]"] ;
1033 -> 1034 ;
1035 [label="gini = 0.0\nsamples = 1\nvalue = [0, 0, 0, 1]"] ;
1033 -> 1035 ;
1036 [label="gini = 0.0\nsamples = 3\nvalue = [0, 0, 0, 3]"] ;
1030 -> 1036 ;
1037 [label="Sport <= 9.5\ngini = 0.558\nsamples = 40\nvalue = [3, 25, 5, 7]"] ;
1013 -> 1037 ;
1038 [label="Weight <= 48.5\ngini = 0.431\nsamples = 34\nvalue = [2, 25, 5, 2]"] ;
1037 -> 1038 ;
1039 [label="Weight <= 46.5\ngini = 0.444\nsamples = 6\nvalue = [0, 2, 4, 0]"] ;
1038 -> 1039 ;
1040 [label="gini = 0.5\nsamples = 4\nvalue = [0, 2, 2, 0]"] ;
1039 -> 1040 ;
1041 [label="gini = 0.0\nsamples = 2\nvalue = [0, 0, 2, 0]"] ;
1039 -> 1041 ;
1042 [label="Sport <= 8.5\ngini = 0.314\nsamples = 28\nvalue = [2, 23, 1, 2]"] ;
1038 -> 1042 ;
1043 [label="Height <= 169.5\ngini = 0.597\nsamples = 12\nvalue = [2, 7, 1, 2]"] ;
1042 -> 1043 ;
1044 [label="gini = 0.0\nsamples = 1\nvalue = [0, 0, 0, 1]"] ;
1043 -> 1044 ;
1045 [label="Weight <= 61.0\ngini = 0.545\nsamples = 11\nvalue = [2, 7, 1, 1]"] ;
1043 -> 1045 ;
1046 [label="gini = 0.5\nsamples = 4\nvalue = [2, 2, 0, 0]"] ;
1045 -> 1046 ;
1047 [label="Height <= 170.5\ngini = 0.449\nsamples = 7\nvalue = [0, 5, 1, 1]"] ;
1045 -> 1047 ;
1048 [label="Age <= 16.5\ngini = 0.5\nsamples = 2\nvalue = [0, 1, 1, 0]"] ;
1047 -> 1048 ;
1049 [label="gini = 0.0\nsamples = 1\nvalue = [0, 1, 0, 0]"] ;
1048 -> 1049 ;
1050 [label="gini = 0.0\nsamples = 1\nvalue = [0, 0, 1, 0]"] ;
1048 -> 1050 ;
1051 [label="Height <= 173.0\ngini = 0.32\nsamples = 5\nvalue = [0, 4, 0, 1]"] ;
1047 -> 1051 ;
1052 [label="Height <= 171.5\ngini = 0.444\nsamples = 3\nvalue = [0, 2, 0, 1]"] ;
1051 -> 1052 ;
1053 [label="gini = 0.0\nsamples = 1\nvalue = [0, 1, 0, 0]"] ;
1052 -> 1053 ;
1054 [label="gini = 0.5\nsamples = 2\nvalue = [0, 1, 0, 1]"] ;
1052 -> 1054 ;
1055 [label="gini = 0.0\nsamples = 2\nvalue = [0, 2, 0, 0]"] ;
1051 -> 1055 ;
1056 [label="gini = 0.0\nsamples = 16\nvalue = [0, 16, 0, 0]"] ;
1042 -> 1056 ;
1057 [label="Weight <= 60.5\ngini = 0.278\nsamples = 6\nvalue = [1, 0, 0, 5]"] ;
1037 -> 1057 ;
1058 [label="gini = 0.5\nsamples = 2\nvalue = [1, 0, 0, 1]"] ;
1057 -> 1058 ;
1059 [label="gini = 0.0\nsamples = 4\nvalue = [0, 0, 0, 4]"] ;
1057 -> 1059 ;
1060 [label="gini = 0.0\nsamples = 13\nvalue = [0, 0, 13, 0]"] ;
978 -> 1060 ;
1061 [label="Sport <= 15.5\ngini = 0.655\nsamples = 728\nvalue = [31, 178, 347, 172]"] ;
3 -> 1061 ;
1062 [label="Sport <= 14.5\ngini = 0.636\nsamples = 243\nvalue = [16, 79, 119, 29]"] ;
1061 -> 1062 ;
1063 [label="Host_Country <= 2.0\ngini = 0.64\nsamples = 156\nvalue = [16, 28, 83, 29]"] ;
1062 -> 1063 ;
1064 [label="Weight <= 94.5\ngini = 0.388\nsamples = 46\nvalue = [2, 1, 35, 8]"] ;
1063 -> 1064 ;
1065 [label="Age <= 22.5\ngini = 0.34\nsamples = 44\nvalue = [2, 0, 35, 7]"] ;
1064 -> 1065 ;
1066 [label="Weight <= 75.5\ngini = 0.465\nsamples = 19\nvalue = [0, 0, 12, 7]"] ;
1065 -> 1066 ;
1067 [label="Host_Country <= 0.5\ngini = 0.469\nsamples = 8\nvalue = [0, 0, 3, 5]"] ;
1066 -> 1067 ;
1068 [label="gini = 0.0\nsamples = 2\nvalue = [0, 0, 2, 0]"] ;
1067 -> 1068 ;
1069 [label="Age <= 19.5\ngini = 0.278\nsamples = 6\nvalue = [0, 0, 1, 5]"] ;
1067 -> 1069 ;
1070 [label="gini = 0.5\nsamples = 2\nvalue = [0, 0, 1, 1]"] ;
1069 -> 1070 ;
1071 [label="gini = 0.0\nsamples = 4\nvalue = [0, 0, 0, 4]"] ;
1069 -> 1071 ;
1072 [label="Height <= 191.0\ngini = 0.298\nsamples = 11\nvalue = [0, 0, 9, 2]"] ;
1066 -> 1072 ;
1073 [label="Weight <= 87.0\ngini = 0.18\nsamples = 10\nvalue = [0, 0, 9, 1]"] ;
1072 -> 1073 ;
1074 [label="gini = 0.0\nsamples = 7\nvalue = [0, 0, 7, 0]"] ;
1073 -> 1074 ;
1075 [label="Age <= 19.5\ngini = 0.444\nsamples = 3\nvalue = [0, 0, 2, 1]"] ;
1073 -> 1075 ;
1076 [label="gini = 0.5\nsamples = 2\nvalue = [0, 0, 1, 1]"] ;
1075 -> 1076 ;
1077 [label="gini = 0.0\nsamples = 1\nvalue = [0, 0, 1, 0]"] ;
1075 -> 1077 ;
1078 [label="gini = 0.0\nsamples = 1\nvalue = [0, 0, 0, 1]"] ;
1072 -> 1078 ;
1079 [label="Sport <= 13.5\ngini = 0.147\nsamples = 25\nvalue = [2, 0, 23, 0]"] ;
1065 -> 1079 ;
1080 [label="gini = 0.0\nsamples = 17\nvalue = [0, 0, 17, 0]"] ;
1079 -> 1080 ;
1081 [label="Height <= 178.5\ngini = 0.375\nsamples = 8\nvalue = [2, 0, 6, 0]"] ;
1079 -> 1081 ;
1082 [label="gini = 0.0\nsamples = 4\nvalue = [0, 0, 4, 0]"] ;
1081 -> 1082 ;
1083 [label="Weight <= 76.5\ngini = 0.5\nsamples = 4\nvalue = [2, 0, 2, 0]"] ;
1081 -> 1083 ;
1084 [label="gini = 0.0\nsamples = 1\nvalue = [1, 0, 0, 0]"] ;
1083 -> 1084 ;
1085 [label="Age <= 25.0\ngini = 0.444\nsamples = 3\nvalue = [1, 0, 2, 0]"] ;
1083 -> 1085 ;
1086 [label="gini = 0.5\nsamples = 2\nvalue = [1, 0, 1, 0]"] ;
1085 -> 1086 ;
1087 [label="gini = 0.0\nsamples = 1\nvalue = [0, 0, 1, 0]"] ;
1085 -> 1087 ;
1088 [label="Host_Country <= 0.5\ngini = 0.5\nsamples = 2\nvalue = [0, 1, 0, 1]"] ;
1064 -> 1088 ;
1089 [label="gini = 0.0\nsamples = 1\nvalue = [0, 1, 0, 0]"] ;
1088 -> 1089 ;
1090 [label="gini = 0.0\nsamples = 1\nvalue = [0, 0, 0, 1]"] ;
1088 -> 1090 ;
1091 [label="Host_Country <= 6.0\ngini = 0.697\nsamples = 110\nvalue = [14, 27, 48, 21]"] ;
1063 -> 1091 ;
1092 [label="Weight <= 66.5\ngini = 0.607\nsamples = 22\nvalue = [3, 12, 6, 1]"] ;
1091 -> 1092 ;
1093 [label="gini = 0.0\nsamples = 4\nvalue = [0, 0, 4, 0]"] ;
1092 -> 1093 ;
1094 [label="Height <= 186.0\ngini = 0.512\nsamples = 18\nvalue = [3, 12, 2, 1]"] ;
1092 -> 1094 ;
1095 [label="Host_Country <= 4.0\ngini = 0.457\nsamples = 17\nvalue = [3, 12, 2, 0]"] ;
1094 -> 1095 ;
1096 [label="Sport <= 13.5\ngini = 0.357\nsamples = 14\nvalue = [1, 11, 2, 0]"] ;
1095 -> 1096 ;
1097 [label="Weight <= 74.0\ngini = 0.5\nsamples = 2\nvalue = [1, 0, 1, 0]"] ;
1096 -> 1097 ;
1098 [label="gini = 0.0\nsamples = 1\nvalue = [0, 0, 1, 0]"] ;
1097 -> 1098 ;
1099 [label="gini = 0.0\nsamples = 1\nvalue = [1, 0, 0, 0]"] ;
1097 -> 1099 ;
1100 [label="Age <= 24.5\ngini = 0.153\nsamples = 12\nvalue = [0, 11, 1, 0]"] ;
1096 -> 1100 ;
1101 [label="gini = 0.0\nsamples = 8\nvalue = [0, 8, 0, 0]"] ;
1100 -> 1101 ;
1102 [label="Age <= 26.5\ngini = 0.375\nsamples = 4\nvalue = [0, 3, 1, 0]"] ;
1100 -> 1102 ;
1103 [label="gini = 0.5\nsamples = 2\nvalue = [0, 1, 1, 0]"] ;
1102 -> 1103 ;
1104 [label="gini = 0.0\nsamples = 2\nvalue = [0, 2, 0, 0]"] ;
1102 -> 1104 ;
1105 [label="Sex <= 0.5\ngini = 0.444\nsamples = 3\nvalue = [2, 1, 0, 0]"] ;
1095 -> 1105 ;
1106 [label="gini = 0.0\nsamples = 2\nvalue = [2, 0, 0, 0]"] ;
1105 -> 1106 ;
1107 [label="gini = 0.0\nsamples = 1\nvalue = [0, 1, 0, 0]"] ;
1105 -> 1107 ;
1108 [label="gini = 0.0\nsamples = 1\nvalue = [0, 0, 0, 1]"] ;
1094 -> 1108 ;
1109 [label="Height <= 173.5\ngini = 0.676\nsamples = 88\nvalue = [11, 15, 42, 20]"] ;
1091 -> 1109 ;
1110 [label="Age <= 20.5\ngini = 0.735\nsamples = 14\nvalue = [3, 5, 3, 3]"] ;
1109 -> 1110 ;
1111 [label="gini = 0.0\nsamples = 2\nvalue = [2, 0, 0, 0]"] ;
1110 -> 1111 ;
1112 [label="Weight <= 67.5\ngini = 0.694\nsamples = 12\nvalue = [1, 5, 3, 3]"] ;
1110 -> 1112 ;
1113 [label="Height <= 166.5\ngini = 0.49\nsamples = 7\nvalue = [0, 4, 3, 0]"] ;
1112 -> 1113 ;
1114 [label="Age <= 30.0\ngini = 0.48\nsamples = 5\nvalue = [0, 2, 3, 0]"] ;
1113 -> 1114 ;
1115 [label="gini = 0.0\nsamples = 2\nvalue = [0, 0, 2, 0]"] ;
1114 -> 1115 ;
1116 [label="Age <= 35.0\ngini = 0.444\nsamples = 3\nvalue = [0, 2, 1, 0]"] ;
1114 -> 1116 ;
1117 [label="gini = 0.5\nsamples = 2\nvalue = [0, 1, 1, 0]"] ;
1116 -> 1117 ;
1118 [label="gini = 0.0\nsamples = 1\nvalue = [0, 1, 0, 0]"] ;
1116 -> 1118 ;
1119 [label="gini = 0.0\nsamples = 2\nvalue = [0, 2, 0, 0]"] ;
1113 -> 1119 ;
1120 [label="Sex <= 0.5\ngini = 0.56\nsamples = 5\nvalue = [1, 1, 0, 3]"] ;
1112 -> 1120 ;
1121 [label="Weight <= 70.0\ngini = 0.667\nsamples = 3\nvalue = [1, 1, 0, 1]"] ;
1120 -> 1121 ;
1122 [label="gini = 0.0\nsamples = 1\nvalue = [1, 0, 0, 0]"] ;
1121 -> 1122 ;
1123 [label="Host_Country <= 10.5\ngini = 0.5\nsamples = 2\nvalue = [0, 1, 0, 1]"] ;
1121 -> 1123 ;
1124 [label="gini = 0.0\nsamples = 1\nvalue = [0, 0, 0, 1]"] ;
1123 -> 1124 ;
1125 [label="gini = 0.0\nsamples = 1\nvalue = [0, 1, 0, 0]"] ;
1123 -> 1125 ;
1126 [label="gini = 0.0\nsamples = 2\nvalue = [0, 0, 0, 2]"] ;
1120 -> 1126 ;
1127 [label="Age <= 26.5\ngini = 0.64\nsamples = 74\nvalue = [8, 10, 39, 17]"] ;
1109 -> 1127 ;
1128 [label="Host_Country <= 13.0\ngini = 0.588\nsamples = 57\nvalue = [6, 4, 33, 14]"] ;
1127 -> 1128 ;
1129 [label="Height <= 175.5\ngini = 0.647\nsamples = 36\nvalue = [4, 3, 17, 12]"] ;
1128 -> 1129 ;
1130 [label="gini = 0.0\nsamples = 4\nvalue = [0, 0, 4, 0]"] ;
1129 -> 1130 ;
1131 [label="Weight <= 75.5\ngini = 0.67\nsamples = 32\nvalue = [4, 3, 13, 12]"] ;
1129 -> 1131 ;
1132 [label="Age <= 18.5\ngini = 0.594\nsamples = 8\nvalue = [4, 0, 1, 3]"] ;
1131 -> 1132 ;
1133 [label="gini = 0.0\nsamples = 1\nvalue = [0, 0, 1, 0]"] ;
1132 -> 1133 ;
1134 [label="Weight <= 70.93\ngini = 0.49\nsamples = 7\nvalue = [4, 0, 0, 3]"] ;
1132 -> 1134 ;
1135 [label="gini = 0.0\nsamples = 2\nvalue = [2, 0, 0, 0]"] ;
1134 -> 1135 ;
1136 [label="Age <= 25.5\ngini = 0.48\nsamples = 5\nvalue = [2, 0, 0, 3]"] ;
1134 -> 1136 ;
1137 [label="Host_Country <= 8.0\ngini = 0.375\nsamples = 4\nvalue = [1, 0, 0, 3]"] ;
1136 -> 1137 ;
1138 [label="gini = 0.5\nsamples = 2\nvalue = [1, 0, 0, 1]"] ;
1137 -> 1138 ;
1139 [label="gini = 0.0\nsamples = 2\nvalue = [0, 0, 0, 2]"] ;
1137 -> 1139 ;
1140 [label="gini = 0.0\nsamples = 1\nvalue = [1, 0, 0, 0]"] ;
1136 -> 1140 ;
1141 [label="Sport <= 13.5\ngini = 0.594\nsamples = 24\nvalue = [0, 3, 12, 9]"] ;
1131 -> 1141 ;
1142 [label="Host_Country <= 8.5\ngini = 0.586\nsamples = 18\nvalue = [0, 2, 7, 9]"] ;
1141 -> 1142 ;
1143 [label="Age <= 23.0\ngini = 0.531\nsamples = 8\nvalue = [0, 2, 5, 1]"] ;
1142 -> 1143 ;
1144 [label="Weight <= 83.5\ngini = 0.625\nsamples = 4\nvalue = [0, 2, 1, 1]"] ;
1143 -> 1144 ;
1145 [label="gini = 0.0\nsamples = 2\nvalue = [0, 2, 0, 0]"] ;
1144 -> 1145 ;
1146 [label="gini = 0.5\nsamples = 2\nvalue = [0, 0, 1, 1]"] ;
1144 -> 1146 ;
1147 [label="gini = 0.0\nsamples = 4\nvalue = [0, 0, 4, 0]"] ;
1143 -> 1147 ;
1148 [label="Height <= 179.0\ngini = 0.32\nsamples = 10\nvalue = [0, 0, 2, 8]"] ;
1142 -> 1148 ;
1149 [label="Age <= 19.5\ngini = 0.444\nsamples = 3\nvalue = [0, 0, 2, 1]"] ;
1148 -> 1149 ;
1150 [label="gini = 0.0\nsamples = 1\nvalue = [0, 0, 0, 1]"] ;
1149 -> 1150 ;
1151 [label="gini = 0.0\nsamples = 2\nvalue = [0, 0, 2, 0]"] ;
1149 -> 1151 ;
1152 [label="gini = 0.0\nsamples = 7\nvalue = [0, 0, 0, 7]"] ;
1148 -> 1152 ;
1153 [label="Weight <= 78.0\ngini = 0.278\nsamples = 6\nvalue = [0, 1, 5, 0]"] ;
1141 -> 1153 ;
1154 [label="gini = 0.0\nsamples = 1\nvalue = [0, 1, 0, 0]"] ;
1153 -> 1154 ;
1155 [label="gini = 0.0\nsamples = 5\nvalue = [0, 0, 5, 0]"] ;
1153 -> 1155 ;
1156 [label="Age <= 19.5\ngini = 0.399\nsamples = 21\nvalue = [2, 1, 16, 2]"] ;
1128 -> 1156 ;
1157 [label="Weight <= 76.5\ngini = 0.667\nsamples = 3\nvalue = [0, 1, 1, 1]"] ;
1156 -> 1157 ;
1158 [label="gini = 0.0\nsamples = 1\nvalue = [0, 0, 0, 1]"] ;
1157 -> 1158 ;
1159 [label="Weight <= 81.0\ngini = 0.5\nsamples = 2\nvalue = [0, 1, 1, 0]"] ;
1157 -> 1159 ;
1160 [label="gini = 0.0\nsamples = 1\nvalue = [0, 0, 1, 0]"] ;
1159 -> 1160 ;
1161 [label="gini = 0.0\nsamples = 1\nvalue = [0, 1, 0, 0]"] ;
1159 -> 1161 ;
1162 [label="Height <= 193.5\ngini = 0.29\nsamples = 18\nvalue = [2, 0, 15, 1]"] ;
1156 -> 1162 ;
1163 [label="Age <= 22.0\ngini = 0.219\nsamples = 16\nvalue = [2, 0, 14, 0]"] ;
1162 -> 1163 ;
1164 [label="Weight <= 84.0\ngini = 0.32\nsamples = 10\nvalue = [2, 0, 8, 0]"] ;
1163 -> 1164 ;
1165 [label="Height <= 180.0\ngini = 0.408\nsamples = 7\nvalue = [2, 0, 5, 0]"] ;
1164 -> 1165 ;
1166 [label="gini = 0.0\nsamples = 2\nvalue = [0, 0, 2, 0]"] ;
1165 -> 1166 ;
1167 [label="Weight <= 77.5\ngini = 0.48\nsamples = 5\nvalue = [2, 0, 3, 0]"] ;
1165 -> 1167 ;
1168 [label="gini = 0.5\nsamples = 2\nvalue = [1, 0, 1, 0]"] ;
1167 -> 1168 ;
1169 [label="Height <= 182.5\ngini = 0.444\nsamples = 3\nvalue = [1, 0, 2, 0]"] ;
1167 -> 1169 ;
1170 [label="gini = 0.5\nsamples = 2\nvalue = [1, 0, 1, 0]"] ;
1169 -> 1170 ;
1171 [label="gini = 0.0\nsamples = 1\nvalue = [0, 0, 1, 0]"] ;
1169 -> 1171 ;
1172 [label="gini = 0.0\nsamples = 3\nvalue = [0, 0, 3, 0]"] ;
1164 -> 1172 ;
1173 [label="gini = 0.0\nsamples = 6\nvalue = [0, 0, 6, 0]"] ;
1163 -> 1173 ;
1174 [label="gini = 0.5\nsamples = 2\nvalue = [0, 0, 1, 1]"] ;
1162 -> 1174 ;
1175 [label="Height <= 177.596\ngini = 0.706\nsamples = 17\nvalue = [2, 6, 6, 3]"] ;
1127 -> 1175 ;
1176 [label="Sport <= 13.5\ngini = 0.678\nsamples = 11\nvalue = [1, 2, 5, 3]"] ;
1175 -> 1176 ;
