digraph Tree {
node [shape=box] ;
0 [label="NOC <= 181.5\ngini = 0.75\nsamples = 30841\nvalue = [7734, 7835, 7663, 7609]"] ;
1 [label="Sport <= 11.5\ngini = 0.747\nsamples = 24033\nvalue = [6170, 5090, 6888, 5885]"] ;
0 -> 1 [labeldistance=2.5, labelangle=45, headlabel="True"] ;
2 [label="Weight <= 69.25\ngini = 0.741\nsamples = 12769\nvalue = [3047, 2558, 4207, 2957]"] ;
1 -> 2 ;
3 [label="Sport <= 10.5\ngini = 0.719\nsamples = 4264\nvalue = [973, 718, 1694, 879]"] ;
2 -> 3 ;
4 [label="NOC <= 91.5\ngini = 0.737\nsamples = 3113\nvalue = [758, 579, 1059, 717]"] ;
3 -> 4 ;
5 [label="NOC <= 56.5\ngini = 0.745\nsamples = 2059\nvalue = [483, 428, 630, 518]"] ;
4 -> 5 ;
6 [label="Sport <= 9.5\ngini = 0.702\nsamples = 662\nvalue = [126, 93, 284, 159]"] ;
5 -> 6 ;
7 [label="Sport <= 8.5\ngini = 0.697\nsamples = 604\nvalue = [122, 89, 269, 124]"] ;
6 -> 7 ;
8 [label="NOC <= 48.5\ngini = 0.707\nsamples = 576\nvalue = [121, 88, 245, 122]"] ;
7 -> 8 ;
9 [label="NOC <= 28.5\ngini = 0.721\nsamples = 512\nvalue = [113, 84, 200, 115]"] ;
8 -> 9 ;
10 [label="gini = 0.667\nsamples = 216\nvalue = [34, 37, 108, 37]"] ;
9 -> 10 ;
11 [label="gini = 0.738\nsamples = 296\nvalue = [79, 47, 92, 78]"] ;
9 -> 11 ;
12 [label="Height <= 172.5\ngini = 0.474\nsamples = 64\nvalue = [8, 4, 45, 7]"] ;
8 -> 12 ;
13 [label="gini = 0.328\nsamples = 42\nvalue = [5, 1, 34, 2]"] ;
12 -> 13 ;
14 [label="gini = 0.661\nsamples = 22\nvalue = [3, 3, 11, 5]"] ;
12 -> 14 ;
15 [label="Weight <= 68.5\ngini = 0.258\nsamples = 28\nvalue = [1, 1, 24, 2]"] ;
7 -> 15 ;
16 [label="Weight <= 56.0\ngini = 0.156\nsamples = 24\nvalue = [0, 1, 22, 1]"] ;
15 -> 16 ;
17 [label="gini = 0.375\nsamples = 4\nvalue = [0, 1, 3, 0]"] ;
16 -> 17 ;
18 [label="gini = 0.095\nsamples = 20\nvalue = [0, 0, 19, 1]"] ;
16 -> 18 ;
19 [label="NOC <= 42.0\ngini = 0.625\nsamples = 4\nvalue = [1, 0, 2, 1]"] ;
15 -> 19 ;
20 [label="gini = 0.0\nsamples = 2\nvalue = [0, 0, 2, 0]"] ;
19 -> 20 ;
21 [label="gini = 0.5\nsamples = 2\nvalue = [1, 0, 0, 1]"] ;
19 -> 21 ;
22 [label="Host_Country <= 8.0\ngini = 0.559\nsamples = 58\nvalue = [4, 4, 15, 35]"] ;
6 -> 22 ;
23 [label="Weight <= 67.5\ngini = 0.539\nsamples = 16\nvalue = [1, 4, 10, 1]"] ;
22 -> 23 ;
24 [label="Host_Country <= 1.5\ngini = 0.391\nsamples = 13\nvalue = [1, 1, 10, 1]"] ;
23 -> 24 ;
25 [label="gini = 0.667\nsamples = 3\nvalue = [1, 1, 0, 1]"] ;
24 -> 25 ;
26 [label="gini = 0.0\nsamples = 10\nvalue = [0, 0, 10, 0]"] ;
24 -> 26 ;
27 [label="gini = 0.0\nsamples = 3\nvalue = [0, 3, 0, 0]"] ;
23 -> 27 ;
28 [label="Age <= 31.0\ngini = 0.325\nsamples = 42\nvalue = [3, 0, 5, 34]"] ;
22 -> 28 ;
29 [label="Height <= 159.0\ngini = 0.295\nsamples = 41\nvalue = [2, 0, 5, 34]"] ;
28 -> 29 ;
30 [label="gini = 0.0\nsamples = 1\nvalue = [0, 0, 1, 0]"] ;
29 -> 30 ;
31 [label="gini = 0.265\nsamples = 40\nvalue = [2, 0, 4, 34]"] ;
29 -> 31 ;
32 [label="gini = 0.0\nsamples = 1\nvalue = [1, 0, 0, 0]"] ;
28 -> 32 ;
33 [label="NOC <= 70.5\ngini = 0.75\nsamples = 1397\nvalue = [357, 335, 346, 359]"] ;
5 -> 33 ;
34 [label="NOC <= 61.5\ngini = 0.747\nsamples = 1008\nvalue = [278, 248, 209, 273]"] ;
33 -> 34 ;
35 [label="Sport <= 0.5\ngini = 0.729\nsamples = 186\nvalue = [36, 68, 48, 34]"] ;
34 -> 35 ;
36 [label="Weight <= 59.5\ngini = 0.245\nsamples = 7\nvalue = [6, 0, 1, 0]"] ;
35 -> 36 ;
37 [label="gini = 0.0\nsamples = 1\nvalue = [0, 0, 1, 0]"] ;
36 -> 37 ;
38 [label="gini = 0.0\nsamples = 6\nvalue = [6, 0, 0, 0]"] ;
36 -> 38 ;
39 [label="Sport <= 3.5\ngini = 0.723\nsamples = 179\nvalue = [30, 68, 47, 34]"] ;
35 -> 39 ;
40 [label="gini = 0.703\nsamples = 150\nvalue = [20, 64, 34, 32]"] ;
39 -> 40 ;
41 [label="gini = 0.656\nsamples = 29\nvalue = [10, 4, 13, 2]"] ;
39 -> 41 ;
42 [label="NOC <= 66.5\ngini = 0.742\nsamples = 822\nvalue = [242, 180, 161, 239]"] ;
34 -> 42 ;
43 [label="Sport <= 7.5\ngini = 0.743\nsamples = 518\nvalue = [160, 100, 125, 133]"] ;
42 -> 43 ;
44 [label="gini = 0.726\nsamples = 355\nvalue = [122, 46, 92, 95]"] ;
43 -> 44 ;
45 [label="gini = 0.741\nsamples = 163\nvalue = [38, 54, 33, 38]"] ;
43 -> 45 ;
46 [label="Height <= 174.5\ngini = 0.722\nsamples = 304\nvalue = [82, 80, 36, 106]"] ;
42 -> 46 ;
47 [label="gini = 0.714\nsamples = 213\nvalue = [59, 68, 19, 67]"] ;
46 -> 47 ;
48 [label="gini = 0.7\nsamples = 91\nvalue = [23, 12, 17, 39]"] ;
46 -> 48 ;
49 [label="NOC <= 80.0\ngini = 0.736\nsamples = 389\nvalue = [79, 87, 137, 86]"] ;
33 -> 49 ;
50 [label="Weight <= 53.0\ngini = 0.205\nsamples = 45\nvalue = [2, 1, 40, 2]"] ;
49 -> 50 ;
51 [label="Age <= 24.0\ngini = 0.5\nsamples = 2\nvalue = [0, 0, 1, 1]"] ;
50 -> 51 ;
52 [label="gini = 0.0\nsamples = 1\nvalue = [0, 0, 1, 0]"] ;
51 -> 52 ;
53 [label="gini = 0.0\nsamples = 1\nvalue = [0, 0, 0, 1]"] ;
51 -> 53 ;
54 [label="NOC <= 71.5\ngini = 0.174\nsamples = 43\nvalue = [2, 1, 39, 1]"] ;
50 -> 54 ;
55 [label="gini = 0.5\nsamples = 6\nvalue = [1, 0, 4, 1]"] ;
54 -> 55 ;
56 [label="gini = 0.104\nsamples = 37\nvalue = [1, 1, 35, 0]"] ;
54 -> 56 ;
57 [label="Sport <= 4.5\ngini = 0.748\nsamples = 344\nvalue = [77, 86, 97, 84]"] ;
49 -> 57 ;
58 [label="Height <= 163.5\ngini = 0.678\nsamples = 137\nvalue = [25, 24, 66, 22]"] ;
57 -> 58 ;
59 [label="gini = 0.655\nsamples = 20\nvalue = [1, 3, 8, 8]"] ;
58 -> 59 ;
60 [label="gini = 0.666\nsamples = 117\nvalue = [24, 21, 58, 14]"] ;
58 -> 60 ;
61 [label="Host_Country <= 10.5\ngini = 0.735\nsamples = 207\nvalue = [52, 62, 31, 62]"] ;
57 -> 61 ;
62 [label="gini = 0.714\nsamples = 125\nvalue = [27, 51, 19, 28]"] ;
61 -> 62 ;
63 [label="gini = 0.696\nsamples = 82\nvalue = [25, 11, 12, 34]"] ;
61 -> 63 ;
64 [label="NOC <= 128.5\ngini = 0.71\nsamples = 1054\nvalue = [275, 151, 429, 199]"] ;
4 -> 64 ;
65 [label="Sport <= 4.5\ngini = 0.661\nsamples = 357\nvalue = [74, 46, 180, 57]"] ;
64 -> 65 ;
66 [label="NOC <= 99.5\ngini = 0.703\nsamples = 271\nvalue = [51, 46, 118, 56]"] ;
65 -> 66 ;
67 [label="NOC <= 96.5\ngini = 0.735\nsamples = 185\nvalue = [37, 36, 64, 48]"] ;
66 -> 67 ;
68 [label="Age <= 21.5\ngini = 0.65\nsamples = 90\nvalue = [21, 9, 46, 14]"] ;
67 -> 68 ;
69 [label="gini = 0.371\nsamples = 23\nvalue = [2, 1, 18, 2]"] ;
68 -> 69 ;
70 [label="gini = 0.699\nsamples = 67\nvalue = [19, 8, 28, 12]"] ;
68 -> 70 ;
71 [label="Host_Country <= 11.5\ngini = 0.727\nsamples = 95\nvalue = [16, 27, 18, 34]"] ;
67 -> 71 ;
72 [label="gini = 0.719\nsamples = 54\nvalue = [8, 21, 12, 13]"] ;
71 -> 72 ;
73 [label="gini = 0.657\nsamples = 41\nvalue = [8, 6, 6, 21]"] ;
71 -> 73 ;
74 [label="NOC <= 112.0\ngini = 0.557\nsamples = 86\nvalue = [14, 10, 54, 8]"] ;
66 -> 74 ;
75 [label="Weight <= 67.5\ngini = 0.117\nsamples = 16\nvalue = [0, 1, 15, 0]"] ;
74 -> 75 ;
76 [label="gini = 0.0\nsamples = 14\nvalue = [0, 0, 14, 0]"] ;
75 -> 76 ;
77 [label="gini = 0.5\nsamples = 2\nvalue = [0, 1, 1, 0]"] ;
75 -> 77 ;
78 [label="NOC <= 113.5\ngini = 0.62\nsamples = 70\nvalue = [14, 9, 39, 8]"] ;
74 -> 78 ;
79 [label="gini = 0.729\nsamples = 15\nvalue = [5, 4, 4, 2]"] ;
78 -> 79 ;
80 [label="gini = 0.548\nsamples = 55\nvalue = [9, 5, 35, 6]"] ;
78 -> 80 ;
81 [label="Host_Country <= 11.5\ngini = 0.409\nsamples = 86\nvalue = [23, 0, 62, 1]"] ;
65 -> 81 ;
82 [label="Age <= 20.5\ngini = 0.095\nsamples = 40\nvalue = [2, 0, 38, 0]"] ;
81 -> 82 ;
83 [label="Age <= 19.5\ngini = 0.408\nsamples = 7\nvalue = [2, 0, 5, 0]"] ;
82 -> 83 ;
84 [label="gini = 0.278\nsamples = 6\nvalue = [1, 0, 5, 0]"] ;
83 -> 84 ;
85 [label="gini = 0.0\nsamples = 1\nvalue = [1, 0, 0, 0]"] ;
83 -> 85 ;
86 [label="gini = 0.0\nsamples = 33\nvalue = [0, 0, 33, 0]"] ;
82 -> 86 ;
87 [label="Host_Country <= 15.0\ngini = 0.519\nsamples = 46\nvalue = [21, 0, 24, 1]"] ;
81 -> 87 ;
88 [label="Age <= 22.5\ngini = 0.381\nsamples = 25\nvalue = [19, 0, 5, 1]"] ;
87 -> 88 ;
89 [label="gini = 0.0\nsamples = 5\nvalue = [0, 0, 5, 0]"] ;
88 -> 89 ;
90 [label="gini = 0.095\nsamples = 20\nvalue = [19, 0, 0, 1]"] ;
88 -> 90 ;
91 [label="Weight <= 68.5\ngini = 0.172\nsamples = 21\nvalue = [2, 0, 19, 0]"] ;
87 -> 91 ;
92 [label="gini = 0.1\nsamples = 19\nvalue = [1, 0, 18, 0]"] ;
91 -> 92 ;
93 [label="gini = 0.5\nsamples = 2\nvalue = [1, 0, 1, 0]"] ;
91 -> 93 ;
94 [label="NOC <= 168.5\ngini = 0.725\nsamples = 697\nvalue = [201, 105, 249, 142]"] ;
64 -> 94 ;
95 [label="Age <= 19.5\ngini = 0.732\nsamples = 598\nvalue = [184, 96, 192, 126]"] ;
94 -> 95 ;
96 [label="Sport <= 8.0\ngini = 0.613\nsamples = 52\nvalue = [5, 6, 29, 12]"] ;
95 -> 96 ;
97 [label="Weight <= 62.0\ngini = 0.564\nsamples = 47\nvalue = [5, 4, 29, 9]"] ;
96 -> 97 ;
98 [label="gini = 0.65\nsamples = 35\nvalue = [5, 4, 18, 8]"] ;
97 -> 98 ;
99 [label="gini = 0.153\nsamples = 12\nvalue = [0, 0, 11, 1]"] ;
97 -> 99 ;
100 [label="Weight <= 60.5\ngini = 0.48\nsamples = 5\nvalue = [0, 2, 0, 3]"] ;
96 -> 100 ;
101 [label="gini = 0.0\nsamples = 3\nvalue = [0, 0, 0, 3]"] ;
100 -> 101 ;
102 [label="gini = 0.0\nsamples = 2\nvalue = [0, 2, 0, 0]"] ;
100 -> 102 ;
103 [label="Weight <= 68.5\ngini = 0.733\nsamples = 546\nvalue = [179, 90, 163, 114]"] ;
95 -> 103 ;
104 [label="Sport <= 3.5\ngini = 0.731\nsamples = 503\nvalue = [175, 83, 139, 106]"] ;
103 -> 104 ;
105 [label="gini = 0.736\nsamples = 238\nvalue = [63, 47, 81, 47]"] ;
104 -> 105 ;
106 [label="gini = 0.705\nsamples = 265\nvalue = [112, 36, 58, 59]"] ;
104 -> 106 ;
107 [label="Age <= 22.5\ngini = 0.619\nsamples = 43\nvalue = [4, 7, 24, 8]"] ;
103 -> 107 ;
108 [label="gini = 0.7\nsamples = 10\nvalue = [2, 4, 1, 3]"] ;
107 -> 108 ;
109 [label="gini = 0.479\nsamples = 33\nvalue = [2, 3, 23, 5]"] ;
107 -> 109 ;
110 [label="Sport <= 6.5\ngini = 0.605\nsamples = 99\nvalue = [17, 9, 57, 16]"] ;
94 -> 110 ;
111 [label="Sport <= 4.5\ngini = 0.559\nsamples = 90\nvalue = [17, 7, 56, 10]"] ;
110 -> 111 ;
112 [label="Sport <= 3.5\ngini = 0.605\nsamples = 79\nvalue = [17, 7, 45, 10]"] ;
111 -> 112 ;
113 [label="gini = 0.539\nsamples = 51\nvalue = [7, 5, 33, 6]"] ;
112 -> 113 ;
114 [label="gini = 0.663\nsamples = 28\nvalue = [10, 2, 12, 4]"] ;
112 -> 114 ;
115 [label="gini = 0.0\nsamples = 11\nvalue = [0, 0, 11, 0]"] ;
111 -> 115 ;
116 [label="Host_Country <= 11.0\ngini = 0.494\nsamples = 9\nvalue = [0, 2, 1, 6]"] ;
110 -> 116 ;
117 [label="NOC <= 173.5\ngini = 0.245\nsamples = 7\nvalue = [0, 0, 1, 6]"] ;
116 -> 117 ;
118 [label="gini = 0.0\nsamples = 6\nvalue = [0, 0, 0, 6]"] ;
117 -> 118 ;
119 [label="gini = 0.0\nsamples = 1\nvalue = [0, 0, 1, 0]"] ;
117 -> 119 ;
120 [label="gini = 0.0\nsamples = 2\nvalue = [0, 2, 0, 0]"] ;
116 -> 120 ;
121 [label="NOC <= 35.5\ngini = 0.626\nsamples = 1151\nvalue = [215, 139, 635, 162]"] ;
3 -> 121 ;
122 [label="Weight <= 67.5\ngini = 0.199\nsamples = 102\nvalue = [7, 2, 91, 2]"] ;
121 -> 122 ;
123 [label="Height <= 176.096\ngini = 0.14\nsamples = 95\nvalue = [3, 2, 88, 2]"] ;
122 -> 123 ;
124 [label="Weight <= 66.5\ngini = 0.122\nsamples = 94\nvalue = [3, 2, 88, 1]"] ;
123 -> 124 ;
125 [label="Host_Country <= 10.5\ngini = 0.107\nsamples = 90\nvalue = [2, 2, 85, 1]"] ;
124 -> 125 ;
126 [label="gini = 0.0\nsamples = 43\nvalue = [0, 0, 43, 0]"] ;
125 -> 126 ;
127 [label="Weight <= 64.5\ngini = 0.197\nsamples = 47\nvalue = [2, 2, 42, 1]"] ;
125 -> 127 ;
128 [label="gini = 0.166\nsamples = 45\nvalue = [2, 2, 41, 0]"] ;
127 -> 128 ;
129 [label="gini = 0.5\nsamples = 2\nvalue = [0, 0, 1, 1]"] ;
127 -> 129 ;
130 [label="NOC <= 31.0\ngini = 0.375\nsamples = 4\nvalue = [1, 0, 3, 0]"] ;
124 -> 130 ;
131 [label="Age <= 23.0\ngini = 0.5\nsamples = 2\nvalue = [1, 0, 1, 0]"] ;
130 -> 131 ;
132 [label="gini = 0.0\nsamples = 1\nvalue = [0, 0, 1, 0]"] ;
131 -> 132 ;
133 [label="gini = 0.0\nsamples = 1\nvalue = [1, 0, 0, 0]"] ;
131 -> 133 ;
134 [label="gini = 0.0\nsamples = 2\nvalue = [0, 0, 2, 0]"] ;
130 -> 134 ;
135 [label="gini = 0.0\nsamples = 1\nvalue = [0, 0, 0, 1]"] ;
123 -> 135 ;
136 [label="Host_Country <= 15.0\ngini = 0.49\nsamples = 7\nvalue = [4, 0, 3, 0]"] ;
122 -> 136 ;
137 [label="gini = 0.0\nsamples = 3\nvalue = [0, 0, 3, 0]"] ;
136 -> 137 ;
138 [label="gini = 0.0\nsamples = 4\nvalue = [4, 0, 0, 0]"] ;
136 -> 138 ;
139 [label="NOC <= 42.0\ngini = 0.651\nsamples = 1049\nvalue = [208, 137, 544, 160]"] ;
121 -> 139 ;
140 [label="Sex <= 0.5\ngini = 0.7\nsamples = 67\nvalue = [11, 9, 19, 28]"] ;
139 -> 140 ;
141 [label="Height <= 142.5\ngini = 0.706\nsamples = 17\nvalue = [6, 2, 6, 3]"] ;
140 -> 141 ;
142 [label="Host_Country <= 9.5\ngini = 0.375\nsamples = 4\nvalue = [0, 1, 0, 3]"] ;
141 -> 142 ;
143 [label="gini = 0.5\nsamples = 2\nvalue = [0, 1, 0, 1]"] ;
142 -> 143 ;
144 [label="gini = 0.0\nsamples = 2\nvalue = [0, 0, 0, 2]"] ;
142 -> 144 ;
145 [label="Host_Country <= 13.5\ngini = 0.568\nsamples = 13\nvalue = [6, 1, 6, 0]"] ;
141 -> 145 ;
146 [label="gini = 0.0\nsamples = 4\nvalue = [0, 0, 4, 0]"] ;
145 -> 146 ;
147 [label="Age <= 19.5\ngini = 0.494\nsamples = 9\nvalue = [6, 1, 2, 0]"] ;
145 -> 147 ;
148 [label="gini = 0.32\nsamples = 5\nvalue = [4, 0, 1, 0]"] ;
147 -> 148 ;
149 [label="gini = 0.625\nsamples = 4\nvalue = [2, 1, 1, 0]"] ;
147 -> 149 ;
150 [label="Height <= 164.5\ngini = 0.653\nsamples = 50\nvalue = [5, 7, 13, 25]"] ;
140 -> 150 ;
151 [label="Host_Country <= 13.5\ngini = 0.693\nsamples = 30\nvalue = [3, 7, 7, 13]"] ;
150 -> 151 ;
152 [label="Host_Country <= 7.0\ngini = 0.686\nsamples = 13\nvalue = [2, 2, 6, 3]"] ;
151 -> 152 ;
153 [label="gini = 0.694\nsamples = 7\nvalue = [1, 1, 2, 3]"] ;
152 -> 153 ;
154 [label="gini = 0.5\nsamples = 6\nvalue = [1, 1, 4, 0]"] ;
152 -> 154 ;
155 [label="Height <= 163.5\ngini = 0.561\nsamples = 17\nvalue = [1, 5, 1, 10]"] ;
151 -> 155 ;
156 [label="gini = 0.43\nsamples = 11\nvalue = [0, 2, 1, 8]"] ;
155 -> 156 ;
157 [label="gini = 0.611\nsamples = 6\nvalue = [1, 3, 0, 2]"] ;
155 -> 157 ;
158 [label="Height <= 168.5\ngini = 0.54\nsamples = 20\nvalue = [2, 0, 6, 12]"] ;
150 -> 158 ;
159 [label="Age <= 21.5\ngini = 0.444\nsamples = 12\nvalue = [0, 0, 4, 8]"] ;
158 -> 159 ;
160 [label="gini = 0.5\nsamples = 4\nvalue = [0, 0, 2, 2]"] ;
159 -> 160 ;
161 [label="gini = 0.375\nsamples = 8\nvalue = [0, 0, 2, 6]"] ;
159 -> 161 ;
162 [label="Age <= 21.5\ngini = 0.625\nsamples = 8\nvalue = [2, 0, 2, 4]"] ;
158 -> 162 ;
163 [label="gini = 0.444\nsamples = 3\nvalue = [1, 0, 0, 2]"] ;
162 -> 163 ;
164 [label="gini = 0.64\nsamples = 5\nvalue = [1, 0, 2, 2]"] ;
162 -> 164 ;
165 [label="NOC <= 66.5\ngini = 0.639\nsamples = 982\nvalue = [197, 128, 525, 132]"] ;
139 -> 165 ;
166 [label="Host_Country <= 6.5\ngini = 0.424\nsamples = 200\nvalue = [27, 19, 148, 6]"] ;
165 -> 166 ;
167 [label="NOC <= 61.5\ngini = 0.657\nsamples = 78\nvalue = [16, 19, 38, 5]"] ;
166 -> 167 ;
168 [label="Age <= 19.5\ngini = 0.704\nsamples = 51\nvalue = [13, 19, 15, 4]"] ;
167 -> 168 ;
169 [label="gini = 0.408\nsamples = 14\nvalue = [0, 4, 10, 0]"] ;
168 -> 169 ;
170 [label="gini = 0.682\nsamples = 37\nvalue = [13, 15, 5, 4]"] ;
168 -> 170 ;
171 [label="Weight <= 65.5\ngini = 0.261\nsamples = 27\nvalue = [3, 0, 23, 1]"] ;
167 -> 171 ;
172 [label="gini = 0.087\nsamples = 22\nvalue = [0, 0, 21, 1]"] ;
171 -> 172 ;
173 [label="gini = 0.48\nsamples = 5\nvalue = [3, 0, 2, 0]"] ;
171 -> 173 ;
174 [label="NOC <= 61.5\ngini = 0.179\nsamples = 122\nvalue = [11, 0, 110, 1]"] ;
166 -> 174 ;
175 [label="NOC <= 58.5\ngini = 0.331\nsamples = 54\nvalue = [10, 0, 43, 1]"] ;
174 -> 175 ;
176 [label="gini = 0.0\nsamples = 24\nvalue = [0, 0, 24, 0]"] ;
175 -> 176 ;
177 [label="gini = 0.487\nsamples = 30\nvalue = [10, 0, 19, 1]"] ;
175 -> 177 ;
178 [label="Weight <= 64.5\ngini = 0.029\nsamples = 68\nvalue = [1, 0, 67, 0]"] ;
174 -> 178 ;
179 [label="gini = 0.0\nsamples = 51\nvalue = [0, 0, 51, 0]"] ;
178 -> 179 ;
180 [label="gini = 0.111\nsamples = 17\nvalue = [1, 0, 16, 0]"] ;
178 -> 180 ;
181 [label="NOC <= 68.5\ngini = 0.675\nsamples = 782\nvalue = [170, 109, 377, 126]"] ;
165 -> 181 ;
182 [label="Height <= 157.5\ngini = 0.662\nsamples = 110\nvalue = [52, 6, 25, 27]"] ;
181 -> 182 ;
183 [label="Host_Country <= 9.0\ngini = 0.571\nsamples = 23\nvalue = [13, 3, 0, 7]"] ;
182 -> 183 ;
184 [label="gini = 0.667\nsamples = 6\nvalue = [2, 2, 0, 2]"] ;
183 -> 184 ;
185 [label="gini = 0.491\nsamples = 17\nvalue = [11, 1, 0, 5]"] ;
183 -> 185 ;
186 [label="Host_Country <= 4.5\ngini = 0.662\nsamples = 87\nvalue = [39, 3, 25, 20]"] ;
182 -> 186 ;
187 [label="gini = 0.499\nsamples = 19\nvalue = [12, 0, 6, 1]"] ;
186 -> 187 ;
188 [label="gini = 0.684\nsamples = 68\nvalue = [27, 3, 19, 19]"] ;
186 -> 188 ;
189 [label="Height <= 166.5\ngini = 0.65\nsamples = 672\nvalue = [118, 103, 352, 99]"] ;
181 -> 189 ;
190 [label="Age <= 24.5\ngini = 0.69\nsamples = 513\nvalue = [97, 89, 237, 90]"] ;
189 -> 190 ;
191 [label="gini = 0.638\nsamples = 370\nvalue = [64, 45, 199, 62]"] ;
190 -> 191 ;
192 [label="gini = 0.743\nsamples = 143\nvalue = [33, 44, 38, 28]"] ;
190 -> 192 ;
193 [label="NOC <= 95.5\ngini = 0.448\nsamples = 159\nvalue = [21, 14, 115, 9]"] ;
189 -> 193 ;
194 [label="gini = 0.64\nsamples = 71\nvalue = [17, 11, 37, 6]"] ;
193 -> 194 ;
195 [label="gini = 0.21\nsamples = 88\nvalue = [4, 3, 78, 3]"] ;
193 -> 195 ;
196 [label="Sport <= 3.5\ngini = 0.747\nsamples = 8505\nvalue = [2074, 1840, 2513, 2078]"] ;
2 -> 196 ;
197 [label="Sport <= 0.5\ngini = 0.713\nsamples = 2216\nvalue = [520, 299, 893, 504]"] ;
196 -> 197 ;
198 [label="Host_Country <= 1.5\ngini = 0.723\nsamples = 174\nvalue = [28, 63, 32, 51]"] ;
197 -> 198 ;
199 [label="NOC <= 39.5\ngini = 0.59\nsamples = 80\nvalue = [10, 41, 0, 29]"] ;
198 -> 199 ;
200 [label="Age <= 34.833\ngini = 0.433\nsamples = 45\nvalue = [2, 32, 0, 11]"] ;
199 -> 200 ;
201 [label="gini = 0.418\nsamples = 30\nvalue = [2, 22, 0, 6]"] ;
200 -> 201 ;
202 [label="Age <= 49.0\ngini = 0.444\nsamples = 15\nvalue = [0, 10, 0, 5]"] ;
200 -> 202 ;
203 [label="gini = 0.444\nsamples = 9\nvalue = [0, 6, 0, 3]"] ;
202 -> 203 ;
204 [label="gini = 0.444\nsamples = 6\nvalue = [0, 4, 0, 2]"] ;
202 -> 204 ;
205 [label="NOC <= 95.5\ngini = 0.617\nsamples = 35\nvalue = [8, 9, 0, 18]"] ;
199 -> 205 ;
206 [label="Age <= 42.0\ngini = 0.466\nsamples = 27\nvalue = [8, 1, 0, 18]"] ;
205 -> 206 ;
207 [label="Age <= 39.0\ngini = 0.426\nsamples = 13\nvalue = [4, 0, 0, 9]"] ;
206 -> 207 ;
208 [label="gini = 0.444\nsamples = 9\nvalue = [3, 0, 0, 6]"] ;
207 -> 208 ;
209 [label="gini = 0.375\nsamples = 4\nvalue = [1, 0, 0, 3]"] ;
207 -> 209 ;
210 [label="Age <= 48.5\ngini = 0.5\nsamples = 14\nvalue = [4, 1, 0, 9]"] ;
206 -> 210 ;
211 [label="gini = 0.56\nsamples = 5\nvalue = [1, 1, 0, 3]"] ;
210 -> 211 ;
212 [label="gini = 0.444\nsamples = 9\nvalue = [3, 0, 0, 6]"] ;
210 -> 212 ;
213 [label="gini = 0.0\nsamples = 8\nvalue = [0, 8, 0, 0]"] ;
205 -> 213 ;
214 [label="NOC <= 108.5\ngini = 0.738\nsamples = 94\nvalue = [18, 22, 32, 22]"] ;
198 -> 214 ;
215 [label="Weight <= 78.0\ngini = 0.748\nsamples = 81\nvalue = [18, 22, 22, 19]"] ;
214 -> 215 ;
216 [label="Sex <= 0.5\ngini = 0.732\nsamples = 64\nvalue = [11, 22, 13, 18]"] ;
215 -> 216 ;
217 [label="NOC <= 90.5\ngini = 0.655\nsamples = 20\nvalue = [1, 8, 8, 3]"] ;
216 -> 217 ;
218 [label="gini = 0.583\nsamples = 12\nvalue = [1, 1, 7, 3]"] ;
217 -> 218 ;
219 [label="gini = 0.219\nsamples = 8\nvalue = [0, 7, 1, 0]"] ;
217 -> 219 ;
220 [label="Height <= 171.0\ngini = 0.718\nsamples = 44\nvalue = [10, 14, 5, 15]"] ;
216 -> 220 ;
221 [label="gini = 0.0\nsamples = 3\nvalue = [3, 0, 0, 0]"] ;
220 -> 221 ;
222 [label="gini = 0.706\nsamples = 41\nvalue = [7, 14, 5, 15]"] ;
220 -> 222 ;
223 [label="NOC <= 64.5\ngini = 0.547\nsamples = 17\nvalue = [7, 0, 9, 1]"] ;
215 -> 223 ;
224 [label="gini = 0.0\nsamples = 5\nvalue = [0, 0, 5, 0]"] ;
223 -> 224 ;
225 [label="Height <= 176.5\ngini = 0.542\nsamples = 12\nvalue = [7, 0, 4, 1]"] ;
223 -> 225 ;
226 [label="gini = 0.444\nsamples = 3\nvalue = [0, 0, 2, 1]"] ;
225 -> 226 ;
227 [label="gini = 0.346\nsamples = 9\nvalue = [7, 0, 2, 0]"] ;
225 -> 227 ;
228 [label="Height <= 177.096\ngini = 0.355\nsamples = 13\nvalue = [0, 0, 10, 3]"] ;
214 -> 228 ;
229 [label="NOC <= 164.5\ngini = 0.5\nsamples = 6\nvalue = [0, 0, 3, 3]"] ;
228 -> 229 ;
230 [label="Age <= 38.5\ngini = 0.375\nsamples = 4\nvalue = [0, 0, 3, 1]"] ;
229 -> 230 ;
231 [label="gini = 0.0\nsamples = 3\nvalue = [0, 0, 3, 0]"] ;
230 -> 231 ;
232 [label="gini = 0.0\nsamples = 1\nvalue = [0, 0, 0, 1]"] ;
230 -> 232 ;
233 [label="gini = 0.0\nsamples = 2\nvalue = [0, 0, 0, 2]"] ;
229 -> 233 ;
234 [label="gini = 0.0\nsamples = 7\nvalue = [0, 0, 7, 0]"] ;
228 -> 234 ;
235 [label="Height <= 177.596\ngini = 0.702\nsamples = 2042\nvalue = [492, 236, 861, 453]"] ;
197 -> 235 ;
236 [label="Sex <= 0.5\ngini = 0.642\nsamples = 799\nvalue = [174, 64, 416, 145]"] ;
235 -> 236 ;
237 [label="Weight <= 71.5\ngini = 0.739\nsamples = 131\nvalue = [31, 25, 44, 31]"] ;
236 -> 237 ;
238 [label="NOC <= 52.0\ngini = 0.654\nsamples = 19\nvalue = [2, 9, 2, 6]"] ;
237 -> 238 ;
239 [label="gini = 0.0\nsamples = 3\nvalue = [0, 0, 0, 3]"] ;
238 -> 239 ;
240 [label="Sport <= 1.5\ngini = 0.617\nsamples = 16\nvalue = [2, 9, 2, 3]"] ;
238 -> 240 ;
241 [label="gini = 0.578\nsamples = 15\nvalue = [2, 9, 1, 3]"] ;
240 -> 241 ;
242 [label="gini = 0.0\nsamples = 1\nvalue = [0, 0, 1, 0]"] ;
240 -> 242 ;
243 [label="NOC <= 152.0\ngini = 0.722\nsamples = 112\nvalue = [29, 16, 42, 25]"] ;
237 -> 243 ;
244 [label="NOC <= 78.0\ngini = 0.733\nsamples = 103\nvalue = [27, 16, 35, 25]"] ;
243 -> 244 ;
245 [label="gini = 0.69\nsamples = 71\nvalue = [21, 5, 29, 16]"] ;
244 -> 245 ;
246 [label="gini = 0.732\nsamples = 32\nvalue = [6, 11, 6, 9]"] ;
244 -> 246 ;
247 [label="Host_Country <= 9.5\ngini = 0.346\nsamples = 9\nvalue = [2, 0, 7, 0]"] ;
243 -> 247 ;
248 [label="gini = 0.0\nsamples = 4\nvalue = [0, 0, 4, 0]"] ;
247 -> 248 ;
249 [label="gini = 0.48\nsamples = 5\nvalue = [2, 0, 3, 0]"] ;
247 -> 249 ;
250 [label="NOC <= 84.0\ngini = 0.612\nsamples = 668\nvalue = [143, 39, 372, 114]"] ;
236 -> 250 ;
251 [label="NOC <= 61.5\ngini = 0.659\nsamples = 430\nvalue = [96, 34, 212, 88]"] ;
250 -> 251 ;
252 [label="Weight <= 73.43\ngini = 0.518\nsamples = 155\nvalue = [25, 5, 102, 23]"] ;
251 -> 252 ;
253 [label="gini = 0.491\nsamples = 148\nvalue = [21, 4, 101, 22]"] ;
252 -> 253 ;
254 [label="gini = 0.612\nsamples = 7\nvalue = [4, 1, 1, 1]"] ;
252 -> 254 ;
255 [label="Host_Country <= 5.5\ngini = 0.706\nsamples = 275\nvalue = [71, 29, 110, 65]"] ;
251 -> 255 ;
256 [label="gini = 0.732\nsamples = 101\nvalue = [25, 15, 27, 34]"] ;
255 -> 256 ;
257 [label="gini = 0.664\nsamples = 174\nvalue = [46, 14, 83, 31]"] ;
255 -> 257 ;
258 [label="Weight <= 79.0\ngini = 0.497\nsamples = 238\nvalue = [47, 5, 160, 26]"] ;
250 -> 258 ;
259 [label="NOC <= 164.5\ngini = 0.482\nsamples = 230\nvalue = [43, 5, 158, 24]"] ;
258 -> 259 ;
260 [label="gini = 0.438\nsamples = 182\nvalue = [31, 4, 132, 15]"] ;
259 -> 260 ;
261 [label="gini = 0.609\nsamples = 48\nvalue = [12, 1, 26, 9]"] ;
259 -> 261 ;
262 [label="NOC <= 131.0\ngini = 0.625\nsamples = 8\nvalue = [4, 0, 2, 2]"] ;
258 -> 262 ;
263 [label="gini = 0.0\nsamples = 2\nvalue = [2, 0, 0, 0]"] ;
262 -> 263 ;
264 [label="gini = 0.667\nsamples = 6\nvalue = [2, 0, 2, 2]"] ;
262 -> 264 ;
265 [label="NOC <= 109.5\ngini = 0.726\nsamples = 1243\nvalue = [318, 172, 445, 308]"] ;
235 -> 265 ;
266 [label="NOC <= 108.0\ngini = 0.73\nsamples = 947\nvalue = [266, 127, 304, 250]"] ;
265 -> 266 ;
267 [label="NOC <= 28.5\ngini = 0.73\nsamples = 922\nvalue = [243, 126, 303, 250]"] ;
266 -> 267 ;
268 [label="NOC <= 26.5\ngini = 0.636\nsamples = 126\nvalue = [53, 3, 51, 19]"] ;
267 -> 268 ;
269 [label="gini = 0.604\nsamples = 73\nvalue = [19, 2, 40, 12]"] ;
268 -> 269 ;
270 [label="gini = 0.528\nsamples = 53\nvalue = [34, 1, 11, 7]"] ;
268 -> 270 ;
271 [label="Sport <= 2.5\ngini = 0.735\nsamples = 796\nvalue = [190, 123, 252, 231]"] ;
267 -> 271 ;
272 [label="gini = 0.741\nsamples = 639\nvalue = [165, 114, 197, 163]"] ;
271 -> 272 ;
273 [label="gini = 0.661\nsamples = 157\nvalue = [25, 9, 55, 68]"] ;
271 -> 273 ;
274 [label="Sport <= 2.0\ngini = 0.15\nsamples = 25\nvalue = [23, 1, 1, 0]"] ;
266 -> 274 ;
275 [label="Age <= 28.0\ngini = 0.5\nsamples = 2\nvalue = [0, 1, 1, 0]"] ;
274 -> 275 ;
276 [label="gini = 0.0\nsamples = 1\nvalue = [0, 0, 1, 0]"] ;
275 -> 276 ;
277 [label="gini = 0.0\nsamples = 1\nvalue = [0, 1, 0, 0]"] ;
275 -> 277 ;
278 [label="gini = 0.0\nsamples = 23\nvalue = [23, 0, 0, 0]"] ;
274 -> 278 ;
279 [label="NOC <= 165.5\ngini = 0.681\nsamples = 296\nvalue = [52, 45, 141, 58]"] ;
265 -> 279 ;
280 [label="Height <= 204.5\ngini = 0.609\nsamples = 178\nvalue = [16, 21, 100, 41]"] ;
279 -> 280 ;
281 [label="Sex <= 0.5\ngini = 0.595\nsamples = 171\nvalue = [16, 21, 100, 34]"] ;
280 -> 281 ;
282 [label="gini = 0.722\nsamples = 13\nvalue = [3, 5, 3, 2]"] ;
281 -> 282 ;
283 [label="gini = 0.565\nsamples = 158\nvalue = [13, 16, 97, 32]"] ;
281 -> 283 ;
284 [label="gini = 0.0\nsamples = 7\nvalue = [0, 0, 0, 7]"] ;
280 -> 284 ;
285 [label="Sport <= 2.0\ngini = 0.724\nsamples = 118\nvalue = [36, 24, 41, 17]"] ;
279 -> 285 ;
286 [label="Host_Country <= 8.5\ngini = 0.73\nsamples = 112\nvalue = [36, 24, 35, 17]"] ;
285 -> 286 ;
287 [label="gini = 0.703\nsamples = 62\nvalue = [23, 19, 15, 5]"] ;
286 -> 287 ;
288 [label="gini = 0.705\nsamples = 50\nvalue = [13, 5, 20, 12]"] ;
286 -> 288 ;
289 [label="gini = 0.0\nsamples = 6\nvalue = [0, 0, 6, 0]"] ;
285 -> 289 ;
290 [label="NOC <= 58.5\ngini = 0.75\nsamples = 6289\nvalue = [1554, 1541, 1620, 1574]"] ;
196 -> 290 ;
291 [label="Sport <= 9.5\ngini = 0.728\nsamples = 1333\nvalue = [312, 189, 458, 374]"] ;
290 -> 291 ;
292 [label="NOC <= 50.5\ngini = 0.707\nsamples = 809\nvalue = [219, 115, 331, 144]"] ;
291 -> 292 ;
293 [label="Sport <= 5.5\ngini = 0.716\nsamples = 739\nvalue = [213, 110, 283, 133]"] ;
292 -> 293 ;
294 [label="Weight <= 76.5\ngini = 0.73\nsamples = 248\nvalue = [85, 40, 72, 51]"] ;
293 -> 294 ;
295 [label="Host_Country <= 0.5\ngini = 0.73\nsamples = 164\nvalue = [47, 22, 53, 42]"] ;
294 -> 295 ;
296 [label="gini = 0.46\nsamples = 10\nvalue = [7, 0, 2, 1]"] ;
295 -> 296 ;
297 [label="gini = 0.732\nsamples = 154\nvalue = [40, 22, 51, 41]"] ;
295 -> 297 ;
298 [label="NOC <= 31.0\ngini = 0.687\nsamples = 84\nvalue = [38, 18, 19, 9]"] ;
294 -> 298 ;
299 [label="gini = 0.563\nsamples = 52\nvalue = [31, 4, 14, 3]"] ;
298 -> 299 ;
300 [label="gini = 0.701\nsamples = 32\nvalue = [7, 14, 5, 6]"] ;
298 -> 300 ;
301 [label="NOC <= 24.5\ngini = 0.699\nsamples = 491\nvalue = [128, 70, 211, 82]"] ;
293 -> 301 ;
302 [label="NOC <= 8.5\ngini = 0.723\nsamples = 298\nvalue = [92, 47, 105, 54]"] ;
301 -> 302 ;
303 [label="gini = 0.32\nsamples = 25\nvalue = [5, 0, 20, 0]"] ;
302 -> 303 ;
304 [label="gini = 0.733\nsamples = 273\nvalue = [87, 47, 85, 54]"] ;
302 -> 304 ;
305 [label="NOC <= 44.0\ngini = 0.628\nsamples = 193\nvalue = [36, 23, 106, 28]"] ;
301 -> 305 ;
306 [label="gini = 0.483\nsamples = 84\nvalue = [14, 3, 58, 9]"] ;
305 -> 306 ;
307 [label="gini = 0.701\nsamples = 109\nvalue = [22, 20, 48, 19]"] ;
305 -> 307 ;
308 [label="Sport <= 8.5\ngini = 0.493\nsamples = 70\nvalue = [6, 5, 48, 11]"] ;
292 -> 308 ;
309 [label="Host_Country <= 12.5\ngini = 0.6\nsamples = 52\nvalue = [6, 5, 30, 11]"] ;
308 -> 309 ;
310 [label="Age <= 38.0\ngini = 0.457\nsamples = 28\nvalue = [0, 1, 19, 8]"] ;
309 -> 310 ;
311 [label="gini = 0.411\nsamples = 26\nvalue = [0, 1, 19, 6]"] ;
310 -> 311 ;
312 [label="gini = 0.0\nsamples = 2\nvalue = [0, 0, 0, 2]"] ;
310 -> 312 ;
313 [label="Age <= 28.5\ngini = 0.684\nsamples = 24\nvalue = [6, 4, 11, 3]"] ;
309 -> 313 ;
314 [label="gini = 0.611\nsamples = 18\nvalue = [6, 0, 9, 3]"] ;
313 -> 314 ;
315 [label="gini = 0.444\nsamples = 6\nvalue = [0, 4, 2, 0]"] ;
313 -> 315 ;
316 [label="gini = 0.0\nsamples = 18\nvalue = [0, 0, 18, 0]"] ;
308 -> 316 ;
317 [label="Sex <= 0.5\ngini = 0.697\nsamples = 524\nvalue = [93, 74, 127, 230]"] ;
291 -> 317 ;
318 [label="Weight <= 71.43\ngini = 0.18\nsamples = 20\nvalue = [0, 0, 18, 2]"] ;
317 -> 318 ;
319 [label="gini = 0.0\nsamples = 2\nvalue = [0, 0, 0, 2]"] ;
318 -> 319 ;
320 [label="gini = 0.0\nsamples = 18\nvalue = [0, 0, 18, 0]"] ;
318 -> 320 ;
321 [label="Host_Country <= 6.5\ngini = 0.693\nsamples = 504\nvalue = [93, 74, 109, 228]"] ;
317 -> 321 ;
322 [label="Host_Country <= 3.5\ngini = 0.742\nsamples = 246\nvalue = [59, 47, 62, 78]"] ;
321 -> 322 ;
323 [label="NOC <= 47.5\ngini = 0.699\nsamples = 163\nvalue = [37, 47, 14, 65]"] ;
322 -> 323 ;
324 [label="gini = 0.681\nsamples = 82\nvalue = [37, 13, 9, 23]"] ;
323 -> 324 ;
325 [label="gini = 0.551\nsamples = 81\nvalue = [0, 34, 5, 42]"] ;
323 -> 325 ;
326 [label="Sport <= 10.5\ngini = 0.571\nsamples = 83\nvalue = [22, 0, 48, 13]"] ;
322 -> 326 ;
327 [label="gini = 0.634\nsamples = 46\nvalue = [22, 0, 11, 13]"] ;
326 -> 327 ;
328 [label="gini = 0.0\nsamples = 37\nvalue = [0, 0, 37, 0]"] ;
326 -> 328 ;
329 [label="NOC <= 51.5\ngini = 0.6\nsamples = 258\nvalue = [34, 27, 47, 150]"] ;
321 -> 329 ;
330 [label="Host_Country <= 14.5\ngini = 0.574\nsamples = 245\nvalue = [34, 27, 34, 150]"] ;
329 -> 330 ;
331 [label="gini = 0.485\nsamples = 114\nvalue = [0, 12, 25, 77]"] ;
330 -> 331 ;
332 [label="gini = 0.604\nsamples = 131\nvalue = [34, 15, 9, 73]"] ;
330 -> 332 ;
333 [label="gini = 0.0\nsamples = 13\nvalue = [0, 0, 13, 0]"] ;
329 -> 333 ;
334 [label="NOC <= 93.5\ngini = 0.749\nsamples = 4956\nvalue = [1242, 1352, 1162, 1200]"] ;
290 -> 334 ;
335 [label="Sport <= 10.5\ngini = 0.743\nsamples = 3012\nvalue = [769, 928, 583, 732]"] ;
334 -> 335 ;
336 [label="NOC <= 90.5\ngini = 0.736\nsamples = 2411\nvalue = [603, 786, 392, 630]"] ;
335 -> 336 ;
337 [label="NOC <= 81.5\ngini = 0.741\nsamples = 1900\nvalue = [504, 589, 340, 467]"] ;
336 -> 337 ;
338 [label="NOC <= 61.5\ngini = 0.739\nsamples = 1867\nvalue = [501, 589, 312, 465]"] ;
337 -> 338 ;
339 [label="gini = 0.684\nsamples = 63\nvalue = [14, 13, 29, 7]"] ;
338 -> 339 ;
340 [label="gini = 0.736\nsamples = 1804\nvalue = [487, 576, 283, 458]"] ;
338 -> 340 ;
341 [label="Age <= 20.5\ngini = 0.268\nsamples = 33\nvalue = [3, 0, 28, 2]"] ;
337 -> 341 ;
342 [label="gini = 0.625\nsamples = 4\nvalue = [2, 0, 1, 1]"] ;
341 -> 342 ;
343 [label="gini = 0.131\nsamples = 29\nvalue = [1, 0, 27, 1]"] ;
341 -> 343 ;
344 [label="Host_Country <= 1.5\ngini = 0.702\nsamples = 511\nvalue = [99, 197, 52, 163]"] ;
336 -> 344 ;
345 [label="Sport <= 8.5\ngini = 0.485\nsamples = 71\nvalue = [11, 49, 3, 8]"] ;
344 -> 345 ;
346 [label="gini = 0.685\nsamples = 29\nvalue = [9, 12, 2, 6]"] ;
345 -> 346 ;
347 [label="gini = 0.219\nsamples = 42\nvalue = [2, 37, 1, 2]"] ;
345 -> 347 ;
348 [label="Sport <= 9.5\ngini = 0.71\nsamples = 440\nvalue = [88, 148, 49, 155]"] ;
344 -> 348 ;
349 [label="gini = 0.698\nsamples = 406\nvalue = [72, 137, 42, 155]"] ;
348 -> 349 ;
350 [label="gini = 0.631\nsamples = 34\nvalue = [16, 11, 7, 0]"] ;
348 -> 350 ;
351 [label="NOC <= 66.5\ngini = 0.738\nsamples = 601\nvalue = [166, 142, 191, 102]"] ;
335 -> 351 ;
352 [label="Host_Country <= 14.0\ngini = 0.668\nsamples = 258\nvalue = [107, 19, 94, 38]"] ;
351 -> 352 ;
353 [label="NOC <= 61.5\ngini = 0.642\nsamples = 208\nvalue = [81, 19, 91, 17]"] ;
352 -> 353 ;
354 [label="gini = 0.627\nsamples = 71\nvalue = [38, 15, 14, 4]"] ;
353 -> 354 ;
355 [label="gini = 0.576\nsamples = 137\nvalue = [43, 4, 77, 13]"] ;
353 -> 355 ;
356 [label="NOC <= 64.0\ngini = 0.55\nsamples = 50\nvalue = [26, 0, 3, 21]"] ;
352 -> 356 ;
357 [label="gini = 0.278\nsamples = 25\nvalue = [3, 0, 1, 21]"] ;
356 -> 357 ;
358 [label="gini = 0.147\nsamples = 25\nvalue = [23, 0, 2, 0]"] ;
356 -> 358 ;
359 [label="Host_Country <= 1.5\ngini = 0.727\nsamples = 343\nvalue = [59, 123, 97, 64]"] ;
351 -> 359 ;
360 [label="Host_Country <= 0.5\ngini = 0.45\nsamples = 52\nvalue = [0, 37, 9, 6]"] ;
359 -> 360 ;
361 [label="gini = 0.656\nsamples = 24\nvalue = [0, 9, 9, 6]"] ;
360 -> 361 ;
362 [label="gini = 0.0\nsamples = 28\nvalue = [0, 28, 0, 0]"] ;
360 -> 362 ;
363 [label="Host_Country <= 11.5\ngini = 0.74\nsamples = 291\nvalue = [59, 86, 88, 58]"] ;
359 -> 363 ;
364 [label="gini = 0.721\nsamples = 208\nvalue = [54, 57, 73, 24]"] ;
363 -> 364 ;
365 [label="gini = 0.674\nsamples = 83\nvalue = [5, 29, 15, 34]"] ;
363 -> 365 ;
366 [label="NOC <= 127.5\ngini = 0.747\nsamples = 1944\nvalue = [473, 424, 579, 468]"] ;
334 -> 366 ;
367 [label="Sport <= 4.5\ngini = 0.436\nsamples = 194\nvalue = [26, 9, 142, 17]"] ;
366 -> 367 ;
368 [label="Age <= 24.5\ngini = 0.673\nsamples = 30\nvalue = [10, 3, 13, 4]"] ;
367 -> 368 ;
369 [label="NOC <= 108.5\ngini = 0.704\nsamples = 19\nvalue = [8, 3, 5, 3]"] ;
368 -> 369 ;
370 [label="gini = 0.627\nsamples = 13\nvalue = [7, 3, 1, 2]"] ;
369 -> 370 ;
371 [label="gini = 0.5\nsamples = 6\nvalue = [1, 0, 4, 1]"] ;
369 -> 371 ;
372 [label="NOC <= 115.5\ngini = 0.43\nsamples = 11\nvalue = [2, 0, 8, 1]"] ;
368 -> 372 ;
373 [label="gini = 0.219\nsamples = 8\nvalue = [0, 0, 7, 1]"] ;
372 -> 373 ;
374 [label="gini = 0.444\nsamples = 3\nvalue = [2, 0, 1, 0]"] ;
372 -> 374 ;
375 [label="Age <= 26.5\ngini = 0.364\nsamples = 164\nvalue = [16, 6, 129, 13]"] ;
367 -> 375 ;
376 [label="NOC <= 95.5\ngini = 0.213\nsamples = 111\nvalue = [8, 0, 98, 5]"] ;
375 -> 376 ;
377 [label="gini = 0.531\nsamples = 24\nvalue = [6, 0, 15, 3]"] ;
376 -> 377 ;
378 [label="gini = 0.089\nsamples = 87\nvalue = [2, 0, 83, 2]"] ;
376 -> 378 ;
379 [label="NOC <= 115.0\ngini = 0.6\nsamples = 53\nvalue = [8, 6, 31, 8]"] ;
375 -> 379 ;
380 [label="gini = 0.351\nsamples = 34\nvalue = [2, 1, 27, 4]"] ;
379 -> 380 ;
381 [label="gini = 0.742\nsamples = 19\nvalue = [6, 5, 4, 4]"] ;
379 -> 381 ;
382 [label="NOC <= 164.0\ngini = 0.75\nsamples = 1750\nvalue = [447, 415, 437, 451]"] ;
366 -> 382 ;
383 [label="Host_Country <= 7.5\ngini = 0.74\nsamples = 1144\nvalue = [325, 192, 290, 337]"] ;
382 -> 383 ;
384 [label="NOC <= 130.0\ngini = 0.709\nsamples = 634\nvalue = [163, 55, 187, 229]"] ;
383 -> 384 ;
385 [label="gini = 0.659\nsamples = 109\nvalue = [53, 12, 30, 14]"] ;
384 -> 385 ;
386 [label="gini = 0.692\nsamples = 525\nvalue = [110, 43, 157, 215]"] ;
384 -> 386 ;
387 [label="Sport <= 9.5\ngini = 0.741\nsamples = 510\nvalue = [162, 137, 103, 108]"] ;
383 -> 387 ;
388 [label="gini = 0.734\nsamples = 355\nvalue = [114, 54, 86, 101]"] ;
387 -> 388 ;
389 [label="gini = 0.603\nsamples = 155\nvalue = [48, 83, 17, 7]"] ;
387 -> 389 ;
390 [label="NOC <= 167.0\ngini = 0.73\nsamples = 606\nvalue = [122, 223, 147, 114]"] ;
382 -> 390 ;
391 [label="Sport <= 10.5\ngini = 0.691\nsamples = 399\nvalue = [93, 181, 58, 67]"] ;
390 -> 391 ;
392 [label="gini = 0.734\nsamples = 289\nvalue = [92, 88, 48, 61]"] ;
391 -> 392 ;
393 [label="gini = 0.274\nsamples = 110\nvalue = [1, 93, 10, 6]"] ;
391 -> 393 ;
394 [label="NOC <= 171.5\ngini = 0.703\nsamples = 207\nvalue = [29, 42, 89, 47]"] ;
390 -> 394 ;
395 [label="gini = 0.728\nsamples = 173\nvalue = [25, 41, 61, 46]"] ;
394 -> 395 ;
396 [label="gini = 0.306\nsamples = 34\nvalue = [4, 1, 28, 1]"] ;
394 -> 396 ;
397 [label="Sport <= 18.5\ngini = 0.748\nsamples = 11264\nvalue = [3123, 2532, 2681, 2928]"] ;
1 -> 397 ;
398 [label="NOC <= 62.5\ngini = 0.741\nsamples = 5274\nvalue = [1502, 1418, 892, 1462]"] ;
397 -> 398 ;
399 [label="NOC <= 9.0\ngini = 0.74\nsamples = 1622\nvalue = [515, 298, 375, 434]"] ;
398 -> 399 ;
400 [label="Sport <= 17.5\ngini = 0.436\nsamples = 58\nvalue = [3, 2, 42, 11]"] ;
399 -> 400 ;
401 [label="Sport <= 16.0\ngini = 0.247\nsamples = 44\nvalue = [3, 2, 38, 1]"] ;
400 -> 401 ;
402 [label="gini = 0.0\nsamples = 26\nvalue = [0, 0, 26, 0]"] ;
401 -> 402 ;
403 [label="Host_Country <= 4.5\ngini = 0.512\nsamples = 18\nvalue = [3, 2, 12, 1]"] ;
401 -> 403 ;
404 [label="Host_Country <= 3.0\ngini = 0.5\nsamples = 4\nvalue = [0, 2, 2, 0]"] ;
403 -> 404 ;
405 [label="gini = 0.0\nsamples = 1\nvalue = [0, 0, 1, 0]"] ;
404 -> 405 ;
406 [label="Age <= 26.0\ngini = 0.444\nsamples = 3\nvalue = [0, 2, 1, 0]"] ;
404 -> 406 ;
407 [label="gini = 0.0\nsamples = 1\nvalue = [0, 1, 0, 0]"] ;
406 -> 407 ;
408 [label="gini = 0.5\nsamples = 2\nvalue = [0, 1, 1, 0]"] ;
406 -> 408 ;
409 [label="Weight <= 87.0\ngini = 0.439\nsamples = 14\nvalue = [3, 0, 10, 1]"] ;
403 -> 409 ;
410 [label="Age <= 25.333\ngini = 0.298\nsamples = 11\nvalue = [2, 0, 9, 0]"] ;
409 -> 410 ;
411 [label="gini = 0.444\nsamples = 6\nvalue = [2, 0, 4, 0]"] ;
410 -> 411 ;
412 [label="gini = 0.0\nsamples = 5\nvalue = [0, 0, 5, 0]"] ;
410 -> 412 ;
413 [label="Weight <= 89.0\ngini = 0.667\nsamples = 3\nvalue = [1, 0, 1, 1]"] ;
409 -> 413 ;
414 [label="gini = 0.5\nsamples = 2\nvalue = [1, 0, 0, 1]"] ;
413 -> 414 ;
415 [label="gini = 0.0\nsamples = 1\nvalue = [0, 0, 1, 0]"] ;
413 -> 415 ;
416 [label="Host_Country <= 5.5\ngini = 0.408\nsamples = 14\nvalue = [0, 0, 4, 10]"] ;
400 -> 416 ;
417 [label="gini = 0.0\nsamples = 2\nvalue = [0, 0, 2, 0]"] ;
416 -> 417 ;
418 [label="Height <= 177.596\ngini = 0.278\nsamples = 12\nvalue = [0, 0, 2, 10]"] ;
416 -> 418 ;
419 [label="Weight <= 63.0\ngini = 0.165\nsamples = 11\nvalue = [0, 0, 1, 10]"] ;
418 -> 419 ;
420 [label="Host_Country <= 8.0\ngini = 0.5\nsamples = 2\nvalue = [0, 0, 1, 1]"] ;
419 -> 420 ;
421 [label="gini = 0.0\nsamples = 1\nvalue = [0, 0, 0, 1]"] ;
420 -> 421 ;
422 [label="gini = 0.0\nsamples = 1\nvalue = [0, 0, 1, 0]"] ;
420 -> 422 ;
423 [label="gini = 0.0\nsamples = 9\nvalue = [0, 0, 0, 9]"] ;
419 -> 423 ;
424 [label="gini = 0.0\nsamples = 1\nvalue = [0, 0, 1, 0]"] ;
418 -> 424 ;
425 [label="Sex <= 0.5\ngini = 0.739\nsamples = 1564\nvalue = [512, 296, 333, 423]"] ;
399 -> 425 ;
426 [label="Sport <= 13.5\ngini = 0.711\nsamples = 302\nvalue = [100, 110, 42, 50]"] ;
425 -> 426 ;
427 [label="Sport <= 12.5\ngini = 0.564\nsamples = 105\nvalue = [26, 62, 17, 0]"] ;
426 -> 427 ;
428 [label="NOC <= 57.5\ngini = 0.576\nsamples = 47\nvalue = [26, 15, 6, 0]"] ;
427 -> 428 ;
429 [label="NOC <= 43.5\ngini = 0.628\nsamples = 34\nvalue = [13, 15, 6, 0]"] ;
428 -> 429 ;
430 [label="gini = 0.401\nsamples = 18\nvalue = [13, 0, 5, 0]"] ;
429 -> 430 ;
431 [label="gini = 0.117\nsamples = 16\nvalue = [0, 15, 1, 0]"] ;
429 -> 431 ;
432 [label="gini = 0.0\nsamples = 13\nvalue = [13, 0, 0, 0]"] ;
428 -> 432 ;
433 [label="NOC <= 10.5\ngini = 0.307\nsamples = 58\nvalue = [0, 47, 11, 0]"] ;
427 -> 433 ;
434 [label="Host_Country <= 7.0\ngini = 0.157\nsamples = 35\nvalue = [0, 32, 3, 0]"] ;
433 -> 434 ;
435 [label="gini = 0.0\nsamples = 3\nvalue = [0, 0, 3, 0]"] ;
434 -> 435 ;
436 [label="gini = 0.0\nsamples = 32\nvalue = [0, 32, 0, 0]"] ;
434 -> 436 ;
437 [label="Host_Country <= 7.0\ngini = 0.454\nsamples = 23\nvalue = [0, 15, 8, 0]"] ;
433 -> 437 ;
438 [label="gini = 0.117\nsamples = 16\nvalue = [0, 15, 1, 0]"] ;
437 -> 438 ;
439 [label="gini = 0.0\nsamples = 7\nvalue = [0, 0, 7, 0]"] ;
437 -> 439 ;
440 [label="Host_Country <= 7.0\ngini = 0.719\nsamples = 197\nvalue = [74, 48, 25, 50]"] ;
426 -> 440 ;
441 [label="NOC <= 35.5\ngini = 0.687\nsamples = 62\nvalue = [16, 28, 8, 10]"] ;
440 -> 441 ;
442 [label="Age <= 23.0\ngini = 0.544\nsamples = 30\nvalue = [2, 19, 3, 6]"] ;
441 -> 442 ;
443 [label="gini = 0.594\nsamples = 8\nvalue = [0, 1, 3, 4]"] ;
442 -> 443 ;
444 [label="gini = 0.314\nsamples = 22\nvalue = [2, 18, 0, 2]"] ;
442 -> 444 ;
445 [label="Sport <= 17.5\ngini = 0.689\nsamples = 32\nvalue = [14, 9, 5, 4]"] ;
441 -> 445 ;
446 [label="gini = 0.636\nsamples = 27\nvalue = [14, 7, 4, 2]"] ;
445 -> 446 ;
447 [label="gini = 0.64\nsamples = 5\nvalue = [0, 2, 1, 2]"] ;
445 -> 447 ;
448 [label="NOC <= 52.5\ngini = 0.69\nsamples = 135\nvalue = [58, 20, 17, 40]"] ;
440 -> 448 ;
449 [label="NOC <= 26.0\ngini = 0.667\nsamples = 120\nvalue = [53, 10, 17, 40]"] ;
448 -> 449 ;
450 [label="gini = 0.51\nsamples = 27\nvalue = [18, 4, 4, 1]"] ;
449 -> 450 ;
451 [label="gini = 0.659\nsamples = 93\nvalue = [35, 6, 13, 39]"] ;
449 -> 451 ;
452 [label="Weight <= 47.0\ngini = 0.444\nsamples = 15\nvalue = [5, 10, 0, 0]"] ;
448 -> 452 ;
453 [label="gini = 0.0\nsamples = 6\nvalue = [0, 6, 0, 0]"] ;
452 -> 453 ;
454 [label="gini = 0.494\nsamples = 9\nvalue = [5, 4, 0, 0]"] ;
452 -> 454 ;
455 [label="Weight <= 79.5\ngini = 0.731\nsamples = 1262\nvalue = [412, 186, 291, 373]"] ;
425 -> 455 ;
456 [label="NOC <= 56.5\ngini = 0.713\nsamples = 897\nvalue = [299, 93, 202, 303]"] ;
455 -> 456 ;
457 [label="NOC <= 33.5\ngini = 0.707\nsamples = 592\nvalue = [168, 51, 153, 220]"] ;
456 -> 457 ;
458 [label="Sport <= 12.5\ngini = 0.68\nsamples = 370\nvalue = [130, 19, 78, 143]"] ;
457 -> 458 ;
459 [label="gini = 0.083\nsamples = 23\nvalue = [0, 0, 1, 22]"] ;
458 -> 459 ;
460 [label="gini = 0.686\nsamples = 347\nvalue = [130, 19, 77, 121]"] ;
458 -> 460 ;
461 [label="Host_Country <= 12.5\ngini = 0.715\nsamples = 222\nvalue = [38, 32, 75, 77]"] ;
457 -> 461 ;
462 [label="gini = 0.689\nsamples = 140\nvalue = [29, 13, 61, 37]"] ;
461 -> 462 ;
463 [label="gini = 0.667\nsamples = 82\nvalue = [9, 19, 14, 40]"] ;
461 -> 463 ;
464 [label="NOC <= 61.5\ngini = 0.697\nsamples = 305\nvalue = [131, 42, 49, 83]"] ;
456 -> 464 ;
465 [label="Sport <= 14.5\ngini = 0.572\nsamples = 75\nvalue = [46, 7, 11, 11]"] ;
464 -> 465 ;
466 [label="gini = 0.219\nsamples = 8\nvalue = [0, 7, 1, 0]"] ;
465 -> 466 ;
467 [label="gini = 0.479\nsamples = 67\nvalue = [46, 0, 10, 11]"] ;
465 -> 467 ;
468 [label="Sport <= 16.0\ngini = 0.715\nsamples = 230\nvalue = [85, 35, 38, 72]"] ;
464 -> 468 ;
469 [label="gini = 0.574\nsamples = 31\nvalue = [16, 3, 12, 0]"] ;
468 -> 469 ;
470 [label="gini = 0.706\nsamples = 199\nvalue = [69, 32, 26, 72]"] ;
468 -> 470 ;
471 [label="Sport <= 12.5\ngini = 0.743\nsamples = 365\nvalue = [113, 93, 89, 70]"] ;
455 -> 471 ;
472 [label="NOC <= 45.0\ngini = 0.619\nsamples = 55\nvalue = [27, 18, 10, 0]"] ;
471 -> 472 ;
473 [label="Height <= 184.5\ngini = 0.153\nsamples = 12\nvalue = [0, 11, 1, 0]"] ;
472 -> 473 ;
474 [label="gini = 0.0\nsamples = 1\nvalue = [0, 0, 1, 0]"] ;
473 -> 474 ;
475 [label="gini = 0.0\nsamples = 11\nvalue = [0, 11, 0, 0]"] ;
473 -> 475 ;
476 [label="NOC <= 60.5\ngini = 0.535\nsamples = 43\nvalue = [27, 7, 9, 0]"] ;
472 -> 476 ;
477 [label="gini = 0.638\nsamples = 30\nvalue = [14, 7, 9, 0]"] ;
476 -> 477 ;
478 [label="gini = 0.0\nsamples = 13\nvalue = [13, 0, 0, 0]"] ;
476 -> 478 ;
479 [label="Sport <= 13.5\ngini = 0.749\nsamples = 310\nvalue = [86, 75, 79, 70]"] ;
471 -> 479 ;
480 [label="Host_Country <= 7.5\ngini = 0.571\nsamples = 21\nvalue = [8, 0, 2, 11]"] ;
479 -> 480 ;
481 [label="gini = 0.346\nsamples = 9\nvalue = [0, 0, 2, 7]"] ;
480 -> 481 ;
482 [label="gini = 0.444\nsamples = 12\nvalue = [8, 0, 0, 4]"] ;
480 -> 482 ;
483 [label="Host_Country <= 11.5\ngini = 0.747\nsamples = 289\nvalue = [78, 75, 77, 59]"] ;
479 -> 483 ;
484 [label="gini = 0.729\nsamples = 158\nvalue = [35, 48, 52, 23]"] ;
483 -> 484 ;
485 [label="gini = 0.738\nsamples = 131\nvalue = [43, 27, 25, 36]"] ;
483 -> 485 ;
486 [label="NOC <= 83.5\ngini = 0.734\nsamples = 3652\nvalue = [987, 1120, 517, 1028]"] ;
398 -> 486 ;
487 [label="NOC <= 82.0\ngini = 0.698\nsamples = 1601\nvalue = [394, 659, 141, 407]"] ;
486 -> 487 ;
488 [label="Sport <= 14.5\ngini = 0.71\nsamples = 1422\nvalue = [364, 529, 135, 394]"] ;
487 -> 488 ;
489 [label="NOC <= 64.5\ngini = 0.706\nsamples = 479\nvalue = [170, 115, 40, 154]"] ;
488 -> 489 ;
490 [label="Host_Country <= 9.0\ngini = 0.447\nsamples = 94\nvalue = [3, 19, 5, 67]"] ;
489 -> 490 ;
491 [label="Weight <= 86.5\ngini = 0.448\nsamples = 25\nvalue = [1, 18, 4, 2]"] ;
490 -> 491 ;
492 [label="gini = 0.105\nsamples = 18\nvalue = [0, 17, 1, 0]"] ;
491 -> 492 ;
493 [label="gini = 0.694\nsamples = 7\nvalue = [1, 1, 3, 2]"] ;
491 -> 493 ;
494 [label="Sport <= 13.5\ngini = 0.111\nsamples = 69\nvalue = [2, 1, 1, 65]"] ;
490 -> 494 ;
495 [label="gini = 0.0\nsamples = 63\nvalue = [0, 0, 0, 63]"] ;
494 -> 495 ;
496 [label="gini = 0.722\nsamples = 6\nvalue = [2, 1, 1, 2]"] ;
494 -> 496 ;
497 [label="Host_Country <= 12.5\ngini = 0.69\nsamples = 385\nvalue = [167, 96, 35, 87]"] ;
489 -> 497 ;
498 [label="Host_Country <= 6.5\ngini = 0.714\nsamples = 278\nvalue = [89, 80, 24, 85]"] ;
497 -> 498 ;
499 [label="gini = 0.669\nsamples = 192\nvalue = [83, 42, 8, 59]"] ;
498 -> 499 ;
500 [label="gini = 0.674\nsamples = 86\nvalue = [6, 38, 16, 26]"] ;
498 -> 500 ;
501 [label="Weight <= 80.5\ngini = 0.435\nsamples = 107\nvalue = [78, 16, 11, 2]"] ;
497 -> 501 ;
502 [label="gini = 0.289\nsamples = 85\nvalue = [71, 3, 9, 2]"] ;
501 -> 502 ;
503 [label="gini = 0.541\nsamples = 22\nvalue = [7, 13, 2, 0]"] ;
501 -> 503 ;
504 [label="Sex <= 0.5\ngini = 0.69\nsamples = 943\nvalue = [194, 414, 95, 240]"] ;
488 -> 504 ;
505 [label="NOC <= 68.5\ngini = 0.549\nsamples = 120\nvalue = [19, 76, 17, 8]"] ;
504 -> 505 ;
506 [label="NOC <= 66.5\ngini = 0.396\nsamples = 85\nvalue = [6, 65, 8, 6]"] ;
505 -> 506 ;
507 [label="gini = 0.587\nsamples = 15\nvalue = [5, 2, 8, 0]"] ;
506 -> 507 ;
508 [label="gini = 0.182\nsamples = 70\nvalue = [1, 63, 0, 6]"] ;
506 -> 508 ;
509 [label="Host_Country <= 7.0\ngini = 0.694\nsamples = 35\nvalue = [13, 11, 9, 2]"] ;
505 -> 509 ;
510 [label="gini = 0.566\nsamples = 22\nvalue = [13, 6, 1, 2]"] ;
509 -> 510 ;
511 [label="gini = 0.473\nsamples = 13\nvalue = [0, 5, 8, 0]"] ;
509 -> 511 ;
512 [label="Weight <= 86.5\ngini = 0.698\nsamples = 823\nvalue = [175, 338, 78, 232]"] ;
504 -> 512 ;
513 [label="Host_Country <= 1.5\ngini = 0.706\nsamples = 603\nvalue = [120, 224, 63, 196]"] ;
512 -> 513 ;
514 [label="gini = 0.605\nsamples = 28\nvalue = [3, 3, 6, 16]"] ;
513 -> 514 ;
515 [label="gini = 0.703\nsamples = 575\nvalue = [117, 221, 57, 180]"] ;
513 -> 515 ;
516 [label="Host_Country <= 8.0\ngini = 0.638\nsamples = 220\nvalue = [55, 114, 15, 36]"] ;
512 -> 516 ;
517 [label="gini = 0.683\nsamples = 89\nvalue = [31, 35, 6, 17]"] ;
516 -> 517 ;
518 [label="gini = 0.577\nsamples = 131\nvalue = [24, 79, 9, 19]"] ;
516 -> 518 ;
519 [label="Weight <= 71.5\ngini = 0.438\nsamples = 179\nvalue = [30, 130, 6, 13]"] ;
487 -> 519 ;
520 [label="Host_Country <= 13.0\ngini = 0.658\nsamples = 76\nvalue = [27, 33, 4, 12]"] ;
519 -> 520 ;
521 [label="Host_Country <= 11.0\ngini = 0.646\nsamples = 60\nvalue = [27, 20, 1, 12]"] ;
520 -> 521 ;
522 [label="Host_Country <= 9.5\ngini = 0.663\nsamples = 46\nvalue = [13, 20, 1, 12]"] ;
521 -> 522 ;
523 [label="gini = 0.667\nsamples = 33\nvalue = [13, 7, 1, 12]"] ;
522 -> 523 ;
524 [label="gini = 0.0\nsamples = 13\nvalue = [0, 13, 0, 0]"] ;
522 -> 524 ;
525 [label="gini = 0.0\nsamples = 14\nvalue = [14, 0, 0, 0]"] ;
521 -> 525 ;
526 [label="Host_Country <= 15.0\ngini = 0.305\nsamples = 16\nvalue = [0, 13, 3, 0]"] ;
520 -> 526 ;
527 [label="gini = 0.0\nsamples = 13\nvalue = [0, 13, 0, 0]"] ;
526 -> 527 ;
528 [label="gini = 0.0\nsamples = 3\nvalue = [0, 0, 3, 0]"] ;
526 -> 528 ;
529 [label="Weight <= 72.93\ngini = 0.112\nsamples = 103\nvalue = [3, 97, 2, 1]"] ;
519 -> 529 ;
530 [label="Host_Country <= 3.5\ngini = 0.043\nsamples = 92\nvalue = [0, 90, 2, 0]"] ;
529 -> 530 ;
531 [label="Host_Country <= 1.5\ngini = 0.142\nsamples = 13\nvalue = [0, 12, 1, 0]"] ;
530 -> 531 ;
532 [label="gini = 0.0\nsamples = 12\nvalue = [0, 12, 0, 0]"] ;
531 -> 532 ;
533 [label="gini = 0.0\nsamples = 1\nvalue = [0, 0, 1, 0]"] ;
531 -> 533 ;
534 [label="Host_Country <= 14.5\ngini = 0.025\nsamples = 79\nvalue = [0, 78, 1, 0]"] ;
530 -> 534 ;
535 [label="gini = 0.0\nsamples = 63\nvalue = [0, 63, 0, 0]"] ;
534 -> 535 ;
536 [label="gini = 0.117\nsamples = 16\nvalue = [0, 15, 1, 0]"] ;
534 -> 536 ;
537 [label="Height <= 181.5\ngini = 0.512\nsamples = 11\nvalue = [3, 7, 0, 1]"] ;
529 -> 537 ;
538 [label="Height <= 174.5\ngini = 0.42\nsamples = 10\nvalue = [3, 7, 0, 0]"] ;
537 -> 538 ;
539 [label="gini = 0.444\nsamples = 3\nvalue = [2, 1, 0, 0]"] ;
538 -> 539 ;
540 [label="gini = 0.245\nsamples = 7\nvalue = [1, 6, 0, 0]"] ;
538 -> 540 ;
541 [label="gini = 0.0\nsamples = 1\nvalue = [0, 0, 0, 1]"] ;
537 -> 541 ;
542 [label="Host_Country <= 1.5\ngini = 0.741\nsamples = 2051\nvalue = [593, 461, 376, 621]"] ;
486 -> 542 ;
543 [label="Sport <= 17.5\ngini = 0.646\nsamples = 158\nvalue = [22, 80, 14, 42]"] ;
542 -> 543 ;
544 [label="Host_Country <= 0.5\ngini = 0.74\nsamples = 69\nvalue = [19, 15, 13, 22]"] ;
543 -> 544 ;
545 [label="NOC <= 135.0\ngini = 0.564\nsamples = 32\nvalue = [0, 6, 7, 19]"] ;
544 -> 545 ;
546 [label="NOC <= 93.0\ngini = 0.494\nsamples = 9\nvalue = [0, 5, 4, 0]"] ;
545 -> 546 ;
547 [label="gini = 0.278\nsamples = 6\nvalue = [0, 5, 1, 0]"] ;
546 -> 547 ;
548 [label="gini = 0.0\nsamples = 3\nvalue = [0, 0, 3, 0]"] ;
546 -> 548 ;
549 [label="NOC <= 145.5\ngini = 0.299\nsamples = 23\nvalue = [0, 1, 3, 19]"] ;
545 -> 549 ;
550 [label="gini = 0.0\nsamples = 14\nvalue = [0, 0, 0, 14]"] ;
549 -> 550 ;
551 [label="gini = 0.568\nsamples = 9\nvalue = [0, 1, 3, 5]"] ;
549 -> 551 ;
552 [label="NOC <= 131.0\ngini = 0.644\nsamples = 37\nvalue = [19, 9, 6, 3]"] ;
544 -> 552 ;
553 [label="NOC <= 110.0\ngini = 0.653\nsamples = 7\nvalue = [0, 3, 2, 2]"] ;
552 -> 553 ;
554 [label="gini = 0.48\nsamples = 5\nvalue = [0, 3, 0, 2]"] ;
553 -> 554 ;
555 [label="gini = 0.0\nsamples = 2\nvalue = [0, 0, 2, 0]"] ;
553 -> 555 ;
556 [label="NOC <= 148.5\ngini = 0.54\nsamples = 30\nvalue = [19, 6, 4, 1]"] ;
552 -> 556 ;
557 [label="gini = 0.0\nsamples = 15\nvalue = [15, 0, 0, 0]"] ;
556 -> 557 ;
558 [label="gini = 0.693\nsamples = 15\nvalue = [4, 6, 4, 1]"] ;
556 -> 558 ;
559 [label="NOC <= 110.0\ngini = 0.415\nsamples = 89\nvalue = [3, 65, 1, 20]"] ;
543 -> 559 ;
560 [label="Age <= 37.0\ngini = 0.444\nsamples = 3\nvalue = [0, 0, 1, 2]"] ;
559 -> 560 ;
561 [label="gini = 0.0\nsamples = 1\nvalue = [0, 0, 1, 0]"] ;
560 -> 561 ;
562 [label="gini = 0.0\nsamples = 2\nvalue = [0, 0, 0, 2]"] ;
560 -> 562 ;
563 [label="Age <= 39.0\ngini = 0.384\nsamples = 86\nvalue = [3, 65, 0, 18]"] ;
559 -> 563 ;
564 [label="Age <= 29.5\ngini = 0.439\nsamples = 66\nvalue = [2, 46, 0, 18]"] ;
563 -> 564 ;
565 [label="gini = 0.323\nsamples = 31\nvalue = [1, 25, 0, 5]"] ;
564 -> 565 ;
566 [label="gini = 0.501\nsamples = 35\nvalue = [1, 21, 0, 13]"] ;
564 -> 566 ;
567 [label="Age <= 45.5\ngini = 0.095\nsamples = 20\nvalue = [1, 19, 0, 0]"] ;
563 -> 567 ;
568 [label="gini = 0.0\nsamples = 12\nvalue = [0, 12, 0, 0]"] ;
567 -> 568 ;
569 [label="gini = 0.219\nsamples = 8\nvalue = [1, 7, 0, 0]"] ;
567 -> 569 ;
570 [label="Sport <= 12.5\ngini = 0.738\nsamples = 1893\nvalue = [571, 381, 362, 579]"] ;
542 -> 570 ;
571 [label="NOC <= 137.5\ngini = 0.642\nsamples = 262\nvalue = [75, 25, 30, 132]"] ;
570 -> 571 ;
572 [label="NOC <= 97.0\ngini = 0.482\nsamples = 104\nvalue = [0, 25, 9, 70]"] ;
571 -> 572 ;
573 [label="gini = 0.0\nsamples = 8\nvalue = [0, 0, 8, 0]"] ;
572 -> 573 ;
574 [label="Host_Country <= 13.5\ngini = 0.4\nsamples = 96\nvalue = [0, 25, 1, 70]"] ;
572 -> 574 ;
575 [label="gini = 0.471\nsamples = 66\nvalue = [0, 25, 0, 41]"] ;
574 -> 575 ;
576 [label="gini = 0.064\nsamples = 30\nvalue = [0, 0, 1, 29]"] ;
574 -> 576 ;
577 [label="NOC <= 164.5\ngini = 0.603\nsamples = 158\nvalue = [75, 0, 21, 62]"] ;
571 -> 577 ;
578 [label="Host_Country <= 5.0\ngini = 0.363\nsamples = 96\nvalue = [75, 0, 7, 14]"] ;
577 -> 578 ;
579 [label="gini = 0.56\nsamples = 30\nvalue = [14, 0, 2, 14]"] ;
578 -> 579 ;
580 [label="gini = 0.14\nsamples = 66\nvalue = [61, 0, 5, 0]"] ;
578 -> 580 ;
581 [label="Sex <= 0.5\ngini = 0.35\nsamples = 62\nvalue = [0, 0, 14, 48]"] ;
577 -> 581 ;
582 [label="gini = 0.0\nsamples = 3\nvalue = [0, 0, 3, 0]"] ;
581 -> 582 ;
583 [label="gini = 0.303\nsamples = 59\nvalue = [0, 0, 11, 48]"] ;
581 -> 583 ;
584 [label="Host_Country <= 14.5\ngini = 0.743\nsamples = 1631\nvalue = [496, 356, 332, 447]"] ;
570 -> 584 ;
585 [label="Sex <= 0.5\ngini = 0.736\nsamples = 1177\nvalue = [386, 204, 257, 330]"] ;
584 -> 585 ;
586 [label="NOC <= 112.5\ngini = 0.639\nsamples = 155\nvalue = [52, 8, 21, 74]"] ;
585 -> 586 ;
587 [label="gini = 0.411\nsamples = 28\nvalue = [2, 1, 4, 21]"] ;
586 -> 587 ;
588 [label="gini = 0.65\nsamples = 127\nvalue = [50, 7, 17, 53]"] ;
586 -> 588 ;
589 [label="Sport <= 17.5\ngini = 0.74\nsamples = 1022\nvalue = [334, 196, 236, 256]"] ;
585 -> 589 ;
590 [label="gini = 0.734\nsamples = 803\nvalue = [288, 156, 174, 185]"] ;
589 -> 590 ;
591 [label="gini = 0.737\nsamples = 219\nvalue = [46, 40, 62, 71]"] ;
589 -> 591 ;
592 [label="NOC <= 101.0\ngini = 0.735\nsamples = 454\nvalue = [110, 152, 75, 117]"] ;
584 -> 592 ;
593 [label="Sport <= 13.5\ngini = 0.662\nsamples = 109\nvalue = [16, 21, 17, 55]"] ;
592 -> 593 ;
594 [label="gini = 0.069\nsamples = 28\nvalue = [0, 0, 1, 27]"] ;
593 -> 594 ;
595 [label="gini = 0.735\nsamples = 81\nvalue = [16, 21, 16, 28]"] ;
593 -> 595 ;
596 [label="Sport <= 13.5\ngini = 0.721\nsamples = 345\nvalue = [94, 131, 58, 62]"] ;
592 -> 596 ;
597 [label="gini = 0.504\nsamples = 73\nvalue = [16, 48, 9, 0]"] ;
596 -> 597 ;
598 [label="gini = 0.74\nsamples = 272\nvalue = [78, 83, 49, 62]"] ;
596 -> 598 ;
599 [label="Sport <= 22.5\ngini = 0.743\nsamples = 5990\nvalue = [1621, 1114, 1789, 1466]"] ;
397 -> 599 ;
600 [label="NOC <= 73.0\ngini = 0.729\nsamples = 3248\nvalue = [801, 503, 1167, 777]"] ;
599 -> 600 ;
601 [label="NOC <= 62.5\ngini = 0.738\nsamples = 1912\nvalue = [516, 299, 579, 518]"] ;
600 -> 601 ;
602 [label="Host_Country <= 0.5\ngini = 0.721\nsamples = 1155\nvalue = [285, 153, 433, 284]"] ;
601 -> 602 ;
603 [label="NOC <= 18.5\ngini = 0.608\nsamples = 37\nvalue = [4, 21, 8, 4]"] ;
602 -> 603 ;
604 [label="Sport <= 19.5\ngini = 0.472\nsamples = 27\nvalue = [2, 19, 2, 4]"] ;
603 -> 604 ;
605 [label="gini = 0.0\nsamples = 2\nvalue = [0, 0, 2, 0]"] ;
604 -> 605 ;
606 [label="Weight <= 81.5\ngini = 0.39\nsamples = 25\nvalue = [2, 19, 0, 4]"] ;
604 -> 606 ;
607 [label="gini = 0.314\nsamples = 22\nvalue = [2, 18, 0, 2]"] ;
606 -> 607 ;
608 [label="gini = 0.444\nsamples = 3\nvalue = [0, 1, 0, 2]"] ;
606 -> 608 ;
609 [label="Sport <= 19.5\ngini = 0.56\nsamples = 10\nvalue = [2, 2, 6, 0]"] ;
603 -> 609 ;
610 [label="Age <= 27.5\ngini = 0.64\nsamples = 5\nvalue = [2, 2, 1, 0]"] ;
609 -> 610 ;
611 [label="gini = 0.0\nsamples = 2\nvalue = [0, 2, 0, 0]"] ;
610 -> 611 ;
612 [label="gini = 0.444\nsamples = 3\nvalue = [2, 0, 1, 0]"] ;
610 -> 612 ;
613 [label="gini = 0.0\nsamples = 5\nvalue = [0, 0, 5, 0]"] ;
609 -> 613 ;
614 [label="Sport <= 20.5\ngini = 0.716\nsamples = 1118\nvalue = [281, 132, 425, 280]"] ;
602 -> 614 ;
615 [label="NOC <= 10.5\ngini = 0.712\nsamples = 1050\nvalue = [278, 114, 404, 254]"] ;
614 -> 615 ;
616 [label="NOC <= 8.5\ngini = 0.737\nsamples = 267\nvalue = [76, 42, 68, 81]"] ;
615 -> 616 ;
617 [label="gini = 0.562\nsamples = 37\nvalue = [3, 6, 23, 5]"] ;
616 -> 617 ;
618 [label="gini = 0.727\nsamples = 230\nvalue = [73, 36, 45, 76]"] ;
616 -> 618 ;
619 [label="Host_Country <= 6.5\ngini = 0.692\nsamples = 783\nvalue = [202, 72, 336, 173]"] ;
615 -> 619 ;
620 [label="gini = 0.723\nsamples = 372\nvalue = [101, 41, 117, 113]"] ;
619 -> 620 ;
621 [label="gini = 0.629\nsamples = 411\nvalue = [101, 31, 219, 60]"] ;
619 -> 621 ;
622 [label="NOC <= 30.0\ngini = 0.686\nsamples = 68\nvalue = [3, 18, 21, 26]"] ;
614 -> 622 ;
623 [label="gini = 0.0\nsamples = 11\nvalue = [0, 0, 11, 0]"] ;
622 -> 623 ;
624 [label="NOC <= 45.5\ngini = 0.659\nsamples = 57\nvalue = [3, 18, 10, 26]"] ;
622 -> 624 ;
625 [label="gini = 0.632\nsamples = 52\nvalue = [3, 18, 6, 25]"] ;
624 -> 625 ;
626 [label="gini = 0.32\nsamples = 5\nvalue = [0, 0, 4, 1]"] ;
624 -> 626 ;
627 [label="NOC <= 66.5\ngini = 0.737\nsamples = 757\nvalue = [231, 146, 146, 234]"] ;
601 -> 627 ;
628 [label="Host_Country <= 12.5\ngini = 0.731\nsamples = 357\nvalue = [123, 54, 90, 90]"] ;
627 -> 628 ;
629 [label="Host_Country <= 9.5\ngini = 0.735\nsamples = 235\nvalue = [74, 42, 72, 47]"] ;
628 -> 629 ;
630 [label="NOC <= 64.5\ngini = 0.738\nsamples = 174\nvalue = [60, 36, 38, 40]"] ;
629 -> 630 ;
631 [label="gini = 0.587\nsamples = 34\nvalue = [20, 2, 5, 7]"] ;
630 -> 631 ;
632 [label="gini = 0.748\nsamples = 140\nvalue = [40, 34, 33, 33]"] ;
630 -> 632 ;
633 [label="NOC <= 64.5\ngini = 0.614\nsamples = 61\nvalue = [14, 6, 34, 7]"] ;
629 -> 633 ;
634 [label="gini = 0.652\nsamples = 32\nvalue = [13, 3, 13, 3]"] ;
633 -> 634 ;
635 [label="gini = 0.445\nsamples = 29\nvalue = [1, 3, 21, 4]"] ;
633 -> 635 ;
636 [label="Age <= 41.5\ngini = 0.683\nsamples = 122\nvalue = [49, 12, 18, 43]"] ;
628 -> 636 ;
637 [label="Height <= 191.0\ngini = 0.676\nsamples = 109\nvalue = [48, 10, 17, 34]"] ;
636 -> 637 ;
638 [label="gini = 0.663\nsamples = 101\nvalue = [48, 8, 17, 28]"] ;
637 -> 638 ;
639 [label="gini = 0.375\nsamples = 8\nvalue = [0, 2, 0, 6]"] ;
637 -> 639 ;
640 [label="Height <= 157.5\ngini = 0.485\nsamples = 13\nvalue = [1, 2, 1, 9]"] ;
636 -> 640 ;
641 [label="gini = 0.0\nsamples = 1\nvalue = [1, 0, 0, 0]"] ;
640 -> 641 ;
642 [label="gini = 0.403\nsamples = 12\nvalue = [0, 2, 1, 9]"] ;
640 -> 642 ;
643 [label="NOC <= 68.5\ngini = 0.725\nsamples = 400\nvalue = [108, 92, 56, 144]"] ;
627 -> 643 ;
644 [label="Sex <= 0.5\ngini = 0.693\nsamples = 184\nvalue = [34, 65, 16, 69]"] ;
643 -> 644 ;
645 [label="Height <= 177.0\ngini = 0.648\nsamples = 120\nvalue = [17, 56, 7, 40]"] ;
644 -> 645 ;
646 [label="gini = 0.676\nsamples = 93\nvalue = [15, 34, 7, 37]"] ;
645 -> 646 ;
647 [label="gini = 0.318\nsamples = 27\nvalue = [2, 22, 0, 3]"] ;
645 -> 647 ;
648 [label="Host_Country <= 13.0\ngini = 0.685\nsamples = 64\nvalue = [17, 9, 9, 29]"] ;
644 -> 648 ;
649 [label="gini = 0.718\nsamples = 49\nvalue = [15, 8, 8, 18]"] ;
648 -> 649 ;
650 [label="gini = 0.436\nsamples = 15\nvalue = [2, 1, 1, 11]"] ;
648 -> 650 ;
651 [label="Height <= 196.5\ngini = 0.712\nsamples = 216\nvalue = [74, 27, 40, 75]"] ;
643 -> 651 ;
652 [label="Height <= 173.5\ngini = 0.715\nsamples = 204\nvalue = [63, 27, 39, 75]"] ;
651 -> 652 ;
653 [label="gini = 0.635\nsamples = 23\nvalue = [8, 2, 11, 2]"] ;
652 -> 653 ;
654 [label="gini = 0.702\nsamples = 181\nvalue = [55, 25, 28, 73]"] ;
652 -> 654 ;
655 [label="Weight <= 98.5\ngini = 0.153\nsamples = 12\nvalue = [11, 0, 1, 0]"] ;
651 -> 655 ;
656 [label="gini = 0.0\nsamples = 11\nvalue = [11, 0, 0, 0]"] ;
655 -> 656 ;
657 [label="gini = 0.0\nsamples = 1\nvalue = [0, 0, 1, 0]"] ;
655 -> 657 ;
658 [label="Weight <= 72.43\ngini = 0.7\nsamples = 1336\nvalue = [285, 204, 588, 259]"] ;
600 -> 658 ;
659 [label="Sport <= 20.5\ngini = 0.578\nsamples = 399\nvalue = [85, 34, 239, 41]"] ;
658 -> 659 ;
660 [label="NOC <= 153.5\ngini = 0.543\nsamples = 349\nvalue = [55, 31, 224, 39]"] ;
659 -> 660 ;
661 [label="NOC <= 80.5\ngini = 0.581\nsamples = 291\nvalue = [55, 30, 175, 31]"] ;
660 -> 661 ;
662 [label="gini = 0.0\nsamples = 19\nvalue = [0, 0, 19, 0]"] ;
661 -> 662 ;
663 [label="NOC <= 87.0\ngini = 0.605\nsamples = 272\nvalue = [55, 30, 156, 31]"] ;
661 -> 663 ;
664 [label="gini = 0.736\nsamples = 32\nvalue = [8, 9, 10, 5]"] ;
663 -> 664 ;
665 [label="gini = 0.572\nsamples = 240\nvalue = [47, 21, 146, 26]"] ;
663 -> 665 ;
666 [label="Host_Country <= 13.0\ngini = 0.267\nsamples = 58\nvalue = [0, 1, 49, 8]"] ;
660 -> 666 ;
667 [label="Age <= 15.5\ngini = 0.099\nsamples = 39\nvalue = [0, 1, 37, 1]"] ;
666 -> 667 ;
668 [label="gini = 0.278\nsamples = 6\nvalue = [0, 0, 5, 1]"] ;
667 -> 668 ;
669 [label="gini = 0.059\nsamples = 33\nvalue = [0, 1, 32, 0]"] ;
667 -> 669 ;
670 [label="Host_Country <= 15.0\ngini = 0.465\nsamples = 19\nvalue = [0, 0, 12, 7]"] ;
666 -> 670 ;
671 [label="gini = 0.375\nsamples = 8\nvalue = [0, 0, 2, 6]"] ;
670 -> 671 ;
672 [label="gini = 0.165\nsamples = 11\nvalue = [0, 0, 10, 1]"] ;
670 -> 672 ;
673 [label="NOC <= 93.0\ngini = 0.545\nsamples = 50\nvalue = [30, 3, 15, 2]"] ;
659 -> 673 ;
674 [label="gini = 0.0\nsamples = 8\nvalue = [0, 0, 8, 0]"] ;
673 -> 674 ;
675 [label="NOC <= 106.5\ngini = 0.455\nsamples = 42\nvalue = [30, 3, 7, 2]"] ;
673 -> 675 ;
676 [label="Age <= 26.0\ngini = 0.302\nsamples = 35\nvalue = [29, 3, 2, 1]"] ;
675 -> 676 ;
677 [label="gini = 0.225\nsamples = 32\nvalue = [28, 3, 0, 1]"] ;
676 -> 677 ;
678 [label="gini = 0.444\nsamples = 3\nvalue = [1, 0, 2, 0]"] ;
676 -> 678 ;
679 [label="Height <= 177.0\ngini = 0.449\nsamples = 7\nvalue = [1, 0, 5, 1]"] ;
675 -> 679 ;
680 [label="gini = 0.278\nsamples = 6\nvalue = [0, 0, 5, 1]"] ;
679 -> 680 ;
681 [label="gini = 0.0\nsamples = 1\nvalue = [1, 0, 0, 0]"] ;
679 -> 681 ;
682 [label="NOC <= 159.0\ngini = 0.729\nsamples = 937\nvalue = [200, 170, 349, 218]"] ;
658 -> 682 ;
683 [label="NOC <= 134.5\ngini = 0.697\nsamples = 635\nvalue = [106, 106, 283, 140]"] ;
682 -> 683 ;
684 [label="Height <= 190.5\ngini = 0.72\nsamples = 476\nvalue = [83, 94, 188, 111]"] ;
683 -> 684 ;
685 [label="NOC <= 132.0\ngini = 0.729\nsamples = 457\nvalue = [83, 94, 169, 111]"] ;
684 -> 685 ;
686 [label="gini = 0.711\nsamples = 358\nvalue = [66, 64, 150, 78]"] ;
685 -> 686 ;
687 [label="gini = 0.731\nsamples = 99\nvalue = [17, 30, 19, 33]"] ;
685 -> 687 ;
688 [label="gini = 0.0\nsamples = 19\nvalue = [0, 0, 19, 0]"] ;
684 -> 688 ;
689 [label="NOC <= 146.0\ngini = 0.583\nsamples = 159\nvalue = [23, 12, 95, 29]"] ;
683 -> 689 ;
690 [label="Sport <= 21.0\ngini = 0.291\nsamples = 73\nvalue = [6, 2, 61, 4]"] ;
689 -> 690 ;
691 [label="gini = 0.241\nsamples = 68\nvalue = [3, 2, 59, 4]"] ;
690 -> 691 ;
692 [label="gini = 0.48\nsamples = 5\nvalue = [3, 0, 2, 0]"] ;
690 -> 692 ;
693 [label="Weight <= 76.5\ngini = 0.707\nsamples = 86\nvalue = [17, 10, 34, 25]"] ;
689 -> 693 ;
694 [label="gini = 0.625\nsamples = 59\nvalue = [14, 2, 31, 12]"] ;
693 -> 694 ;
695 [label="gini = 0.656\nsamples = 27\nvalue = [3, 8, 3, 13]"] ;
693 -> 695 ;
696 [label="Host_Country <= 1.5\ngini = 0.744\nsamples = 302\nvalue = [94, 64, 66, 78]"] ;
682 -> 696 ;
697 [label="NOC <= 164.5\ngini = 0.611\nsamples = 72\nvalue = [38, 3, 9, 22]"] ;
696 -> 697 ;
698 [label="Age <= 30.5\ngini = 0.255\nsamples = 20\nvalue = [17, 0, 3, 0]"] ;
697 -> 698 ;
699 [label="gini = 0.0\nsamples = 11\nvalue = [11, 0, 0, 0]"] ;
698 -> 699 ;
700 [label="gini = 0.444\nsamples = 9\nvalue = [6, 0, 3, 0]"] ;
698 -> 700 ;
701 [label="Age <= 24.0\ngini = 0.641\nsamples = 52\nvalue = [21, 3, 6, 22]"] ;
697 -> 701 ;
702 [label="gini = 0.531\nsamples = 8\nvalue = [5, 2, 1, 0]"] ;
701 -> 702 ;
703 [label="gini = 0.604\nsamples = 44\nvalue = [16, 1, 5, 22]"] ;
701 -> 703 ;
704 [label="NOC <= 167.0\ngini = 0.75\nsamples = 230\nvalue = [56, 61, 57, 56]"] ;
696 -> 704 ;
705 [label="Sport <= 19.5\ngini = 0.746\nsamples = 206\nvalue = [54, 57, 41, 54]"] ;
704 -> 705 ;
706 [label="gini = 0.731\nsamples = 143\nvalue = [28, 50, 25, 40]"] ;
705 -> 706 ;
707 [label="gini = 0.703\nsamples = 63\nvalue = [26, 7, 16, 14]"] ;
705 -> 707 ;
708 [label="Weight <= 87.5\ngini = 0.514\nsamples = 24\nvalue = [2, 4, 16, 2]"] ;
704 -> 708 ;
709 [label="gini = 0.29\nsamples = 18\nvalue = [1, 2, 15, 0]"] ;
708 -> 709 ;
710 [label="gini = 0.722\nsamples = 6\nvalue = [1, 2, 1, 2]"] ;
708 -> 710 ;
711 [label="NOC <= 11.5\ngini = 0.746\nsamples = 2742\nvalue = [820, 611, 622, 689]"] ;
599 -> 711 ;
712 [label="Height <= 177.596\ngini = 0.648\nsamples = 105\nvalue = [30, 9, 52, 14]"] ;
711 -> 712 ;
713 [label="Sex <= 0.5\ngini = 0.595\nsamples = 70\nvalue = [10, 6, 41, 13]"] ;
712 -> 713 ;
714 [label="NOC <= 8.5\ngini = 0.5\nsamples = 6\nvalue = [4, 0, 1, 1]"] ;
713 -> 714 ;
715 [label="Weight <= 68.43\ngini = 0.5\nsamples = 2\nvalue = [0, 0, 1, 1]"] ;
714 -> 715 ;
716 [label="gini = 0.0\nsamples = 1\nvalue = [0, 0, 0, 1]"] ;
715 -> 716 ;
717 [label="gini = 0.0\nsamples = 1\nvalue = [0, 0, 1, 0]"] ;
715 -> 717 ;
718 [label="gini = 0.0\nsamples = 4\nvalue = [4, 0, 0, 0]"] ;
714 -> 718 ;
719 [label="NOC <= 10.5\ngini = 0.557\nsamples = 64\nvalue = [6, 6, 40, 12]"] ;
713 -> 719 ;
720 [label="Height <= 155.0\ngini = 0.362\nsamples = 33\nvalue = [3, 1, 26, 3]"] ;
719 -> 720 ;
721 [label="gini = 0.0\nsamples = 1\nvalue = [0, 0, 0, 1]"] ;
720 -> 721 ;
722 [label="Height <= 162.5\ngini = 0.326\nsamples = 32\nvalue = [3, 1, 26, 2]"] ;
720 -> 722 ;
723 [label="gini = 0.5\nsamples = 2\nvalue = [0, 1, 1, 0]"] ;
722 -> 723 ;
724 [label="gini = 0.291\nsamples = 30\nvalue = [3, 0, 25, 2]"] ;
722 -> 724 ;
725 [label="Age <= 22.5\ngini = 0.676\nsamples = 31\nvalue = [3, 5, 14, 9]"] ;
719 -> 725 ;
726 [label="Height <= 172.5\ngini = 0.346\nsamples = 9\nvalue = [0, 2, 7, 0]"] ;
725 -> 726 ;
727 [label="gini = 0.0\nsamples = 1\nvalue = [0, 1, 0, 0]"] ;
726 -> 727 ;
728 [label="gini = 0.219\nsamples = 8\nvalue = [0, 1, 7, 0]"] ;
726 -> 728 ;
729 [label="Age <= 27.5\ngini = 0.694\nsamples = 22\nvalue = [3, 3, 7, 9]"] ;
725 -> 729 ;
730 [label="gini = 0.663\nsamples = 14\nvalue = [3, 2, 2, 7]"] ;
729 -> 730 ;
731 [label="gini = 0.531\nsamples = 8\nvalue = [0, 1, 5, 2]"] ;
729 -> 731 ;
732 [label="NOC <= 8.5\ngini = 0.567\nsamples = 35\nvalue = [20, 3, 11, 1]"] ;
712 -> 732 ;
733 [label="Host_Country <= 15.5\ngini = 0.381\nsamples = 21\nvalue = [16, 0, 4, 1]"] ;
732 -> 733 ;
734 [label="Host_Country <= 1.5\ngini = 0.277\nsamples = 19\nvalue = [16, 0, 2, 1]"] ;
733 -> 734 ;
735 [label="gini = 0.0\nsamples = 1\nvalue = [0, 0, 0, 1]"] ;
734 -> 735 ;
736 [label="Host_Country <= 10.0\ngini = 0.198\nsamples = 18\nvalue = [16, 0, 2, 0]"] ;
734 -> 736 ;
737 [label="gini = 0.48\nsamples = 5\nvalue = [3, 0, 2, 0]"] ;
736 -> 737 ;
738 [label="gini = 0.0\nsamples = 13\nvalue = [13, 0, 0, 0]"] ;
736 -> 738 ;
739 [label="gini = 0.0\nsamples = 2\nvalue = [0, 0, 2, 0]"] ;
733 -> 739 ;
740 [label="Host_Country <= 13.5\ngini = 0.622\nsamples = 14\nvalue = [4, 3, 7, 0]"] ;
732 -> 740 ;
741 [label="gini = 0.0\nsamples = 5\nvalue = [0, 0, 5, 0]"] ;
740 -> 741 ;
742 [label="Sport <= 26.5\ngini = 0.642\nsamples = 9\nvalue = [4, 3, 2, 0]"] ;
740 -> 742 ;
743 [label="Age <= 21.5\ngini = 0.56\nsamples = 5\nvalue = [1, 3, 1, 0]"] ;
742 -> 743 ;
744 [label="gini = 0.0\nsamples = 1\nvalue = [0, 0, 1, 0]"] ;
743 -> 744 ;
745 [label="gini = 0.375\nsamples = 4\nvalue = [1, 3, 0, 0]"] ;
743 -> 745 ;
746 [label="Weight <= 109.5\ngini = 0.375\nsamples = 4\nvalue = [3, 0, 1, 0]"] ;
742 -> 746 ;
747 [label="gini = 0.0\nsamples = 3\nvalue = [3, 0, 0, 0]"] ;
746 -> 747 ;
748 [label="gini = 0.0\nsamples = 1\nvalue = [0, 0, 1, 0]"] ;
746 -> 748 ;
749 [label="NOC <= 96.5\ngini = 0.746\nsamples = 2637\nvalue = [790, 602, 570, 675]"] ;
711 -> 749 ;
750 [label="NOC <= 45.0\ngini = 0.745\nsamples = 1832\nvalue = [510, 463, 350, 509]"] ;
749 -> 750 ;
751 [label="Sex <= 0.5\ngini = 0.714\nsamples = 370\nvalue = [100, 54, 70, 146]"] ;
750 -> 751 ;
752 [label="NOC <= 31.0\ngini = 0.627\nsamples = 65\nvalue = [36, 10, 10, 9]"] ;
751 -> 752 ;
753 [label="NOC <= 23.5\ngini = 0.278\nsamples = 30\nvalue = [25, 0, 5, 0]"] ;
752 -> 753 ;
754 [label="gini = 0.0\nsamples = 3\nvalue = [0, 0, 3, 0]"] ;
753 -> 754 ;
755 [label="gini = 0.137\nsamples = 27\nvalue = [25, 0, 2, 0]"] ;
753 -> 755 ;
756 [label="Host_Country <= 13.5\ngini = 0.733\nsamples = 35\nvalue = [11, 10, 5, 9]"] ;
752 -> 756 ;
757 [label="gini = 0.26\nsamples = 13\nvalue = [11, 0, 2, 0]"] ;
756 -> 757 ;
758 [label="gini = 0.607\nsamples = 22\nvalue = [0, 10, 3, 9]"] ;
756 -> 758 ;
759 [label="Height <= 177.096\ngini = 0.695\nsamples = 305\nvalue = [64, 44, 60, 137]"] ;
751 -> 759 ;
760 [label="Height <= 164.5\ngini = 0.739\nsamples = 116\nvalue = [30, 27, 21, 38]"] ;
759 -> 760 ;
761 [label="gini = 0.7\nsamples = 50\nvalue = [17, 14, 3, 16]"] ;
760 -> 761 ;
762 [label="gini = 0.737\nsamples = 66\nvalue = [13, 13, 18, 22]"] ;
760 -> 762 ;
763 [label="Sport <= 23.5\ngini = 0.643\nsamples = 189\nvalue = [34, 17, 39, 99]"] ;
759 -> 763 ;
764 [label="gini = 0.496\nsamples = 11\nvalue = [6, 0, 5, 0]"] ;
763 -> 764 ;
765 [label="gini = 0.62\nsamples = 178\nvalue = [28, 17, 34, 99]"] ;
763 -> 765 ;
766 [label="Sport <= 25.5\ngini = 0.745\nsamples = 1462\nvalue = [410, 409, 280, 363]"] ;
750 -> 766 ;
767 [label="Host_Country <= 10.5\ngini = 0.733\nsamples = 771\nvalue = [204, 253, 114, 200]"] ;
766 -> 767 ;
768 [label="NOC <= 76.5\ngini = 0.715\nsamples = 499\nvalue = [108, 196, 67, 128]"] ;
767 -> 768 ;
769 [label="gini = 0.741\nsamples = 267\nvalue = [72, 69, 46, 80]"] ;
768 -> 769 ;
770 [label="gini = 0.625\nsamples = 232\nvalue = [36, 127, 21, 48]"] ;
768 -> 770 ;
771 [label="NOC <= 59.0\ngini = 0.732\nsamples = 272\nvalue = [96, 57, 47, 72]"] ;
767 -> 771 ;
772 [label="gini = 0.641\nsamples = 43\nvalue = [3, 22, 11, 7]"] ;
771 -> 772 ;
773 [label="gini = 0.706\nsamples = 229\nvalue = [93, 35, 36, 65]"] ;
771 -> 773 ;
774 [label="NOC <= 56.5\ngini = 0.747\nsamples = 691\nvalue = [206, 156, 166, 163]"] ;
766 -> 774 ;
775 [label="Host_Country <= 8.5\ngini = 0.718\nsamples = 66\nvalue = [16, 14, 26, 10]"] ;
774 -> 775 ;
776 [label="gini = 0.738\nsamples = 39\nvalue = [13, 9, 10, 7]"] ;
775 -> 776 ;
777 [label="gini = 0.59\nsamples = 27\nvalue = [3, 5, 16, 3]"] ;
775 -> 777 ;
778 [label="NOC <= 61.5\ngini = 0.746\nsamples = 625\nvalue = [190, 142, 140, 153]"] ;
774 -> 778 ;
779 [label="gini = 0.732\nsamples = 148\nvalue = [42, 45, 20, 41]"] ;
778 -> 779 ;
780 [label="gini = 0.744\nsamples = 477\nvalue = [148, 97, 120, 112]"] ;
778 -> 780 ;
781 [label="Sport <= 26.5\ngini = 0.732\nsamples = 805\nvalue = [280, 139, 220, 166]"] ;
749 -> 781 ;
782 [label="NOC <= 128.5\ngini = 0.695\nsamples = 437\nvalue = [176, 49, 140, 72]"] ;
781 -> 782 ;
783 [label="Host_Country <= 2.5\ngini = 0.507\nsamples = 55\nvalue = [16, 1, 35, 3]"] ;
782 -> 783 ;
784 [label="Sex <= 0.5\ngini = 0.32\nsamples = 16\nvalue = [13, 0, 2, 1]"] ;
783 -> 784 ;
785 [label="gini = 0.0\nsamples = 12\nvalue = [12, 0, 0, 0]"] ;
784 -> 785 ;
786 [label="gini = 0.625\nsamples = 4\nvalue = [1, 0, 2, 1]"] ;
784 -> 786 ;
787 [label="Height <= 157.5\ngini = 0.275\nsamples = 39\nvalue = [3, 1, 33, 2]"] ;
783 -> 787 ;
788 [label="gini = 0.5\nsamples = 2\nvalue = [0, 1, 0, 1]"] ;
787 -> 788 ;
789 [label="gini = 0.197\nsamples = 37\nvalue = [3, 0, 33, 1]"] ;
787 -> 789 ;
790 [label="Host_Country <= 14.5\ngini = 0.701\nsamples = 382\nvalue = [160, 48, 105, 69]"] ;
782 -> 790 ;
791 [label="Sport <= 24.5\ngini = 0.668\nsamples = 301\nvalue = [139, 25, 88, 49]"] ;
790 -> 791 ;
792 [label="gini = 0.682\nsamples = 150\nvalue = [68, 15, 28, 39]"] ;
791 -> 792 ;
793 [label="gini = 0.612\nsamples = 151\nvalue = [71, 10, 60, 10]"] ;
791 -> 793 ;
794 [label="NOC <= 131.0\ngini = 0.747\nsamples = 81\nvalue = [21, 23, 17, 20]"] ;
790 -> 794 ;
795 [label="gini = 0.142\nsamples = 13\nvalue = [0, 12, 1, 0]"] ;
794 -> 795 ;
796 [label="gini = 0.737\nsamples = 68\nvalue = [21, 11, 16, 20]"] ;
794 -> 796 ;
797 [label="NOC <= 148.5\ngini = 0.748\nsamples = 368\nvalue = [104, 90, 80, 94]"] ;
781 -> 797 ;
798 [label="Height <= 158.5\ngini = 0.736\nsamples = 162\nvalue = [49, 27, 50, 36]"] ;
797 -> 798 ;
799 [label="Weight <= 57.5\ngini = 0.617\nsamples = 16\nvalue = [0, 5, 3, 8]"] ;
798 -> 799 ;
800 [label="gini = 0.582\nsamples = 14\nvalue = [0, 3, 3, 8]"] ;
799 -> 800 ;
801 [label="gini = 0.0\nsamples = 2\nvalue = [0, 2, 0, 0]"] ;
799 -> 801 ;
802 [label="NOC <= 147.5\ngini = 0.724\nsamples = 146\nvalue = [49, 22, 47, 28]"] ;
798 -> 802 ;
803 [label="gini = 0.727\nsamples = 141\nvalue = [49, 22, 42, 28]"] ;
802 -> 803 ;
804 [label="gini = 0.0\nsamples = 5\nvalue = [0, 0, 5, 0]"] ;
802 -> 804 ;
805 [label="Age <= 22.5\ngini = 0.735\nsamples = 206\nvalue = [55, 63, 30, 58]"] ;
797 -> 805 ;
806 [label="Host_Country <= 2.0\ngini = 0.718\nsamples = 31\nvalue = [11, 5, 10, 5]"] ;
805 -> 806 ;
807 [label="gini = 0.0\nsamples = 2\nvalue = [0, 2, 0, 0]"] ;
806 -> 807 ;
808 [label="gini = 0.697\nsamples = 29\nvalue = [11, 3, 10, 5]"] ;
806 -> 808 ;
809 [label="Height <= 178.5\ngini = 0.722\nsamples = 175\nvalue = [44, 58, 20, 53]"] ;
805 -> 809 ;
810 [label="gini = 0.705\nsamples = 142\nvalue = [30, 54, 14, 44]"] ;
809 -> 810 ;
811 [label="gini = 0.698\nsamples = 33\nvalue = [14, 4, 6, 9]"] ;
809 -> 811 ;
812 [label="NOC <= 184.5\ngini = 0.708\nsamples = 6808\nvalue = [1564, 2745, 775, 1724]"] ;
0 -> 812 [labeldistance=2.5, labelangle=-45, headlabel="False"] ;
813 [label="Sport <= 18.5\ngini = 0.699\nsamples = 6226\nvalue = [1460, 2599, 608, 1559]"] ;
812 -> 813 ;
814 [label="Sport <= 5.5\ngini = 0.713\nsamples = 4286\nvalue = [1063, 1662, 489, 1072]"] ;
813 -> 814 ;
815 [label="NOC <= 183.5\ngini = 0.684\nsamples = 2011\nvalue = [456, 897, 170, 488]"] ;
814 -> 815 ;
816 [label="NOC <= 182.5\ngini = 0.712\nsamples = 610\nvalue = [195, 200, 52, 163]"] ;
815 -> 816 ;
817 [label="Sport <= 4.5\ngini = 0.707\nsamples = 577\nvalue = [170, 200, 44, 163]"] ;
816 -> 817 ;
818 [label="Host_Country <= 10.5\ngini = 0.712\nsamples = 486\nvalue = [158, 146, 40, 142]"] ;
817 -> 818 ;
819 [label="Height <= 173.5\ngini = 0.711\nsamples = 284\nvalue = [81, 69, 28, 106]"] ;
818 -> 819 ;
820 [label="Height <= 170.5\ngini = 0.708\nsamples = 80\nvalue = [32, 23, 14, 11]"] ;
819 -> 820 ;
821 [label="gini = 0.729\nsamples = 60\nvalue = [21, 16, 14, 9]"] ;
820 -> 821 ;
822 [label="gini = 0.565\nsamples = 20\nvalue = [11, 7, 0, 2]"] ;
820 -> 822 ;
823 [label="Weight <= 77.5\ngini = 0.67\nsamples = 204\nvalue = [49, 46, 14, 95]"] ;
819 -> 823 ;
824 [label="gini = 0.579\nsamples = 98\nvalue = [19, 11, 9, 59]"] ;
823 -> 824 ;
825 [label="gini = 0.693\nsamples = 106\nvalue = [30, 35, 5, 36]"] ;
823 -> 825 ;
826 [label="Height <= 189.5\ngini = 0.674\nsamples = 202\nvalue = [77, 77, 12, 36]"] ;
818 -> 826 ;
827 [label="Host_Country <= 13.0\ngini = 0.696\nsamples = 145\nvalue = [44, 57, 11, 33]"] ;
826 -> 827 ;
828 [label="gini = 0.665\nsamples = 71\nvalue = [32, 23, 6, 10]"] ;
827 -> 828 ;
829 [label="gini = 0.661\nsamples = 74\nvalue = [12, 34, 5, 23]"] ;
827 -> 829 ;
830 [label="Host_Country <= 11.5\ngini = 0.539\nsamples = 57\nvalue = [33, 20, 1, 3]"] ;
826 -> 830 ;
831 [label="gini = 0.517\nsamples = 22\nvalue = [8, 13, 0, 1]"] ;
830 -> 831 ;
832 [label="gini = 0.446\nsamples = 35\nvalue = [25, 7, 1, 2]"] ;
830 -> 832 ;
833 [label="Host_Country <= 10.5\ngini = 0.575\nsamples = 91\nvalue = [12, 54, 4, 21]"] ;
817 -> 833 ;
834 [label="Host_Country <= 1.0\ngini = 0.432\nsamples = 55\nvalue = [4, 40, 1, 10]"] ;
833 -> 834 ;
835 [label="Age <= 26.0\ngini = 0.62\nsamples = 10\nvalue = [2, 3, 0, 5]"] ;
834 -> 835 ;
836 [label="gini = 0.0\nsamples = 2\nvalue = [0, 0, 0, 2]"] ;
835 -> 836 ;
837 [label="gini = 0.656\nsamples = 8\nvalue = [2, 3, 0, 3]"] ;
835 -> 837 ;
838 [label="Weight <= 60.5\ngini = 0.309\nsamples = 45\nvalue = [2, 37, 1, 5]"] ;
834 -> 838 ;
839 [label="gini = 0.0\nsamples = 1\nvalue = [0, 0, 0, 1]"] ;
838 -> 839 ;
840 [label="gini = 0.282\nsamples = 44\nvalue = [2, 37, 1, 4]"] ;
838 -> 840 ;
841 [label="Age <= 28.5\ngini = 0.699\nsamples = 36\nvalue = [8, 14, 3, 11]"] ;
833 -> 841 ;
842 [label="Weight <= 74.5\ngini = 0.659\nsamples = 29\nvalue = [3, 13, 3, 10]"] ;
841 -> 842 ;
843 [label="gini = 0.64\nsamples = 5\nvalue = [2, 0, 2, 1]"] ;
842 -> 843 ;
844 [label="gini = 0.562\nsamples = 24\nvalue = [1, 13, 1, 9]"] ;
842 -> 844 ;
845 [label="Weight <= 72.5\ngini = 0.449\nsamples = 7\nvalue = [5, 1, 0, 1]"] ;
841 -> 845 ;
846 [label="gini = 0.625\nsamples = 4\nvalue = [2, 1, 0, 1]"] ;
845 -> 846 ;
847 [label="gini = 0.0\nsamples = 3\nvalue = [3, 0, 0, 0]"] ;
845 -> 847 ;
848 [label="Host_Country <= 4.5\ngini = 0.367\nsamples = 33\nvalue = [25, 0, 8, 0]"] ;
816 -> 848 ;
849 [label="gini = 0.0\nsamples = 24\nvalue = [24, 0, 0, 0]"] ;
848 -> 849 ;
850 [label="Weight <= 56.0\ngini = 0.198\nsamples = 9\nvalue = [1, 0, 8, 0]"] ;
848 -> 850 ;
851 [label="gini = 0.0\nsamples = 1\nvalue = [1, 0, 0, 0]"] ;
850 -> 851 ;
852 [label="gini = 0.0\nsamples = 8\nvalue = [0, 0, 8, 0]"] ;
850 -> 852 ;
853 [label="Sport <= 2.5\ngini = 0.657\nsamples = 1401\nvalue = [261, 697, 118, 325]"] ;
815 -> 853 ;
854 [label="Height <= 177.596\ngini = 0.684\nsamples = 1043\nvalue = [198, 468, 103, 274]"] ;
853 -> 854 ;
855 [label="Height <= 177.096\ngini = 0.714\nsamples = 409\nvalue = [81, 158, 54, 116]"] ;
854 -> 855 ;
856 [label="Host_Country <= 15.5\ngini = 0.687\nsamples = 306\nvalue = [49, 139, 41, 77]"] ;
855 -> 856 ;
857 [label="Weight <= 63.5\ngini = 0.711\nsamples = 213\nvalue = [38, 84, 30, 61]"] ;
856 -> 857 ;
858 [label="gini = 0.729\nsamples = 132\nvalue = [26, 42, 21, 43]"] ;
857 -> 858 ;
859 [label="gini = 0.647\nsamples = 81\nvalue = [12, 42, 9, 18]"] ;
857 -> 859 ;
860 [label="Age <= 29.5\ngini = 0.593\nsamples = 93\nvalue = [11, 55, 11, 16]"] ;
856 -> 860 ;
861 [label="gini = 0.561\nsamples = 85\nvalue = [8, 53, 10, 14]"] ;
860 -> 861 ;
862 [label="gini = 0.719\nsamples = 8\nvalue = [3, 2, 1, 2]"] ;
860 -> 862 ;
863 [label="Sport <= 0.5\ngini = 0.71\nsamples = 103\nvalue = [32, 19, 13, 39]"] ;
855 -> 863 ;
864 [label="Age <= 21.833\ngini = 0.711\nsamples = 29\nvalue = [7, 11, 3, 8]"] ;
863 -> 864 ;
865 [label="gini = 0.0\nsamples = 2\nvalue = [2, 0, 0, 0]"] ;
864 -> 865 ;
866 [label="gini = 0.7\nsamples = 27\nvalue = [5, 11, 3, 8]"] ;
864 -> 866 ;
867 [label="Age <= 32.0\ngini = 0.68\nsamples = 74\nvalue = [25, 8, 10, 31]"] ;
863 -> 867 ;
868 [label="gini = 0.669\nsamples = 72\nvalue = [25, 8, 8, 31]"] ;
867 -> 868 ;
869 [label="gini = 0.0\nsamples = 2\nvalue = [0, 0, 2, 0]"] ;
867 -> 869 ;
870 [label="Weight <= 85.5\ngini = 0.659\nsamples = 634\nvalue = [117, 310, 49, 158]"] ;
854 -> 870 ;
871 [label="Age <= 17.5\ngini = 0.635\nsamples = 485\nvalue = [83, 256, 36, 110]"] ;
870 -> 871 ;
872 [label="Host_Country <= 5.5\ngini = 0.48\nsamples = 5\nvalue = [2, 0, 3, 0]"] ;
871 -> 872 ;
873 [label="gini = 0.444\nsamples = 3\nvalue = [2, 0, 1, 0]"] ;
872 -> 873 ;
874 [label="gini = 0.0\nsamples = 2\nvalue = [0, 0, 2, 0]"] ;
872 -> 874 ;
875 [label="Age <= 31.5\ngini = 0.63\nsamples = 480\nvalue = [81, 256, 33, 110]"] ;
871 -> 875 ;
876 [label="gini = 0.626\nsamples = 467\nvalue = [75, 251, 32, 109]"] ;
875 -> 876 ;
877 [label="gini = 0.627\nsamples = 13\nvalue = [6, 5, 1, 1]"] ;
875 -> 877 ;
878 [label="Weight <= 110.5\ngini = 0.705\nsamples = 149\nvalue = [34, 54, 13, 48]"] ;
870 -> 878 ;
879 [label="Weight <= 97.5\ngini = 0.72\nsamples = 105\nvalue = [30, 35, 11, 29]"] ;
878 -> 879 ;
880 [label="gini = 0.7\nsamples = 76\nvalue = [17, 28, 6, 25]"] ;
879 -> 880 ;
881 [label="gini = 0.692\nsamples = 29\nvalue = [13, 7, 5, 4]"] ;
879 -> 881 ;
882 [label="Height <= 189.5\ngini = 0.617\nsamples = 44\nvalue = [4, 19, 2, 19]"] ;
878 -> 882 ;
883 [label="gini = 0.32\nsamples = 10\nvalue = [0, 2, 0, 8]"] ;
882 -> 883 ;
884 [label="gini = 0.628\nsamples = 34\nvalue = [4, 17, 2, 11]"] ;
882 -> 884 ;
885 [label="Sport <= 3.5\ngini = 0.538\nsamples = 358\nvalue = [63, 229, 15, 51]"] ;
853 -> 885 ;
886 [label="Host_Country <= 11.5\ngini = 0.362\nsamples = 222\nvalue = [24, 174, 0, 24]"] ;
885 -> 886 ;
887 [label="Sex <= 0.5\ngini = 0.461\nsamples = 162\nvalue = [24, 114, 0, 24]"] ;
886 -> 887 ;
888 [label="Host_Country <= 2.5\ngini = 0.667\nsamples = 36\nvalue = [12, 12, 0, 12]"] ;
887 -> 888 ;
889 [label="gini = 0.0\nsamples = 12\nvalue = [0, 0, 0, 12]"] ;
888 -> 889 ;
890 [label="gini = 0.5\nsamples = 24\nvalue = [12, 12, 0, 0]"] ;
888 -> 890 ;
891 [label="Host_Country <= 10.5\ngini = 0.327\nsamples = 126\nvalue = [12, 102, 0, 12]"] ;
887 -> 891 ;
892 [label="gini = 0.188\nsamples = 114\nvalue = [0, 102, 0, 12]"] ;
891 -> 892 ;
893 [label="gini = 0.0\nsamples = 12\nvalue = [12, 0, 0, 0]"] ;
891 -> 893 ;
894 [label="gini = 0.0\nsamples = 60\nvalue = [0, 60, 0, 0]"] ;
886 -> 894 ;
895 [label="Host_Country <= 4.5\ngini = 0.703\nsamples = 136\nvalue = [39, 55, 15, 27]"] ;
885 -> 895 ;
896 [label="Age <= 29.5\ngini = 0.625\nsamples = 35\nvalue = [5, 19, 8, 3]"] ;
895 -> 896 ;
897 [label="Host_Country <= 3.5\ngini = 0.572\nsamples = 31\nvalue = [4, 19, 5, 3]"] ;
896 -> 897 ;
898 [label="gini = 0.65\nsamples = 25\nvalue = [4, 13, 5, 3]"] ;
897 -> 898 ;
899 [label="gini = 0.0\nsamples = 6\nvalue = [0, 6, 0, 0]"] ;
897 -> 899 ;
900 [label="Height <= 179.0\ngini = 0.375\nsamples = 4\nvalue = [1, 0, 3, 0]"] ;
896 -> 900 ;
901 [label="gini = 0.0\nsamples = 2\nvalue = [0, 0, 2, 0]"] ;
900 -> 901 ;
902 [label="gini = 0.5\nsamples = 2\nvalue = [1, 0, 1, 0]"] ;
900 -> 902 ;
903 [label="Height <= 182.5\ngini = 0.698\nsamples = 101\nvalue = [34, 36, 7, 24]"] ;
895 -> 903 ;
904 [label="Height <= 176.0\ngini = 0.697\nsamples = 80\nvalue = [30, 24, 5, 21]"] ;
903 -> 904 ;
905 [label="gini = 0.663\nsamples = 34\nvalue = [14, 13, 4, 3]"] ;
904 -> 905 ;
906 [label="gini = 0.668\nsamples = 46\nvalue = [16, 11, 1, 18]"] ;
904 -> 906 ;
907 [label="Age <= 30.5\ngini = 0.608\nsamples = 21\nvalue = [4, 12, 2, 3]"] ;
903 -> 907 ;
908 [label="gini = 0.575\nsamples = 20\nvalue = [4, 12, 1, 3]"] ;
907 -> 908 ;
909 [label="gini = 0.0\nsamples = 1\nvalue = [0, 0, 1, 0]"] ;
907 -> 909 ;
910 [label="Sport <= 14.5\ngini = 0.73\nsamples = 2275\nvalue = [607, 765, 319, 584]"] ;
814 -> 910 ;
911 [label="NOC <= 183.5\ngini = 0.737\nsamples = 1578\nvalue = [443, 516, 278, 341]"] ;
910 -> 911 ;
912 [label="Sport <= 12.5\ngini = 0.686\nsamples = 862\nvalue = [223, 380, 75, 184]"] ;
911 -> 912 ;
913 [label="NOC <= 182.5\ngini = 0.678\nsamples = 807\nvalue = [178, 375, 75, 179]"] ;
912 -> 913 ;
914 [label="Sport <= 10.5\ngini = 0.684\nsamples = 769\nvalue = [178, 344, 68, 179]"] ;
913 -> 914 ;
915 [label="Sport <= 9.5\ngini = 0.689\nsamples = 361\nvalue = [115, 148, 32, 66]"] ;
914 -> 915 ;
916 [label="gini = 0.707\nsamples = 274\nvalue = [64, 112, 32, 66]"] ;
915 -> 916 ;
917 [label="gini = 0.485\nsamples = 87\nvalue = [51, 36, 0, 0]"] ;
915 -> 917 ;
918 [label="Sex <= 0.5\ngini = 0.661\nsamples = 408\nvalue = [63, 196, 36, 113]"] ;
914 -> 918 ;
919 [label="gini = 0.643\nsamples = 206\nvalue = [46, 107, 17, 36]"] ;
918 -> 919 ;
920 [label="gini = 0.645\nsamples = 202\nvalue = [17, 89, 19, 77]"] ;
918 -> 920 ;
921 [label="Sport <= 9.5\ngini = 0.301\nsamples = 38\nvalue = [0, 31, 7, 0]"] ;
913 -> 921 ;
922 [label="gini = 0.0\nsamples = 7\nvalue = [0, 0, 7, 0]"] ;
921 -> 922 ;
923 [label="gini = 0.0\nsamples = 31\nvalue = [0, 31, 0, 0]"] ;
921 -> 923 ;
924 [label="Sport <= 13.5\ngini = 0.314\nsamples = 55\nvalue = [45, 5, 0, 5]"] ;
912 -> 924 ;
925 [label="gini = 0.0\nsamples = 32\nvalue = [32, 0, 0, 0]"] ;
924 -> 925 ;
926 [label="Weight <= 72.0\ngini = 0.586\nsamples = 23\nvalue = [13, 5, 0, 5]"] ;
924 -> 926 ;
927 [label="Height <= 164.5\ngini = 0.245\nsamples = 7\nvalue = [6, 1, 0, 0]"] ;
926 -> 927 ;
928 [label="gini = 0.5\nsamples = 2\nvalue = [1, 1, 0, 0]"] ;
927 -> 928 ;
929 [label="gini = 0.0\nsamples = 5\nvalue = [5, 0, 0, 0]"] ;
927 -> 929 ;
930 [label="Age <= 23.5\ngini = 0.648\nsamples = 16\nvalue = [7, 4, 0, 5]"] ;
926 -> 930 ;
931 [label="gini = 0.48\nsamples = 5\nvalue = [2, 3, 0, 0]"] ;
930 -> 931 ;
932 [label="gini = 0.579\nsamples = 11\nvalue = [5, 1, 0, 5]"] ;
930 -> 932 ;
933 [label="Sport <= 8.5\ngini = 0.741\nsamples = 716\nvalue = [220, 136, 203, 157]"] ;
911 -> 933 ;
934 [label="Sport <= 6.5\ngini = 0.722\nsamples = 309\nvalue = [98, 78, 35, 98]"] ;
933 -> 934 ;
935 [label="Host_Country <= 15.5\ngini = 0.722\nsamples = 70\nvalue = [27, 11, 16, 16]"] ;
934 -> 935 ;
936 [label="Host_Country <= 13.5\ngini = 0.486\nsamples = 24\nvalue = [14, 0, 10, 0]"] ;
935 -> 936 ;
937 [label="gini = 0.426\nsamples = 13\nvalue = [4, 0, 9, 0]"] ;
936 -> 937 ;
938 [label="gini = 0.165\nsamples = 11\nvalue = [10, 0, 1, 0]"] ;
936 -> 938 ;
939 [label="Age <= 20.5\ngini = 0.725\nsamples = 46\nvalue = [13, 11, 6, 16]"] ;
935 -> 939 ;
940 [label="gini = 0.622\nsamples = 14\nvalue = [3, 7, 0, 4]"] ;
939 -> 940 ;
941 [label="gini = 0.711\nsamples = 32\nvalue = [10, 4, 6, 12]"] ;
939 -> 941 ;
942 [label="Host_Country <= 4.5\ngini = 0.709\nsamples = 239\nvalue = [71, 67, 19, 82]"] ;
934 -> 942 ;
943 [label="Weight <= 72.93\ngini = 0.668\nsamples = 57\nvalue = [25, 18, 3, 11]"] ;
942 -> 943 ;
944 [label="gini = 0.628\nsamples = 51\nvalue = [25, 17, 2, 7]"] ;
943 -> 944 ;
945 [label="gini = 0.5\nsamples = 6\nvalue = [0, 1, 1, 4]"] ;
943 -> 945 ;
946 [label="Sport <= 7.5\ngini = 0.704\nsamples = 182\nvalue = [46, 49, 16, 71]"] ;
942 -> 946 ;
947 [label="gini = 0.673\nsamples = 94\nvalue = [30, 33, 1, 30]"] ;
946 -> 947 ;
948 [label="gini = 0.688\nsamples = 88\nvalue = [16, 16, 15, 41]"] ;
946 -> 948 ;
949 [label="Host_Country <= 15.5\ngini = 0.698\nsamples = 407\nvalue = [122, 58, 168, 59]"] ;
933 -> 949 ;
950 [label="Weight <= 47.0\ngini = 0.385\nsamples = 164\nvalue = [34, 2, 124, 4]"] ;
949 -> 950 ;
951 [label="Host_Country <= 7.0\ngini = 0.571\nsamples = 14\nvalue = [8, 0, 4, 2]"] ;
950 -> 951 ;
952 [label="gini = 0.46\nsamples = 10\nvalue = [7, 0, 1, 2]"] ;
951 -> 952 ;
953 [label="gini = 0.375\nsamples = 4\nvalue = [1, 0, 3, 0]"] ;
951 -> 953 ;
954 [label="Sport <= 13.5\ngini = 0.33\nsamples = 150\nvalue = [26, 2, 120, 2]"] ;
950 -> 954 ;
955 [label="gini = 0.291\nsamples = 144\nvalue = [23, 2, 119, 0]"] ;
954 -> 955 ;
956 [label="gini = 0.611\nsamples = 6\nvalue = [3, 0, 1, 2]"] ;
954 -> 956 ;
957 [label="Sport <= 12.5\ngini = 0.732\nsamples = 243\nvalue = [88, 56, 44, 55]"] ;
949 -> 957 ;
958 [label="Height <= 177.096\ngini = 0.745\nsamples = 205\nvalue = [56, 56, 39, 54]"] ;
957 -> 958 ;
959 [label="gini = 0.636\nsamples = 68\nvalue = [9, 36, 7, 16]"] ;
958 -> 959 ;
960 [label="gini = 0.73\nsamples = 137\nvalue = [47, 20, 32, 38]"] ;
958 -> 960 ;
961 [label="Sport <= 13.5\ngini = 0.273\nsamples = 38\nvalue = [32, 0, 5, 1]"] ;
957 -> 961 ;
962 [label="gini = 0.062\nsamples = 31\nvalue = [30, 0, 1, 0]"] ;
961 -> 962 ;
963 [label="gini = 0.571\nsamples = 7\nvalue = [2, 0, 4, 1]"] ;
961 -> 963 ;
964 [label="NOC <= 183.5\ngini = 0.692\nsamples = 697\nvalue = [164, 249, 41, 243]"] ;
910 -> 964 ;
965 [label="Sport <= 16.5\ngini = 0.671\nsamples = 228\nvalue = [60, 44, 18, 106]"] ;
964 -> 965 ;
966 [label="Age <= 29.5\ngini = 0.651\nsamples = 30\nvalue = [6, 14, 1, 9]"] ;
965 -> 966 ;
967 [label="NOC <= 182.5\ngini = 0.61\nsamples = 20\nvalue = [5, 11, 1, 3]"] ;
966 -> 967 ;
968 [label="Host_Country <= 3.5\ngini = 0.571\nsamples = 19\nvalue = [5, 11, 0, 3]"] ;
967 -> 968 ;
969 [label="gini = 0.0\nsamples = 3\nvalue = [0, 3, 0, 0]"] ;
968 -> 969 ;
970 [label="gini = 0.617\nsamples = 16\nvalue = [5, 8, 0, 3]"] ;
968 -> 970 ;
971 [label="gini = 0.0\nsamples = 1\nvalue = [0, 0, 1, 0]"] ;
967 -> 971 ;
972 [label="Age <= 33.5\ngini = 0.54\nsamples = 10\nvalue = [1, 3, 0, 6]"] ;
966 -> 972 ;
973 [label="gini = 0.0\nsamples = 4\nvalue = [0, 0, 0, 4]"] ;
972 -> 973 ;
974 [label="Weight <= 77.5\ngini = 0.611\nsamples = 6\nvalue = [1, 3, 0, 2]"] ;
972 -> 974 ;
975 [label="gini = 0.5\nsamples = 4\nvalue = [0, 2, 0, 2]"] ;
974 -> 975 ;
976 [label="gini = 0.5\nsamples = 2\nvalue = [1, 1, 0, 0]"] ;
974 -> 976 ;
977 [label="NOC <= 182.5\ngini = 0.655\nsamples = 198\nvalue = [54, 30, 17, 97]"] ;
965 -> 977 ;
978 [label="Host_Country <= 10.5\ngini = 0.644\nsamples = 189\nvalue = [49, 30, 14, 96]"] ;
977 -> 978 ;
979 [label="Host_Country <= 5.5\ngini = 0.688\nsamples = 96\nvalue = [20, 23, 10, 43]"] ;
978 -> 979 ;
980 [label="gini = 0.617\nsamples = 67\nvalue = [15, 10, 5, 37]"] ;
979 -> 980 ;
981 [label="gini = 0.697\nsamples = 29\nvalue = [5, 13, 5, 6]"] ;
979 -> 981 ;
982 [label="Age <= 20.5\ngini = 0.57\nsamples = 93\nvalue = [29, 7, 4, 53]"] ;
978 -> 982 ;
983 [label="gini = 0.594\nsamples = 16\nvalue = [8, 2, 0, 6]"] ;
982 -> 983 ;
984 [label="gini = 0.546\nsamples = 77\nvalue = [21, 5, 4, 47]"] ;
982 -> 984 ;
985 [label="Host_Country <= 6.5\ngini = 0.568\nsamples = 9\nvalue = [5, 0, 3, 1]"] ;
977 -> 985 ;
986 [label="Age <= 22.5\ngini = 0.32\nsamples = 5\nvalue = [4, 0, 0, 1]"] ;
985 -> 986 ;
987 [label="gini = 0.0\nsamples = 2\nvalue = [2, 0, 0, 0]"] ;
986 -> 987 ;
988 [label="gini = 0.444\nsamples = 3\nvalue = [2, 0, 0, 1]"] ;
986 -> 988 ;
989 [label="Height <= 191.5\ngini = 0.375\nsamples = 4\nvalue = [1, 0, 3, 0]"] ;
985 -> 989 ;
990 [label="gini = 0.0\nsamples = 3\nvalue = [0, 0, 3, 0]"] ;
989 -> 990 ;
991 [label="gini = 0.0\nsamples = 1\nvalue = [1, 0, 0, 0]"] ;
989 -> 991 ;
992 [label="Age <= 22.5\ngini = 0.672\nsamples = 469\nvalue = [104, 205, 23, 137]"] ;
964 -> 992 ;
993 [label="Sex <= 0.5\ngini = 0.484\nsamples = 132\nvalue = [28, 90, 6, 8]"] ;
992 -> 993 ;
994 [label="Host_Country <= 2.5\ngini = 0.531\nsamples = 8\nvalue = [5, 1, 2, 0]"] ;
993 -> 994 ;
995 [label="gini = 0.0\nsamples = 5\nvalue = [5, 0, 0, 0]"] ;
994 -> 995 ;
996 [label="Sport <= 16.5\ngini = 0.444\nsamples = 3\nvalue = [0, 1, 2, 0]"] ;
994 -> 996 ;
997 [label="gini = 0.0\nsamples = 2\nvalue = [0, 0, 2, 0]"] ;
996 -> 997 ;
998 [label="gini = 0.0\nsamples = 1\nvalue = [0, 1, 0, 0]"] ;
996 -> 998 ;
999 [label="Weight <= 88.5\ngini = 0.445\nsamples = 124\nvalue = [23, 89, 4, 8]"] ;
993 -> 999 ;
1000 [label="Height <= 166.0\ngini = 0.387\nsamples = 111\nvalue = [17, 85, 4, 5]"] ;
999 -> 1000 ;
1001 [label="gini = 0.0\nsamples = 2\nvalue = [0, 0, 2, 0]"] ;
1000 -> 1001 ;
1002 [label="gini = 0.365\nsamples = 109\nvalue = [17, 85, 2, 5]"] ;
1000 -> 1002 ;
1003 [label="Host_Country <= 4.0\ngini = 0.639\nsamples = 13\nvalue = [6, 4, 0, 3]"] ;
999 -> 1003 ;
1004 [label="gini = 0.0\nsamples = 3\nvalue = [0, 3, 0, 0]"] ;
1003 -> 1004 ;
1005 [label="gini = 0.54\nsamples = 10\nvalue = [6, 1, 0, 3]"] ;
1003 -> 1005 ;
1006 [label="Age <= 32.5\ngini = 0.684\nsamples = 337\nvalue = [76, 115, 17, 129]"] ;
992 -> 1006 ;
1007 [label="Height <= 177.596\ngini = 0.672\nsamples = 269\nvalue = [58, 79, 14, 118]"] ;
1006 -> 1007 ;
1008 [label="Weight <= 68.5\ngini = 0.685\nsamples = 119\nvalue = [25, 49, 8, 37]"] ;
1007 -> 1008 ;
1009 [label="gini = 0.608\nsamples = 38\nvalue = [10, 4, 3, 21]"] ;
1008 -> 1009 ;
1010 [label="gini = 0.614\nsamples = 81\nvalue = [15, 45, 5, 16]"] ;
1008 -> 1010 ;
1011 [label="Weight <= 84.5\ngini = 0.618\nsamples = 150\nvalue = [33, 30, 6, 81]"] ;
1007 -> 1011 ;
1012 [label="gini = 0.608\nsamples = 69\nvalue = [22, 9, 2, 36]"] ;
1011 -> 1012 ;
1013 [label="gini = 0.603\nsamples = 81\nvalue = [11, 21, 4, 45]"] ;
1011 -> 1013 ;
1014 [label="Weight <= 74.0\ngini = 0.622\nsamples = 68\nvalue = [18, 36, 3, 11]"] ;
1006 -> 1014 ;
1015 [label="Host_Country <= 3.5\ngini = 0.552\nsamples = 37\nvalue = [4, 23, 2, 8]"] ;
1014 -> 1015 ;
1016 [label="gini = 0.444\nsamples = 3\nvalue = [0, 0, 1, 2]"] ;
1015 -> 1016 ;
1017 [label="gini = 0.497\nsamples = 34\nvalue = [4, 23, 1, 6]"] ;
1015 -> 1017 ;
1018 [label="Sport <= 17.5\ngini = 0.61\nsamples = 31\nvalue = [14, 13, 1, 3]"] ;
1014 -> 1018 ;
1019 [label="gini = 0.48\nsamples = 5\nvalue = [0, 3, 0, 2]"] ;
1018 -> 1019 ;
1020 [label="gini = 0.559\nsamples = 26\nvalue = [14, 10, 1, 1]"] ;
1018 -> 1020 ;
1021 [label="Sport <= 24.5\ngini = 0.658\nsamples = 1940\nvalue = [397, 937, 119, 487]"] ;
813 -> 1021 ;
1022 [label="NOC <= 183.5\ngini = 0.638\nsamples = 1438\nvalue = [272, 748, 91, 327]"] ;
1021 -> 1022 ;
1023 [label="Sport <= 23.5\ngini = 0.715\nsamples = 347\nvalue = [89, 116, 33, 109]"] ;
1022 -> 1023 ;
1024 [label="NOC <= 182.5\ngini = 0.718\nsamples = 206\nvalue = [77, 35, 33, 61]"] ;
1023 -> 1024 ;
1025 [label="Sex <= 0.5\ngini = 0.71\nsamples = 200\nvalue = [77, 35, 27, 61]"] ;
1024 -> 1025 ;
1026 [label="Sport <= 20.5\ngini = 0.689\nsamples = 50\nvalue = [20, 5, 17, 8]"] ;
1025 -> 1026 ;
1027 [label="Host_Country <= 8.5\ngini = 0.69\nsamples = 47\nvalue = [20, 5, 14, 8]"] ;
1026 -> 1027 ;
1028 [label="gini = 0.631\nsamples = 15\nvalue = [3, 1, 8, 3]"] ;
1027 -> 1028 ;
1029 [label="gini = 0.643\nsamples = 32\nvalue = [17, 4, 6, 5]"] ;
1027 -> 1029 ;
1030 [label="gini = 0.0\nsamples = 3\nvalue = [0, 0, 3, 0]"] ;
1026 -> 1030 ;
1031 [label="Host_Country <= 13.0\ngini = 0.686\nsamples = 150\nvalue = [57, 30, 10, 53]"] ;
1025 -> 1031 ;
1032 [label="Age <= 25.333\ngini = 0.651\nsamples = 114\nvalue = [53, 14, 9, 38]"] ;
1031 -> 1032 ;
1033 [label="gini = 0.552\nsamples = 76\nvalue = [44, 4, 3, 25]"] ;
1032 -> 1033 ;
1034 [label="gini = 0.733\nsamples = 38\nvalue = [9, 10, 6, 13]"] ;
1032 -> 1034 ;
1035 [label="Weight <= 87.0\ngini = 0.616\nsamples = 36\nvalue = [4, 16, 1, 15]"] ;
1031 -> 1035 ;
1036 [label="gini = 0.623\nsamples = 33\nvalue = [4, 13, 1, 15]"] ;
1035 -> 1036 ;
1037 [label="gini = 0.0\nsamples = 3\nvalue = [0, 3, 0, 0]"] ;
1035 -> 1037 ;
1038 [label="gini = 0.0\nsamples = 6\nvalue = [0, 0, 6, 0]"] ;
1024 -> 1038 ;
1039 [label="Host_Country <= 4.5\ngini = 0.547\nsamples = 141\nvalue = [12, 81, 0, 48]"] ;
1023 -> 1039 ;
1040 [label="gini = 0.0\nsamples = 24\nvalue = [0, 0, 0, 24]"] ;
1039 -> 1040 ;
1041 [label="Host_Country <= 11.5\ngini = 0.468\nsamples = 117\nvalue = [12, 81, 0, 24]"] ;
1039 -> 1041 ;
1042 [label="Host_Country <= 8.5\ngini = 0.614\nsamples = 71\nvalue = [12, 35, 0, 24]"] ;
1041 -> 1042 ;
1043 [label="Height <= 184.0\ngini = 0.5\nsamples = 24\nvalue = [12, 12, 0, 0]"] ;
1042 -> 1043 ;
1044 [label="gini = 0.0\nsamples = 12\nvalue = [0, 12, 0, 0]"] ;
1043 -> 1044 ;
1045 [label="gini = 0.0\nsamples = 12\nvalue = [12, 0, 0, 0]"] ;
1043 -> 1045 ;
1046 [label="Height <= 190.5\ngini = 0.5\nsamples = 47\nvalue = [0, 23, 0, 24]"] ;
1042 -> 1046 ;
1047 [label="gini = 0.457\nsamples = 34\nvalue = [0, 22, 0, 12]"] ;
1046 -> 1047 ;
1048 [label="gini = 0.142\nsamples = 13\nvalue = [0, 1, 0, 12]"] ;
1046 -> 1048 ;
1049 [label="gini = 0.0\nsamples = 46\nvalue = [0, 46, 0, 0]"] ;
1041 -> 1049 ;
1050 [label="Host_Country <= 0.5\ngini = 0.594\nsamples = 1091\nvalue = [183, 632, 58, 218]"] ;
1022 -> 1050 ;
1051 [label="Height <= 169.5\ngini = 0.499\nsamples = 23\nvalue = [6, 2, 0, 15]"] ;
1050 -> 1051 ;
1052 [label="gini = 0.0\nsamples = 5\nvalue = [0, 0, 0, 5]"] ;
1051 -> 1052 ;
1053 [label="Age <= 34.5\ngini = 0.568\nsamples = 18\nvalue = [6, 2, 0, 10]"] ;
1051 -> 1053 ;
1054 [label="Age <= 17.5\ngini = 0.554\nsamples = 17\nvalue = [5, 2, 0, 10]"] ;
1053 -> 1054 ;
1055 [label="Age <= 15.5\ngini = 0.444\nsamples = 3\nvalue = [2, 0, 0, 1]"] ;
1054 -> 1055 ;
1056 [label="gini = 0.5\nsamples = 2\nvalue = [1, 0, 0, 1]"] ;
1055 -> 1056 ;
1057 [label="gini = 0.0\nsamples = 1\nvalue = [1, 0, 0, 0]"] ;
1055 -> 1057 ;
1058 [label="Height <= 180.5\ngini = 0.52\nsamples = 14\nvalue = [3, 2, 0, 9]"] ;
1054 -> 1058 ;
1059 [label="gini = 0.408\nsamples = 7\nvalue = [0, 2, 0, 5]"] ;
1058 -> 1059 ;
1060 [label="gini = 0.49\nsamples = 7\nvalue = [3, 0, 0, 4]"] ;
1058 -> 1060 ;
1061 [label="gini = 0.0\nsamples = 1\nvalue = [1, 0, 0, 0]"] ;
1053 -> 1061 ;
1062 [label="Sport <= 21.5\ngini = 0.585\nsamples = 1068\nvalue = [177, 630, 58, 203]"] ;
1050 -> 1062 ;
1063 [label="Height <= 182.5\ngini = 0.568\nsamples = 959\nvalue = [142, 584, 49, 184]"] ;
1062 -> 1063 ;
1064 [label="Weight <= 63.5\ngini = 0.601\nsamples = 660\nvalue = [109, 377, 39, 135]"] ;
1063 -> 1064 ;
1065 [label="Host_Country <= 2.5\ngini = 0.49\nsamples = 165\nvalue = [16, 113, 8, 28]"] ;
1064 -> 1065 ;
1066 [label="gini = 0.56\nsamples = 5\nvalue = [1, 1, 0, 3]"] ;
1065 -> 1066 ;
1067 [label="gini = 0.474\nsamples = 160\nvalue = [15, 112, 8, 25]"] ;
1065 -> 1067 ;
1068 [label="Host_Country <= 6.5\ngini = 0.63\nsamples = 495\nvalue = [93, 264, 31, 107]"] ;
1064 -> 1068 ;
1069 [label="gini = 0.575\nsamples = 224\nvalue = [36, 135, 12, 41]"] ;
1068 -> 1069 ;
1070 [label="gini = 0.665\nsamples = 271\nvalue = [57, 129, 19, 66]"] ;
1068 -> 1070 ;
1071 [label="Age <= 16.5\ngini = 0.481\nsamples = 299\nvalue = [33, 207, 10, 49]"] ;
1063 -> 1071 ;
1072 [label="gini = 0.0\nsamples = 2\nvalue = [0, 0, 0, 2]"] ;
1071 -> 1072 ;
1073 [label="Host_Country <= 12.5\ngini = 0.476\nsamples = 297\nvalue = [33, 207, 10, 47]"] ;
1071 -> 1073 ;
1074 [label="gini = 0.521\nsamples = 225\nvalue = [31, 148, 10, 36]"] ;
1073 -> 1074 ;
1075 [label="gini = 0.304\nsamples = 72\nvalue = [2, 59, 0, 11]"] ;
1073 -> 1075 ;
1076 [label="Host_Country <= 4.0\ngini = 0.682\nsamples = 109\nvalue = [35, 46, 9, 19]"] ;
1062 -> 1076 ;
1077 [label="Sport <= 23.5\ngini = 0.331\nsamples = 31\nvalue = [25, 3, 3, 0]"] ;
1076 -> 1077 ;
1078 [label="Sport <= 22.5\ngini = 0.612\nsamples = 7\nvalue = [1, 3, 3, 0]"] ;
1077 -> 1078 ;
1079 [label="gini = 0.0\nsamples = 3\nvalue = [0, 0, 3, 0]"] ;
1078 -> 1079 ;
1080 [label="gini = 0.375\nsamples = 4\nvalue = [1, 3, 0, 0]"] ;
1078 -> 1080 ;
1081 [label="gini = 0.0\nsamples = 24\nvalue = [24, 0, 0, 0]"] ;
1077 -> 1081 ;
1082 [label="Weight <= 79.5\ngini = 0.614\nsamples = 78\nvalue = [10, 43, 6, 19]"] ;
1076 -> 1082 ;
1083 [label="Sport <= 23.5\ngini = 0.692\nsamples = 51\nvalue = [10, 19, 4, 18]"] ;
1082 -> 1083 ;
1084 [label="gini = 0.65\nsamples = 35\nvalue = [10, 17, 2, 6]"] ;
1083 -> 1084 ;
1085 [label="gini = 0.406\nsamples = 16\nvalue = [0, 2, 2, 12]"] ;
1083 -> 1085 ;
1086 [label="Age <= 32.5\ngini = 0.203\nsamples = 27\nvalue = [0, 24, 2, 1]"] ;
1082 -> 1086 ;
1087 [label="gini = 0.145\nsamples = 26\nvalue = [0, 24, 1, 1]"] ;
1086 -> 1087 ;
1088 [label="gini = 0.0\nsamples = 1\nvalue = [0, 0, 1, 0]"] ;
1086 -> 1088 ;
1089 [label="Sport <= 25.5\ngini = 0.692\nsamples = 502\nvalue = [125, 189, 28, 160]"] ;
1021 -> 1089 ;
1090 [label="Host_Country <= 8.0\ngini = 0.669\nsamples = 161\nvalue = [68, 29, 9, 55]"] ;
1089 -> 1090 ;
1091 [label="NOC <= 183.5\ngini = 0.488\nsamples = 45\nvalue = [30, 11, 4, 0]"] ;
1090 -> 1091 ;
1092 [label="Host_Country <= 1.0\ngini = 0.575\nsamples = 23\nvalue = [10, 11, 2, 0]"] ;
1091 -> 1092 ;
1093 [label="gini = 0.0\nsamples = 10\nvalue = [10, 0, 0, 0]"] ;
1092 -> 1093 ;
1094 [label="NOC <= 182.5\ngini = 0.26\nsamples = 13\nvalue = [0, 11, 2, 0]"] ;
1092 -> 1094 ;
1095 [label="Host_Country <= 4.5\ngini = 0.153\nsamples = 12\nvalue = [0, 11, 1, 0]"] ;
1094 -> 1095 ;
1096 [label="gini = 0.0\nsamples = 1\nvalue = [0, 0, 1, 0]"] ;
1095 -> 1096 ;
1097 [label="gini = 0.0\nsamples = 11\nvalue = [0, 11, 0, 0]"] ;
1095 -> 1097 ;
1098 [label="gini = 0.0\nsamples = 1\nvalue = [0, 0, 1, 0]"] ;
1094 -> 1098 ;
1099 [label="Age <= 30.5\ngini = 0.165\nsamples = 22\nvalue = [20, 0, 2, 0]"] ;
1091 -> 1099 ;
1100 [label="Age <= 21.5\ngini = 0.091\nsamples = 21\nvalue = [20, 0, 1, 0]"] ;
1099 -> 1100 ;
1101 [label="Age <= 20.5\ngini = 0.32\nsamples = 5\nvalue = [4, 0, 1, 0]"] ;
1100 -> 1101 ;
1102 [label="gini = 0.0\nsamples = 3\nvalue = [3, 0, 0, 0]"] ;
1101 -> 1102 ;
1103 [label="gini = 0.5\nsamples = 2\nvalue = [1, 0, 1, 0]"] ;
1101 -> 1103 ;
1104 [label="gini = 0.0\nsamples = 16\nvalue = [16, 0, 0, 0]"] ;
1100 -> 1104 ;
1105 [label="gini = 0.0\nsamples = 1\nvalue = [0, 0, 1, 0]"] ;
1099 -> 1105 ;
1106 [label="Host_Country <= 13.0\ngini = 0.642\nsamples = 116\nvalue = [38, 18, 5, 55]"] ;
1090 -> 1106 ;
1107 [label="NOC <= 183.0\ngini = 0.542\nsamples = 63\nvalue = [24, 0, 4, 35]"] ;
1106 -> 1107 ;
1108 [label="Host_Country <= 9.5\ngini = 0.499\nsamples = 46\nvalue = [24, 0, 0, 22]"] ;
1107 -> 1108 ;
1109 [label="gini = 0.0\nsamples = 11\nvalue = [0, 0, 0, 11]"] ;
1108 -> 1109 ;
1110 [label="Host_Country <= 11.5\ngini = 0.431\nsamples = 35\nvalue = [24, 0, 0, 11]"] ;
1108 -> 1110 ;
1111 [label="gini = 0.0\nsamples = 24\nvalue = [24, 0, 0, 0]"] ;
1110 -> 1111 ;
1112 [label="gini = 0.0\nsamples = 11\nvalue = [0, 0, 0, 11]"] ;
1110 -> 1112 ;
1113 [label="Age <= 21.5\ngini = 0.36\nsamples = 17\nvalue = [0, 0, 4, 13]"] ;
1107 -> 1113 ;
1114 [label="gini = 0.0\nsamples = 3\nvalue = [0, 0, 3, 0]"] ;
1113 -> 1114 ;
1115 [label="Age <= 31.5\ngini = 0.133\nsamples = 14\nvalue = [0, 0, 1, 13]"] ;
1113 -> 1115 ;
1116 [label="gini = 0.0\nsamples = 13\nvalue = [0, 0, 0, 13]"] ;
1115 -> 1116 ;
1117 [label="gini = 0.0\nsamples = 1\nvalue = [0, 0, 1, 0]"] ;
1115 -> 1117 ;
1118 [label="Host_Country <= 15.0\ngini = 0.672\nsamples = 53\nvalue = [14, 18, 1, 20]"] ;
1106 -> 1118 ;
1119 [label="gini = 0.0\nsamples = 11\nvalue = [0, 11, 0, 0]"] ;
1118 -> 1119 ;
1120 [label="Weight <= 73.93\ngini = 0.634\nsamples = 42\nvalue = [14, 7, 1, 20]"] ;
1118 -> 1120 ;
1121 [label="Weight <= 69.43\ngini = 0.625\nsamples = 28\nvalue = [14, 7, 0, 7]"] ;
1120 -> 1121 ;
1122 [label="gini = 0.0\nsamples = 1\nvalue = [0, 1, 0, 0]"] ;
1121 -> 1122 ;
1123 [label="gini = 0.615\nsamples = 27\nvalue = [14, 6, 0, 7]"] ;
1121 -> 1123 ;
1124 [label="Weight <= 96.5\ngini = 0.133\nsamples = 14\nvalue = [0, 0, 1, 13]"] ;
1120 -> 1124 ;
1125 [label="gini = 0.0\nsamples = 13\nvalue = [0, 0, 0, 13]"] ;
1124 -> 1125 ;
1126 [label="gini = 0.0\nsamples = 1\nvalue = [0, 0, 1, 0]"] ;
1124 -> 1126 ;
1127 [label="NOC <= 183.0\ngini = 0.654\nsamples = 341\nvalue = [57, 160, 19, 105]"] ;
1089 -> 1127 ;
1128 [label="Weight <= 101.5\ngini = 0.595\nsamples = 183\nvalue = [25, 101, 5, 52]"] ;
1127 -> 1128 ;
1129 [label="Sport <= 26.5\ngini = 0.625\nsamples = 160\nvalue = [24, 80, 5, 51]"] ;
1128 -> 1129 ;
1130 [label="Age <= 21.0\ngini = 0.555\nsamples = 53\nvalue = [2, 29, 2, 20]"] ;
1129 -> 1130 ;
1131 [label="gini = 0.0\nsamples = 3\nvalue = [0, 0, 0, 3]"] ;
1130 -> 1131 ;
1132 [label="Height <= 174.5\ngini = 0.545\nsamples = 50\nvalue = [2, 29, 2, 17]"] ;
1130 -> 1132 ;
1133 [label="gini = 0.526\nsamples = 38\nvalue = [2, 24, 2, 10]"] ;
